age	work-class	fnlwgt	education-num	marital-status	occupation	relationship	race	sex	capital-gain	capital-loss	hours-per-week	native-country
-0.09931308141111193	0	0	-0.024651424630268582	0.06171425358790554	0	-0.012630267248935874	0.0	-0.019787890983519022	-0.702323716629706	-0.16619802470750744	-0.09984018262679482	0.025003022709352365
0.04720336255960545	0	-0.013371754099304614	-0.14099867381938314	0.05646429575273166	0	0.1409478043662977	0.0	-0.014970889404910448	-0.7058128448740743	-0.16144815746147267	-0.09814517605389314	0.0
-0.016105327059950745	0	0	0.18205594789032856	0.06322309684893004	0	-0.03480321597066905	0.0	0.014714847634115265	-0.6875322350794587	-0.1734126936086754	0.11385060910442138	-0.006971255082588527
-0.015279560165799849	0	0	0.193533416015681	-0.03375621237951701	0.015637879875127325	-0.01989449253342196	0.0	-0.017045944140267617	-0.6853128670055552	-0.18332380596814782	-0.09178115481093202	0.0
-0.02004495281052408	0	0	-0.018013000522541373	0.06239451771699623	0	-0.02048300732838935	0.0	0.022195027801432624	0.7051712152645566	-0.18381292156900633	0.10162253128238594	0.041013367372064735
0.0779626135977672	0	0	0.19787867341985016	0.05413815734496706	0	-0.04656524959345104	0.0	0.020823731037773265	-0.6573230916201289	-0.18310527190476264	0.09877246112094773	-0.04107759222330779
0.07434544326120564	0	0	-0.130913571026066	0.0553484557378673	0	-0.0477130206041231	0.0	0.0204877943475571	0.7017714901270239	-0.17255424735715805	0.09765554779605706	0.054492783098852304
-0.10314116483046407	0	0	-0.128926508827658	-0.03720606245618778	0	-0.010821789436381344	0.0	-0.022334672255895433	-0.7013708596046224	-0.16014286323782326	-0.09386284322292263	-0.04580601058237451
0.06609621321670596	0	0.0157716192896375	0.03848723822840799	0.06075387544517846	0	-0.012354774585198852	0.0	-0.017528837524142325	-0.6945339588995137	-0.18666534872727783	-0.09926287992600774	0.0
0.06545269908106682	0	0	-0.13844357335890548	0.055090553954433276	0	-0.04387380433102465	0.0	0.018632394172810998	0.6864291450002946	-0.1576980637028418	-0.09455485503071799	-0.029969029955728012
0.05182023325243865	0	0	0.1844363843002226	-0.039287992595109525	0	-0.014041804357498121	0.0	0.02238773939322927	-0.7133989210557125	-0.1714283376738658	0.034790330546010974	0.018866557870671343
-0.016687344686120643	0	0.018686880253699578	-0.13836853405910288	0.06132202789863366	0	-0.020879363640357966	0.0	0.007497864987103646	-0.6764570812458013	-0.1745316631999266	-0.10262475213504388	-0.019040625883541343
0.05329871504131623	0	0	0.18877778508394516	-0.044955442907246734	0	-0.01733226781977786	0.0	0.013896557981795557	-0.6980239038777245	-0.19858806180847324	-0.0960386716707493	0.018280472465261266
0.059848350664595644	0	0	-0.13360451502963594	0.05679048843241594	0	0.142628497003153	0.0	-0.018591686071938764	-0.6955384621201568	-0.17954952069252614	0.03397725941810461	0.03907924244502368
-0.006315949793932249	-0.006977719244787532	0	-0.02726794305476585	0.06134731065366396	0	0.14207902065549038	0.0	-0.018076672362403803	-0.6977806979225478	-0.15039400586960702	-0.10515719849702118	0.0
0.05430571607839114	0	0	-0.13728894995184268	-0.09510488171224418	0	0.13653693281409796	0.0	-0.027204371357977743	-0.6775014259487905	-0.17761079212925326	-0.0973346792081131	-0.01569162838319341
0.054212349102050084	0.01990798660302734	0	0.03399992427154954	0.061438579655624326	0	-0.05178561657877008	0.0	0.02458558696486028	0.6955986608720851	-0.16419897899649832	0.09953363236558617	0.0
0.07729412805634132	0	0	0.18621166440034329	0.062303466114023785	0	-0.050955579960711414	0.0	0.016648777441414134	-0.6758437734466903	-0.19250720088219786	-0.10091231844118241	-0.0024991222456909414
0.05497408767906328	0	0	0.022891941212353	0.06103447638984817	0	0.1410552017982296	0.0	-0.021945994578248206	0.6835980410005895	-0.1697035230445563	-0.09265404502140263	0.04835927694585262
0.0	0.01809045476495582	0	0.19982224543449917	0.06212372666011077	0	0.14028121945980918	0.0	-0.02403211955816501	-0.6605734655498783	-0.17775573694728644	-0.10387324508210076	0.025504450965208016
0.06061786660300313	0	0	-0.13043876629959028	0.049928972438646545	0	-0.03859608611227837	0.0	0.014898820142393054	-0.7033133476992584	-0.1851082704539715	-0.10022299061591984	0.044974022053853376
-0.02491110420637821	0	0	-0.13547530689239504	0.05913087766704508	0	-0.02968138777051367	0.0	0.012995773956537431	-0.7059400736453842	-0.18900649505747988	-0.1013768353173605	-0.014398371443966764
0.07188703121072325	0	0	0.19730394407098187	0.060656081275914694	0	0.14261573237712183	0.0	0.02107319662850626	-0.6907523272910371	-0.19187059947607618	-0.09614040715004835	-0.0591337214281472
-0.09612150246579167	-0.016613159937461867	0	-0.13328966021980262	-0.0447591333211528	0	0.0	0.0	-0.01314368393042296	-0.7037942931159319	-0.19766356086031495	-0.09773889749344486	0.05691713309874538
-0.015316328865454932	0	0	-0.02350513638227358	0.06385021552530051	0	-0.03749125822887514	0.0	0.017388704085670406	-0.6758211180823227	-0.164447839800963	0.10229337580922986	-0.09502796437420413
0.0	0	-0.012786975406884395	0.19614265167429068	-0.042519189886972224	0	-0.01555209286252679	0.0	0.016868843554083936	-0.6857147759201294	-0.19620192713826354	-0.09903972681883631	-0.01902942257906526
0.07513978237165655	0	0	-0.13483751677438557	-0.03658271645230324	0	0.1423387782425968	0.0	0.020424398562624384	-0.7051904306949252	-0.17541828685838318	-0.10042758027363217	-0.038888106251833386
-0.012278792120134501	0	0.019343345222289546	0.1968561346798822	-0.0484733417879667	0	0.14222923781191718	0.0	-0.02345724294553157	-0.662814080234182	-0.1859437077326426	-0.10696268291726198	0.0
-0.009527349015608838	0	0	-0.01886351763151779	-0.04368859729814864	0	-0.014844905172157715	0.0	0.020120225734265945	-0.6761864560112899	-0.18530623417796413	0.10494823345680099	0.004901462327051003
-0.09078482492460277	0	0	-0.13222532615792704	-0.03615562958712582	0	-0.03999796161539229	0.0	-0.01935607499119292	-0.6962940987867524	-0.17134554062313315	-0.09100743335670503	0.033231768719230795
0.0748272684400756	0	0	-0.14217727644616565	0.056348848181711333	0	-0.0384826419515069	0.0	0.021108776840439797	0.6978544553206204	-0.1817360171850288	-0.10057285947652071	-0.007945336083610147
-0.018089116524756255	0	0	-0.025430816838938882	0.061433592865640776	0	-0.04055962410321795	0.0	0.018394944255504395	-0.6767764417214777	-0.20926799182684105	-0.09598161707669471	0.026604969674201177
-0.096064110904986	0	0	-0.13229436710458806	-0.038733581271147816	0	-0.026006349400694993	0.0	0.016578196932859186	-0.689311512154553	-0.16843570602452954	-0.09872811082192041	0.01383085674646174
-0.10499379366750786	0	0	-0.1345635098208513	-0.08953952408214853	0	0.13759036415589335	0.0	-0.016990936912417168	-0.695263367699097	-0.20115553389699575	-0.09218005904179839	-0.04148520490883344
-0.09788854682169883	0	0	0.18383651480297183	-0.0438726841339443	0	-0.020820002779814425	0.0	0.02198592589755454	-0.7043318076100945	-0.1863779498637757	-0.09778007911588239	0.01357633681833827
-0.018194629919421005	0	0	0.19705655835377126	0.051458467982277295	0	-0.04828046988679837	0.0	0.020818079847916653	-0.6826828154685357	0.19319008181091726	-0.10326955391376068	0.017962054937955368
-0.10209901157893417	0	-0.007846769760197592	-0.13443156618346996	-0.036651388686440405	0	-0.03020800853728048	0.0	0.0	-0.6843401393833235	-0.18519048861927634	-0.0909674862148659	0.043426451029650925
-0.014347289934316361	0	0.013665365088507781	0.036110348934724305	-0.0408421574943984	0	-0.01648151614636347	0.0	0.009316808616149117	-0.6840580888545894	-0.17974561352406124	-0.09458016912228173	0.0
-0.10502642012055588	0	0	-0.022159524143703896	-0.08404527163250282	0	-0.02607899349188671	0.0	-0.018992225594335322	-0.6839953881059677	-0.21300484427492938	-0.09010031087337943	0.0366441526698515
0.07223907978196374	0	0	-0.13247331599485035	0.06002004245377419	0	-0.04079061443199475	0.0	-0.01836546577498261	-0.6996853506631188	-0.21321046674986496	-0.0921891539041786	-0.03553773334344307
-0.01870896186748938	0	0	-0.02015495996692514	0.056893057441621944	0	-0.014547777118264384	0.0	0.019648328644015244	-0.7304103228014028	-0.20275910525603483	-0.10159156411614631	-0.02639525698840087
0.0432746989734466	0	0.017512534012469747	0.026395701576869705	0.05348840750112182	0	0.14109568435940606	0.0	0.023581059683692035	-0.7012157426466568	-0.187342083115395	-0.10068678991692494	0.0
0.06048396663262627	0	0	0.19337871146392965	0.05600595626164473	0	-0.043490568337931	0.0	0.021051296338598733	0.7013039195172475	-0.18927850874246901	0.09332984070513638	0.052894146196856805
0.06292945119924781	0	0	-0.13587526998238728	-0.08385083465759982	0	0.1362585562741465	0.0	-0.019648806652329816	-0.6797346438981806	-0.18625189418865362	-0.1022961812097436	0.027350259792681568
0.05771933898338547	0	0	-0.03034059737873058	0.05070040054827527	0	-0.03980986586470541	0.0	0.014315045814912941	-0.6912748967056741	-0.17271587812538083	0.10031010695207326	0.1095499071420734
0.05229932118537722	0	0	-0.13530028871810137	0.05748748787979814	0	-0.05019258040221215	0.0	0.02385017827380625	-0.6878874836759905	-0.1794358789056984	-0.09686192574241248	0.007704717930866497
0.05786603099799292	0	0	-0.1346350948307389	0.06465661736087733	0	-0.04204984489833868	0.0	0.019131941695168752	-0.6873186400490138	-0.17474935739395767	0.10933567626231527	-0.0202350163689806
-0.09924662362339937	0	0	-0.13597128899582314	-0.04033266557794909	0	0.14291744886440472	0.0	-0.023678386485237266	-0.7170194946532648	-0.20806739875548064	-0.10057389455338864	0.09581301477937203
0.06895407473997776	0	0	-0.1312892949091124	0.06084515262726667	0	-0.040805986148504676	0.0	0.01621133868696821	-0.7026322306379824	-0.19413940031637197	0.1016725386778359	-0.009757850395906077
0.04842999804977887	0	0	-0.13816612901368727	0.05243135051390459	0	-0.0453872064290302	0.0	0.019069004816381692	-0.7009193333623037	-0.1712451467215016	-0.09937546935136107	-0.023436448626957377
0.051959341107831306	0	0	-0.13481879324672327	0.05769607724804245	0	-0.011318928028538155	0.0	-0.015183128337014084	-0.7070240171056923	-0.1651285088137929	-0.09922122415356871	0.038342767700513876
-0.10076215415352606	0	0	-0.02521814157963658	-0.03842490172320197	0	-0.028001160733417973	0.0	-0.018310852855832855	-0.6667807337258391	-0.20128314173856715	-0.09647612899297274	0.03800334725335272
0.05273500333637921	0	-0.018992670874565187	-0.020602857111027866	0.06222579930617605	0	-0.029123309336736757	0.0	0.0	0.7050838687490945	-0.17285969916482352	0.10109830603966208	-0.057981832945722664
-0.09917160180714323	0	0.016459342275396964	-0.14387846396739631	0.05932631107355398	0	-0.03445849620813821	0.0	-0.017796324022016863	-0.6678716600117787	-0.16195375326976383	-0.09589758691215472	0.0
-0.10088420570902905	0	0	0.19426622159187537	-0.041783630643502316	0	-0.014954040928351384	0.0	-0.014165584300580916	-0.6870892359507128	-0.18522075014898756	0.10188060542399535	0.06068162904175334
0.07319034145069346	0	0	-0.12958542233627296	-0.07875206371888213	0	-0.011383415491247365	0.0	-0.01674594024572381	-0.6975419008535514	-0.19240556431541112	-0.09246459555130299	-0.10262267721498718
-0.026346130231489545	0	0	-0.13185319338537652	0.05693839592829622	0	-0.04009610193996619	0.0	0.016894092576673136	-0.6811086135726101	-0.17006760773977248	-0.10050536593679159	0.04800775073190555
-0.09741381370559456	0	0	-0.1348173514273964	-0.03560989766800448	0	-0.02893328137558158	0.0	-0.01643915924096146	-0.6977098026641136	-0.1848796557574409	-0.090509381074984	-0.041001030299232764
-0.08850741307238298	0	-0.011309899791160318	-0.139607553302455	0.057256789650777136	0	-0.03623777936247994	0.0	0.016572473167902797	0.6843261857660653	-0.17091659489190753	-0.09597987330091184	0.12605929828885734
0.07884843958907715	0	0	0.19662299372205824	-0.07502561740586378	0	-0.018493894708284744	0.0	-0.01612755671880494	-0.6892183592010656	-0.19808401355113212	0.10012486939262755	-0.029563739782597537
0.055436455103275564	0	0	-0.13659310864145244	0.058791090021502776	0	0.1451560725097371	0.0	0.01960389665916474	-0.6734766213005599	-0.18460204202986777	-0.10196310546406934	-0.04671356318361952
0.05250157109644355	0	0	-0.1380561721958742	0.05610679117079442	0	-0.039210921449291475	0.0	0.007938515379750806	-0.6888337168421359	-0.19002826082225943	-0.10427094381320048	-0.04848280708157891
-0.10091942105433958	0	0	0.18937895599674937	0.05806340335602786	0	-0.0408748216018459	0.0	0.016074101080826974	-0.6947710979613019	-0.18078266248011876	-0.09061083100576114	0.1146321333430619
-0.09478965181218998	0	0.015287310333602122	0.18865894888489662	0.0562108525039529	0	-0.039873914010144146	0.0	0.020026684314025184	-0.6960984754053707	-0.1773588001488253	-0.1025889096496243	0.0
-0.015185279520288824	0	0	0.19294302804053798	-0.040563172603463905	0	-0.026051947881180638	0.0	-0.01619837805731439	-0.7113514646962042	-0.17115139079397246	-0.09325510508624923	-0.017611560242751387
0.07415528146255086	0	-0.013621516595475922	0.0	-0.08300568294479914	0	0.1206869476183421	0.0	-0.022932094137221474	-0.7055310793546073	-0.1716630536813974	-0.09253721317011633	0.011497246227901742
0.053472772389502876	0	0	-0.1312749189936886	0.053538246604896714	0	-0.037225896144178844	0.0	0.018411337185898317	0.7033363908398845	-0.165456900044	-0.09716847081747738	0.005499885970700912
-0.09938351862273602	0	0.020003227854724616	-0.12764424344450273	-0.042396291083439584	0	-0.01701406379354282	0.0	0.0	-0.6904194880276123	-0.20864360693213307	-0.09352593111327216	0.06299810136082123
0.052381645651913965	0	0	0.1919980524754064	-0.03203707395296457	0	-0.015410677013212	0.0	0.024388398701710837	-0.7018018279261475	-0.18184759641303228	0.10630407009318094	-0.022532234629915337
-0.017813809172813385	0	0	-0.019012688381690086	0.06297881113002418	0	-0.02518709645776942	0.0	0.02194584856357219	-0.6949439584406936	-0.19880389208321786	-0.08915670010330021	0.009580193731784963
0.06009879299799743	0	0	-0.14546258412774107	0.06920044743334909	0	-0.048983936932503254	0.0	0.016911893361431868	-0.6968007166489726	-0.18958901488765192	-0.09410516623465182	-0.022479182402839915
-0.09846812282041353	0	0	-0.1263498208977833	-0.04745959295541996	0	-0.014597571997980974	0.0	0.02553594724672137	-0.6447160150291977	-0.18026623550646761	-0.09632189410897028	-0.04140660485956441
-0.10311531594707357	0	0	-0.13329859145466252	-0.03452277370330131	0	-0.028382724464403215	0.0	0.018906772596179885	-0.7135606537015349	-0.16462851484355973	-0.08313887885772207	0.05377061606382772
-0.022937187948894672	0	0	0.1962484946583941	0.06116477607290602	0	-0.04223706365654908	0.0	0.015576217293070084	-0.6944482933858261	-0.18550271035090685	-0.0963005685872325	0.04188015754797684
-0.09747850481773652	0	0	0.19001636956714812	-0.038019625064844347	0	-0.020149359089695198	0.0	0.01505501936383777	-0.716528229436822	-0.1933097752014105	-0.10066632304048147	0.021955343256015725
0.050404093474959555	0	-0.010300628088383444	-0.13759280313609423	0.0583454576107735	0	-0.04144983743554877	0.0	0.01972916922206921	-0.6660508915544591	-0.1836034418615882	-0.09569549807590229	0.0
0.05316456722054527	0	0	-0.020018546844268875	0.06406773849802844	0	0.1361065823427167	0.0	-0.01662226489750447	-0.6656844839939837	-0.22283230963731598	-0.1071014167829623	-0.09921984554475843
0.06512399653864415	0	0	-0.01772153561451887	-0.037195375243441686	0	-0.03226734391466259	0.0	0.021266774704116493	-0.6870528035915351	-0.16862239347892208	-0.09389555323258852	-0.04206149031576777
0.06865128952855122	0	-0.018735170737253268	-0.13508047612646326	0.05441162994385116	0	-0.04543912554225913	0.0	0.0	-0.7014207710545458	-0.17863624479520118	-0.100147604332625	0.03151449723260522
-0.0938279046024629	0	0.020605914761083127	-0.13543111041069333	-0.03991649975873108	0	-0.02637732448980248	0.0	-0.016336015767593783	-0.7013210623001532	-0.17109622655896733	-0.09322017912898393	0.0
-0.023183417519706286	0	0	0.19912525756193397	-0.042437511156887014	0	0.1361094184226036	0.0	-0.024423278390290206	0.6966160933060663	-0.18448784012960295	0.09508706770091017	0.017784791679022992
-0.015779233660273218	0	0	0.19980004326558212	-0.045609716732825684	0	-0.024579887860690524	0.0	0.018925692182934137	-0.7065114879879155	-0.17706699367725848	-0.10242085035218342	0.017711348782500854
-0.018310704563568987	0	0	0.02962790672301005	0.04716266165250946	0	-0.036221250623382654	0.0	0.018342821791944696	0.6970646194071943	-0.1830188449085242	-0.09219745858084107	-0.021885353520335663
0.047104049444451346	0	-0.009986002776133037	0.1868105386242395	0.05891770419045152	0	-0.04484892620397224	0.0	0.02907456651729905	-0.6740482463019248	0.18296049765466493	-0.10126526550241777	0.0
-0.014725515569343877	0	0	0.1847683683774641	-0.040153999097560095	0.004437352106053994	-0.015421113676218451	0.0	0.01712474247100776	-0.6785559126797299	-0.19907507908085195	-0.09929177704650025	0.0
0.06902669036157688	0	0	-0.13592372054275081	-0.043814492769224674	0	-0.019438711150558282	0.0	0.022158855337017717	-0.7027138032639065	-0.17395773288160377	-0.09468558580888453	-0.08265393618267071
-0.016544928819344294	0	0	0.05009751909722521	0.05968019824122271	0	0.12709702700005943	0.0	-0.016132413107364806	-0.701030009356119	-0.20258254902103562	-0.09230933392704427	-0.02072992557041047
0.054086340996952476	0	0	0.1868123177986574	0.05241312583116056	0	-0.04126791517330225	0.0	0.024476905287064105	0.7002353409207357	-0.18475415224409353	-0.09597808142358304	-0.01756390073973728
0.05217586021671288	0	-0.006470327522697231	-0.13437099051259263	0.06310951888324179	0	-0.021554388856938236	0.0	0.01728221771526766	-0.7028279113678274	-0.1715241621609008	-0.10311267387733693	0.0
-0.09639429952946792	0	0	-0.13392644986634517	0.05954056233295765	0	0.13204928855807635	0.0	-0.016922906967178016	-0.6807511215257344	-0.18626330686696052	-0.09596920430726738	-0.05368226895602889
0.06661089657404268	0	0	-0.14563601048813488	0.055625043243047706	0	-0.046750749634109606	0.0	0.013646019793325345	-0.6718749983080277	-0.18166457544550837	0.10940595244248728	-0.009926453569807356
-0.09957483274517366	0	-0.010799436793886334	-0.12565388413696596	0.055515610707417166	0	0.1417805375843102	0.0	-0.023638737266385993	-0.7120030694618597	-0.1781391146667896	-0.08975489464552441	0.0
-0.10422385835135144	-0.01254208860543156	0	-0.018676492840475494	-0.047353251199005485	0	-0.027438743268881363	0.0	0.022467967317167225	-0.6913320337548446	-0.19060495009901962	-0.10356829425105632	0.0
-0.019466598789479737	0	0.016165184054441308	-0.1371304251606613	0.0610544511417751	0	-0.04250299055558144	0.0	0.0	-0.6901230857121221	-0.17996188669612828	-0.0993782022015749	-0.09224513327256391
0.06421358578501277	0	-0.014664093468116196	-0.025173767940039324	-0.0973139679460464	0	0.13735492975096614	0.0	-0.015446471209785083	-0.7127936065929299	0.19500008848022904	-0.09722056018790426	0.0
-0.09758800172022848	0	0	-0.13425511568060683	-0.03234864977284239	0	-0.032937709181958395	0.0	0.028724632888766817	-0.6989008885594925	-0.1653560692811249	-0.09748931111486568	-0.008919373863987294
0.07262809064513738	0	-0.009370149119858964	-0.13326767199108078	-0.08883627986314316	0	0.0	0.0	-0.0260108895963808	-0.6926714068268378	-0.17558322059418932	-0.09297649041318354	0.03946148200640321
-0.009999541371130224	0	0	-0.018790157762441362	0.06388131932508735	0	-0.014294870059224958	0.0	0.016796945872707886	-0.6709546552072707	-0.17472075119495548	-0.09600950778613158	-0.014212277207699712
-0.09308690873916593	0	0	-0.023452421600797652	0.057333095725219684	0	-0.028129031998925996	0.0	0.020360474761442007	-0.7144475976651127	-0.161307509238647	-0.10622960654299106	-0.02752477058272235
-0.10357011506781662	0	0	-0.13164918072171086	-0.03789040576487179	0	-0.018767249088501407	0.0	0.020680779413115986	-0.719337044407437	-0.1715201258836729	-0.0892211033744611	-0.06025081961699492
0.060092586389647665	0	0.019703185844596627	0.19697839754888552	0.05938882787004337	0	-0.04031071158333377	0.0	0.019384625145630628	0.6908900034026942	-0.19156526874178753	0.1043824685778517	0.0
-0.022448223498300432	0	0	-0.13988814953107218	0.05270202940489618	0	-0.023097377690906855	0.0	0.018070004088295	-0.6822754664230587	-0.1642895564436899	-0.09958325322344698	0.0018718716059177435
0.05576124890415151	0	0	-0.1376084042289771	0.06119980259620302	0	-0.04290803133948494	0.0	0.019743786713599745	-0.6685735857384014	-0.18381592656296059	-0.10530222061829153	-0.013782709191561198
-0.09695409151167217	0	0	-0.1279123938788064	-0.035448083546553454	0	-0.032755033581384374	0.0	0.017906834202812853	-0.7132053752201146	-0.18531793491439094	-0.09920776313830276	-0.018571891875890503
0.06921279593957225	0	-0.006308829896301904	-0.025226878076032418	0.06742604096198547	0	-0.047812743623358814	0.0	0.020285746424029673	-0.6889431078195577	-0.17587937363808934	0.10246086559433017	0.0
0.05088345078615548	0	0.010336667392258879	-0.1307928560518987	0.061296580917362266	0	-0.017404104807085444	0.0	-0.01943990984135129	-0.6701329469394497	-0.16832221800317493	-0.10620750862854836	0.0
0.05535527369969503	0	0	0.20225756337355316	0.051251599241428566	0	0.14312427415864187	0.0	-0.016202395700964836	-0.6856920348980603	-0.1722598619528419	-0.09690979389787131	-0.03570555419700874
0.05011061172236002	0	0	0.1875790921154098	0.06729713902669696	0	-0.04989603266483426	0.0	0.020402102977131218	-0.6628531948232215	-0.16533840101801303	0.10664290214046772	0.01104717766888838
-0.013545918600468483	0	0.017480397981808796	0.03880009187711099	-0.03375589103137431	0	-0.024249405008363124	0.0	-0.013117166224982138	-0.7085931411174492	-0.18283370118597575	-0.09951167244982836	0.0
0.07257771067490752	0	0	0.191172528557435	0.05415378883181963	0	-0.05192032119582404	0.0	0.013457239686427518	-0.680937261411924	-0.18234549166155764	0.1023573544458472	0.030323518905344102
-0.020565577420782955	0.013156675858637695	0	0.19095403819656517	-0.0413238112355226	0	-0.02302967571093991	0.0	0.0	-0.672726520800625	0.22426461464449116	0.10481406919529203	0.02328058416194609
-0.10003558775166639	0	0	-0.13176277203242706	-0.03963002857183968	0	-0.03095080073430789	0.0	0.011828070881092695	-0.7013847901189298	-0.18176690706097232	-0.10437047009735066	-0.03325423563004756
-0.08828405033995015	0	0	-0.022645495004386753	-0.0337296425915349	0	-0.037749180746143696	0.0	0.020056651483645303	-0.6881074249886059	-0.2102095685797567	-0.09568995156520345	0.05950601099189627
-0.011501124512912152	0	0	-0.12921294876364758	0.05530065476855554	-0.006318546092959751	-0.024445607999205626	0.0	0.027077266601766663	-0.6956347415455727	-0.18045844076455367	-0.09435793419548166	0.0
-0.09337324036861547	0	0	-0.1347733305232425	0.054152519216500564	0	0.12888825823854705	0.0	-0.017206814206405054	-0.6904336356560721	-0.17243451690455683	-0.09721253770249846	-0.01358709132722966
-0.09967189328237995	0	0	-0.13323832618246517	-0.04023907222319453	0	-0.024734432970514707	0.0	-0.014808047168765092	-0.7067194857742105	-0.17226419513867486	-0.10024772680212919	0.05456156504821118
0.05787315083510499	0	0	0.1943979654415643	0.0628709868339475	0	-0.03979396570281183	0.0	0.020469297303897852	0.6619126732810376	-0.20173032375899155	-0.10954893300021318	0.020020296476760648
0.05720363708189058	0	0	0.19270406892694245	-0.0408367895529724	0	-0.021733077746703376	0.0	0.017831589814798703	-0.6896714163617442	-0.20317725086582777	-0.10358762871635041	0.0753933043340877
-0.09394673341911954	0	0	-0.12986510651521826	0.05732876661899946	0	0.13082910258228717	0.0	-0.020226472843491095	-0.7015672287255552	-0.19038933442856298	-0.09270261920761488	0.00797247407513559
-0.09589188142150741	0	0	0.18003124410389423	-0.03448161386768743	0	-0.03136229911361254	0.0	0.020774010387096673	-0.6598738755852058	-0.1878052349862374	-0.09887850681082112	0.027339529249055073
-0.017675996496071118	0	-0.018381482515658965	-0.02975963461378775	-0.03543452260496262	0	-0.02370356805718661	0.0	0.0	-0.6739887527462265	-0.15686494369887657	0.03487207074633865	-0.009637146168479261
0.07780348739480153	0	0	-0.13886243527160336	0.04640433175327222	0	-0.04194713971515098	0.0	0.016533315461681332	0.6917730607205452	-0.18566416646767808	-0.0907175637376922	0.026968086340694704
0.06383850283450429	0	0	-0.13113597105017846	0.06065386529193132	0	0.12266786502269657	0.0	-0.019834506319525155	-0.6999037967754801	-0.1892391846154233	-0.09506442780761598	0.00594444333370373
0.047916618047659155	0	0	-0.13648165477149873	0.05193974085044548	0	-0.04328642637731964	0.0	0.0167566677860973	-0.6758011525378809	-0.1894526438077934	-0.09567153318660358	0.0629975318623616
-0.10253334744718988	0	0	-0.018913857872671754	-0.042342114588695925	0	0.13765466289469622	0.0	-0.02218668603561522	-0.6919248556047607	-0.18012298148169897	-0.09434457509716623	0.042053068673673664
0.07117128427818846	0	0	-0.1345914151267953	-0.08527499499300707	0	-0.020556850640844636	0.0	-0.025877213047792516	-0.6963409513657518	-0.17904701136034795	-0.09933387567644625	-0.08811874999662107
0.05712125411219752	0	0.012805746202994317	0.20023607382307557	0.06335677987633331	0	-0.04186267115069667	0.0	0.01698352035719153	-0.716650466272064	0.19042619427714502	0.11553916349305011	0.0
-0.014921087938539615	0	0	0.18444665641858027	-0.04415351760035029	0	-0.012435794911183264	0.0	-0.018411054902145695	-0.7000473428036267	-0.16914544100730014	-0.09938954198437736	-0.014165595594108899
0.05289130727161034	0	0	0.19797597633148992	0.0556538152850233	0	-0.04320804979979064	0.0	0.020067162015517035	-0.691144075417232	-0.20319368866713344	0.10706809381392349	-0.03498692261437239
0.05372152199122241	0	0	0.19108838156306335	0.0701300786759895	0	-0.048637220312135465	0.0	0.02253007992361411	-0.6933995831330366	-0.1607943307089838	0.10179705902004857	-0.011287091230816308
-0.022134447920069793	0	0	-0.13267409011962836	0.06251112112101295	0	-0.04344636863124061	0.0	0.013110161088528785	-0.6823737571289816	0.1801690830482685	0.10796579427941787	-0.06700253810309709
0.07396289756651993	0	0	0.014056222346140158	0.056200704002045805	0	-0.04470331039596017	0.0	0.019528425928203204	-0.6917766839890768	-0.19123689344441036	-0.09946033256512433	-0.1264143640503158
0.05960619093727872	0	0	0.2013247257209519	0.05541004093902536	0	-0.04602100665781171	0.0	0.025359309739166686	-0.6734656073862405	0.19721234996441267	-0.10545682233031528	-0.032620406707478726
-0.020125848139255706	0.009719578266486471	0	-0.01484603504775676	0.0670893775076576	0	0.0	0.0	-0.013851331088600188	-0.6950374804730194	-0.19211986167894302	-0.09250177776847199	0.01813982020438763
0.05114510632384625	0	0	-0.13632354636853578	-0.041453840197201705	0	-0.014479870270163394	0.0	0.013245717968386531	-0.6899180098234318	-0.17768510449749791	-0.09637083839011869	-0.04327007693610451
0.06986383543326917	0	0	-0.13828817346358696	0.06216716898854428	0	-0.0394157305594901	0.0	0.02223829831258676	-0.6693106671927945	-0.19716617094446598	-0.1028253587822567	0.06005948994002969
0.052851043383872545	0	0	-0.13908675289527508	-0.09019484264698513	0	0.13568818864654278	0.0	-0.023333480403489443	-0.6872520420410599	-0.17621292014119755	-0.09942162062948677	0.008401768326907632
0.05381427250659387	0	0	-0.022882754409082103	0.06221935585486423	0	-0.01651905952653282	0.0	-0.01970052030905102	-0.7039080441837954	-0.17837030789954966	-0.10218436192094661	0.007187960878163004
0.05841644910638077	0	0	0.18780690754207227	0.05634631574821261	0	-0.04723904969461811	0.0	0.018570044880830763	-0.6856770734280785	-0.19728295542800214	0.10390316883421408	0.032926780455103076
-0.09517576287178497	0	0	-0.13136410014442074	-0.04115237112562042	0	-0.026032761977443246	0.0	-0.022181322336932794	-0.695835862041074	-0.2074324326865106	-0.09733100678168505	0.03608432827807706
0.07588373268848159	0	0.006330356891388715	0.18826957425976742	0.05007904888161406	0	-0.04667740826485755	0.0	0.02528844075747001	-0.6869589214468097	-0.17129094353298102	-0.09697240814223745	0.0
-0.09848020997861384	0	0	-0.024324469077192802	-0.03623136668129075	0	-0.013844032610374495	0.0	-0.018991070428152998	-0.6804815558712479	-0.18382255656414206	-0.097357830883249	0.06990117341544627
0.050139330871394674	0	0	0.19692448185035138	-0.09191700261178742	0	0.14007167282496236	0.0	-0.01789695351688375	-0.69546631964959	-0.1692569304816336	-0.09457134656767176	-0.008492505421179443
0.06529993100639721	0	0	-0.1352627982882077	0.0542575367344377	0	-0.03870930622218382	0.0	0.027977272558577407	-0.6801421794312777	-0.1661002552909887	-0.09814753093295006	0.08068682901477592
-0.01760929885455674	0	0.020027213842398205	0.19700457591054052	0.06236435491384849	0	-0.04342949055894415	0.0	0.024760562023698623	-0.6828708365757556	0.19729286730044857	-0.10386048566012995	0.0
0.04852451483604307	0	0	0.19439696936562675	0.05612775199814094	0	0.14601679183406155	0.0	-0.01440971935414461	-0.6990772593739282	-0.1928538922477169	0.1082724161165701	0.043944119671454805
0.07264083771268401	0	0	-0.13971641202287918	0.0569019123600028	0	-0.015497049831521763	0.0	0.01970629101797729	-0.6922686775258895	-0.19094099555317778	0.10236290143929715	-0.020754847273684873
0.07066713851221419	0	0	-0.13631774273369218	-0.08742632839372692	0	-0.028884114042075772	0.0	-0.023660796631315085	-0.6815430361970046	0.19026327056262898	-0.1062246222634992	-0.04661475637525637
0.054680039166105546	0	0	-0.13514960740379178	0.047144744982821785	0	-0.03899461808635576	0.0	0.014695329761526437	-0.6904812219168293	-0.20209164098909257	-0.09797945520373334	0.08922773274977512
0.07445748854366432	0	0	0.20315592978142288	0.06130337683207907	0	-0.04836883879922339	0.0	0.020340314502670365	-0.6874599642713426	-0.20971676381240767	0.10396169206975545	-0.049249241658857676
-0.0988941843362521	0	0	0.20469657473496408	-0.039878019441451765	0	-0.014753543036640083	0.0	-0.018512182752601098	-0.70625821946659	-0.1668534782355004	-0.0992097222625132	-0.017987954457512268
0.055119386962191	0	0	-0.13398658494836718	0.05260611052316453	0	-0.017279468824606913	0.0	-0.012642752951542892	0.6954235208066595	-0.19247945667210162	0.028123932361350978	0.04052433117018859
0.04797206831546807	0	0	-0.030863383227387815	0.06216424285516684	0	-0.044022726361521776	0.0	0.019073712975855448	-0.694396925301598	-0.19710199619376415	-0.1034450400310343	0.03886711550025529
0.07133347344290003	0	0	-0.02154543741356976	0.06420876908902447	0	-0.04442833047327094	0.0	0.023036708335373322	-0.6606801623698527	-0.20766225198183233	0.11317149276532626	-0.05936521852239652
0.04475652729074061	0	0	-0.13909173045172163	0.06570306724650549	0	0.14801304104541838	0.0	-0.02757158891543043	-0.7165293794179968	-0.1787671206945006	0.1027008427608781	-0.016063355952942684
0.06244997964199569	0	-0.02027980478340958	-0.017548974211507876	-0.08297839955570861	0	-0.01992518298488044	0.0	0.021359964427964916	-0.6927127624187829	-0.21955995040781306	-0.09922927075615416	0.0
-0.09238762826092999	-0.01617092964497312	0	-0.13524235074162447	-0.045640643779671274	0	-0.015344408990111193	0.0	0.0	-0.6742321667337984	-0.17687642157552422	-0.09827839344621449	0.040065097756272976
-0.016410982698061224	0	0.017081775357298767	-0.13357738311755593	-0.04368541447671988	0	-0.031169972467879916	0.0	0.0	-0.6915975106108662	-0.19433286997211152	-0.09076237098171282	-0.029067358375814163
0.05016720667668523	0	0	-0.1380191844211836	-0.08149641035794951	0	0.12934361410393877	0.0	-0.022545084678097075	-0.7019475414327623	-0.18672122236054867	-0.09390731077472927	0.010351686617329924
-0.09819214788146463	0	0	-0.13441915554717287	-0.037895235320062434	0	-0.0290891932763375	0.0	-0.01606808802811395	-0.7096252094418835	-0.18994417923445978	-0.09582053983163022	-0.05053166607428855
-0.018626362026496642	0	0	-0.02418060600297883	-0.043812132378870355	0	-0.010377526395602065	0.0	0.023886877307997368	-0.695254026191333	-0.20519958803713428	-0.09220694713390386	-0.02753260954471764
0.0498714709584755	0.014718815538371607	0	-0.019434325996187257	-0.043497656009536374	0	0.0	0.0	0.019495596608043272	-0.6875182614222132	-0.18525216937929062	-0.09915397663136433	-0.026310525397217534
-0.09933771804632954	0	0	-0.020565715510622393	-0.05191577531762563	0	-0.0419656181249905	0.0	-0.01946271131765185	-0.6872459652418239	-0.18121689746574587	-0.09567969581386647	0.055775331928969774
0.0471833842585986	0	0	-0.1383023151211656	0.05732933370549873	0	0.14285125725423994	0.0	-0.020746758305545728	-0.6657542027106671	-0.19395265411811655	-0.08753588792106005	0.05669853188348551
0.06030185349342816	0	0	-0.027090482068136426	0.05728685521451204	0	-0.04266443622975807	0.0	0.019714526134566566	-0.6829062141273692	-0.18762506606257767	-0.09387824333669656	0.011700822293776114
0.05424332176656697	0	0	-0.026483071345303817	0.06095522486515261	0	-0.020247775955010202	0.0	-0.028847857110345397	-0.6952233099739726	-0.15902654325923246	0.11928019368336513	0.054348457008170495
-0.10357694197640356	0	-0.014358047600949506	-0.13813443746531445	-0.0400761984562196	0	-0.03657174430344105	0.0	0.018695577958852013	-0.6777136507515934	-0.1786737035768674	-0.08790280010745592	0.0
0.06678336200139198	0	0	-0.1307865726972006	-0.04548032518741433	0	-0.021100817074347987	0.0	-0.019600733953783787	-0.7036986351900728	-0.15913125901291403	0.09587253189515317	0.026341495902366126
0.06860846636814043	0	-0.00871791799382964	-0.12853027490736355	-0.04033818687260405	0	-0.01361876983845394	0.0	0.019124240197777368	0.7107860723689713	-0.16061115851199398	-0.1021655478341818	0.0
0.06734078028822632	0	0	0.19563338684428225	0.060253375006378826	0	-0.0463068694484206	0.0	0.016037824212267588	-0.7027210839627499	-0.16885549258290916	-0.1038006280589695	0.22574228363664398
-0.09704190519037283	0	0	-0.13367495178502198	-0.04048979916125551	0	-0.0198914130767966	0.0	-0.019168258720639087	-0.699905442393341	-0.1840857440002601	-0.09720859293606059	-0.03722904722010543
0.0555412724421626	0	0	0.1936202677068037	0.05915532423236354	0	0.13450165529213093	0.0	0.020790600467651573	-0.7178864545740874	-0.1970024227742586	0.10022710616913927	-0.053889471768188986
-0.10784692818409339	0	0	-0.022322342545669466	0.05133724760787606	0	0.1403363844630816	0.0	-0.0192832332854588	-0.6707419983484741	-0.15881795781528957	-0.098511558971524	-0.03618244351847877
0.06598576396730461	0	0	-0.13388012283774622	0.05251083420690024	0	-0.04455966578757023	0.0	0.016338521261887975	-0.6978754569855329	-0.19054407413442234	0.10441801689072587	0.016777480280367393
0.061795417266914676	0	0	-0.024551729110972795	0.05948381861035027	0	-0.0398785799390785	0.0	0.010429582040570326	0.6876722365745702	-0.16027121219709414	0.08858050402212912	0.030579317489444872
-0.09838535115680642	0	0	0.19478063302764997	-0.04154468109213368	0	-0.020884591265006518	0.0	-0.017293707224119513	-0.6767566610473755	-0.17560447038843055	-0.09015773664752856	0.019054534210589533
0.053947038105628536	0	0	0.19460113104090648	0.05835520870222201	0	-0.04133718355013886	0.0	0.016878122141082082	0.6817528724227276	-0.19663166732013396	-0.10263140005731138	-0.057443848170408686
0.048813219012141404	0	0	0.022133590302405134	0.057260736737788843	0	-0.025164040645365912	0.0	0.019653451056029617	0.6496391954239912	-0.19546296828539167	0.09302061974106436	0.012751869171477762
-0.09417055581688233	0	0	-0.023478779747588302	-0.04051459305225283	0	-0.02530187170089945	0.0	0.017047137704258777	-0.6808302340941306	-0.191504667512921	-0.10030328796812346	-0.01191977716949067
0.07568306907318356	0	0.02152677074086508	-0.13684056164286845	-0.03993089244182215	0	-0.01684701188614543	0.0	0.0	-0.695289070257543	-0.1893356935722736	0.0284812813886167	0.06396621434069262
-0.10331946110333172	0	0	0.19535781141038303	0.05764058932880625	0	-0.021870806223744432	0.0	0.020025314718507794	-0.6747165234746304	-0.19338093489500469	0.10955519640837597	0.03389090853216569
0.07084170587162852	0	0	0.20391125758375744	0.059665635556053184	0	-0.046697424535239125	0.0	0.018366040309083845	-0.6657242807374062	-0.2035795607002711	-0.09714667488289487	0.016538234033911553
-0.10262632512672522	0	0	-0.022654945975390084	-0.04010286420191521	0	-0.012427751168559577	0.0	0.02077191807487737	-0.6935682372313402	-0.19811582434354594	-0.10003588790434105	0.023609711184253188
-0.10308980179456388	0	0	0.03657893322574505	-0.03941464487139073	0	0.13824549456477894	0.0	-0.019757320422595575	-0.6980789991495844	-0.1648326588808807	-0.09045659365011668	-0.0656521702378929
0.07732570289301023	0	0	-0.1403253870454163	0.05201294556924633	0	-0.04328486707917236	0.0	0.01988707287411479	-0.7151125270811295	-0.19913677134018462	-0.10281370148165261	0.019772815683572524
0.06328081775369188	0	0	-0.1339803657050685	-0.08976103180013247	0	-0.018210816238538128	0.0	-0.017694163801776422	0.6830188186302375	-0.1671560881463165	-0.10018227203308416	-0.05968487053059851
0.0678057439397925	0	0	-0.13187557092639493	0.04673216518361365	0	0.12491963632742092	0.0	-0.024968395398685516	0.6897870118736965	-0.16510087764637457	-0.09465514794791391	0.11454009694792679
-0.0937059024114571	0	0	-0.026133951549750047	-0.03289254483636552	0	-0.028045979068625167	0.0	0.011395953162416896	-0.7007481573829701	-0.1265305309477048	-0.0930167652706298	0.0388258284958989
-0.01708798960631165	0	0	0.19898012671807855	0.061004929633196425	0	-0.015603886709996975	0.0	0.021864733899572702	0.6768801647244734	-0.18980862151755704	-0.09872507537976702	0.022584718311014176
0.0734563622093646	0	0	0.19817060168294048	0.06169862575527387	0	-0.043903016937403706	0.0	0.018910553313381696	-0.694722934863416	-0.17056994857559968	-0.0990327718414946	-0.014519178387215245
0.05353392486317996	0	0	0.19015035245772266	-0.043773486692568385	0	-0.021675123240058033	0.0	0.015474065775633742	-0.6728099538250295	-0.16670708080344335	-0.09936556093100837	0.015215140772838639
-0.10584033203559573	0	0	0.19323292927066882	0.06257065108616343	0	-0.0436114358311147	0.0	0.02615256872054753	0.6845677141151758	-0.20739450519631727	0.10287189319864735	-0.018595063538894823
-0.012374995019974045	0	0	-0.13895579952934006	0.05459798537925101	0	-0.044592874943014026	0.0	0.01738064646284756	-0.7053878962264285	-0.16607730626048214	-0.09065428994821928	-0.011594614290805513
0.0	0	-0.007376643791659397	0.19389263646335206	0.06383907177488328	0	-0.049004701041430926	0.0	0.01395673236142029	-0.6641857103028821	-0.17711468970535865	0.10359805337495534	-0.06181151894598459
0.06863704101382123	0	0	-0.1373399233997148	0.06435017509991897	0	-0.04436282185121345	0.0	0.016726348252793885	-0.6790399506127489	-0.14543571563270236	-0.09287387655573297	-0.04527639744654559
-0.10049682835291018	0	0.017925698857587134	-0.1333878415558121	-0.04112716652250826	0	0.0	0.0	0.02311218130568224	-0.6909631459425312	-0.17295505716413181	0.10236878924966639	0.06969505999996789
0.05261293824960891	0	0	0.016855860106892107	0.0556951049473268	0	0.13923102705310395	0.0	-0.020518953107749306	-0.6880087376134124	-0.1780248078630293	0.11632345006213853	0.09530735196641855
0.05409633397024464	0	0	0.2021803460039105	0.05867596909035762	0	0.1487043394252124	0.0	-0.017445944494346503	-0.6749303996257106	-0.18016956861452157	-0.09979675622637817	0.03242623356859591
-0.09412789479857583	0	-0.014913422784628198	-0.02235684227751368	-0.044863958107332395	0	-0.013335759195362002	0.0	0.016889836036368826	-0.7003353291682551	-0.16137511995807427	-0.09620079631002038	0.0
-0.10263799080854812	0	0	-0.1322528435682947	-0.03594358955849987	0	-0.030867681894159654	0.0	0.01866983268989377	-0.6700236775186539	-0.1848479048687066	0.09758932071349408	0.031580516417541636
0.07070006182440823	0	0	-0.13758235427946242	0.06103450113667676	0	-0.039685058109785336	0.0	0.01083030070213261	-0.7123031616201916	-0.17644340375482548	-0.0984027879917661	0.06655532357492501
-0.09405364108163838	0	0	0.19312707671504323	-0.03441854305939601	0	-0.012144631622412262	0.0	0.022016632842565755	-0.6854207425682541	-0.17696533421320101	-0.09997143924215292	0.14661089642065228
0.0707218310804841	0	0	0.030508800930577392	0.0579899766956049	0	-0.0303924182926517	0.0	0.023886627532718554	-0.7194672255919705	-0.19647461597835927	0.02328598234630029	-0.04281637807792494
0.06557321832646379	-0.01016568480947158	0	0.19417796802173898	0.05241317091667318	0	-0.038925705072660875	0.0	0.018752445705683258	0.6928413466322036	-0.18063221347486835	-0.0942814744465428	0.0
0.05663153311938553	0	0	0.19659552232983915	0.055305065845796954	0	-0.01737105095854127	0.0	-0.018145461407905867	-0.6878094320103946	0.19469347798373332	0.11342387553331705	0.021661835070046157
-0.09103445700483016	0	0	-0.01972882532827435	-0.03682682894045216	0	-0.031180555187304716	0.0	-0.020279054243291364	-0.7077715498242675	-0.1817329745343178	-0.0927509614541093	-0.03550474110327336
0.06597705553664536	0	0	-0.13971030653484665	0.054980722650689554	0	-0.0440160554879659	0.0	0.017219029798433226	-0.6889110936891727	-0.203047424603907	-0.09442941071648803	0.01666925971093433
-0.09271994549434992	0	0	-0.1349500265379451	0.06138561978971064	0	0.15155931217991733	0.0	-0.019371546120275637	-0.6976059871015148	-0.18214913594613522	-0.0949614713418963	0.024361248305001106
0.05517880014674065	0	0	-0.13951819843644908	0.05852083087328417	0	-0.013255379276414559	0.0	-0.025176049396358417	-0.6919652209058236	-0.20172607624328967	-0.09018101899693513	0.04578437307998813
0.07581695444220164	0	0	-0.13792423842831603	0.05491093090431792	0	-0.02010907182490708	0.0	0.01052944931497377	-0.7066244548205292	-0.1781069176903314	-0.10002611775050582	-0.050164182494230644
0.06097097743823682	0	0	-0.030090088641586903	0.06976896856835316	0	-0.043085615825107004	0.0	0.013285891402761856	-0.690554333607996	-0.15747488555477746	0.1023700972104147	0.04364714947655122
-0.10224236535447985	0	0	0.03802014841822615	0.0645942842899199	0	-0.04920100140376271	0.0	0.016106563502152803	-0.6743790399377598	-0.1751737050736027	0.10317564098711364	-0.03178013369045575
-0.09678607028652951	0	-0.015453157732736107	-0.020538796925970677	-0.03686929504918618	0	0.0	0.0	0.019349166058752896	-0.6987339916543872	-0.17478977676979893	-0.0975748257893929	-0.015677750445364166
-0.019026190589972687	0	0.0232092297531642	0.03316274278616415	-0.09702670664082036	0	-0.01825989290800605	0.0	0.0	-0.6841368802662559	-0.2046721257849007	-0.0983703034370068	-0.03645348311048702
0.0	0	0.01562720887941497	0.04588267405343665	0.061342546210995795	0	-0.04825972207475165	0.0	0.023265082728678547	-0.6558428138781892	-0.17501961157159215	0.11009608747582601	-0.05160611607116399
-0.10450820721576083	0	0.01582317530004454	-0.13305109863530856	-0.04358915784323666	0	-0.016717553861059224	0.0	0.016901016630885255	-0.686625128842848	-0.1666743943803819	-0.09405764395014282	0.0
0.06986786963840408	0	0	-0.01564698906465798	-0.09977799218628951	0	0.13451230229529507	0.0	-0.01727747539999255	-0.6959259899256438	-0.1764015585793803	-0.10267974997553685	-0.02408809119821807
-0.10035094202250826	0	0	-0.021124326085188147	-0.035153751398381124	0	-0.014117141532013435	0.0	-0.022561645002199447	-0.6613894464247855	-0.1779987686156698	-0.09731502287502646	-0.07825613117080835
0.060978707801552484	0	-0.017804678791825245	0.04301413224999572	0.05236196022204886	0	0.13707981676656975	0.0	0.0	-0.696406835244537	-0.18435580933803533	-0.1014918326878945	0.04568976636957604
-0.009765721733385338	0	0.00993347325832924	-0.023338619529642196	0.05295930163890152	0	-0.04020023705581029	0.0	0.016746668072139377	-0.7097320099548721	-0.18165453584074556	0.12150952025900416	0.0
0.057079414601419846	0	0	0.021375340305979974	0.06837649515071724	0	0.14381642789394464	0.0	0.027841626678691004	-0.6747496382644025	-0.1701387059055702	-0.10254738252170381	-0.08073640880457586
0.04386489965928718	0	0	-0.1376577900048942	0.05628159176248646	0	-0.042100554671557607	0.0	0.008303673232232441	-0.6866584717329303	-0.16266571051212914	-0.09781104487663891	0.007963729020111398
-0.0989749329195543	0	0	0.184493697693454	-0.04298541485013341	0	-0.031772109290312316	0.0	-0.018327159484445434	-0.7042837584363453	-0.16417660454117736	-0.09392003194776945	0.03467773918597269
-0.012413625325650955	0	0	0.19263005376844275	0.061308006868202744	0	-0.043536114164182266	0.0	0.017863755776139884	-0.6874424288673009	-0.20329285790601784	0.10499694035550625	-0.034709078777645494
-0.09565858271953534	0	0	-0.13597288994503168	-0.03725994017650106	0	-0.025794907913501145	0.0	-0.017621473823366925	-0.7049928169937967	-0.20155779717080066	-0.09304896100765017	0.022229926738829838
0.07311042101689978	0	0	0.180074873598457	0.06932683534382687	0	-0.023500113039579804	0.0	-0.014350607934257107	-0.6827910651937242	-0.18378602043547537	-0.10267939196581798	-0.03452457534726711
0.06586875180347493	0	0	0.19340120075078765	0.063893284451667	0	-0.039914794857531743	0.0	0.023125489039227842	-0.7000393979538851	-0.1918698073442632	-0.09927218096466307	0.09599601251598208
-0.012267712185627437	0.009405993150335148	0	-0.14421798322572096	0.0561351327954266	0	-0.039769612817186724	0.0	0.016053704832221377	-0.6793023682524808	-0.18064399951320256	-0.09806854020701364	0.0
-0.025663489125147848	0	0	-0.01687027848832323	-0.04128758439708669	0	-0.016767565909381457	0.0	-0.0225512401789032	-0.6887449242104631	-0.18140268022430556	0.029931636593965825	0.04549665037654326
-0.10396067813499735	0	0	-0.14007426051760152	-0.04042644380119388	0	-0.024625176462745927	0.0	0.02192817656718114	-0.6678273890485724	-0.15363976756800807	-0.0952142128859541	0.03015943499350881
0.0	0	0.022579778039626637	-0.025548069376766687	0.055374130900978404	0	0.1539677862536109	0.0	-0.021426069808093137	0.6799346198516966	-0.1865020628410054	-0.10007000920324362	-0.1223089514555274
0.0	0	-0.013705658458604731	0.19389424714923167	0.06707538018719429	0	-0.03492871007179918	0.0	0.02535861023229775	-0.7003050081469718	-0.17150646958712285	0.10406849123581255	-0.03769646862979734
-0.01569434911134868	0	0	-0.1315424425986658	-0.039099382989076864	0	-0.020376695228634365	0.0	0.02495339097720207	-0.6943918450199997	-0.16161833796759448	0.10543933913054084	0.03892904407797924
0.06878061728159383	0	0	0.18869475236060523	-0.08973280812457221	0	-0.019018523473687585	0.0	0.02098123254045481	-0.6833968950208285	-0.22291555532270516	-0.09954333988001966	-0.056694522439389244
-0.0995928577059903	-0.010418747100152531	0	-0.023548428068214205	0.06430428983085663	0	-0.04133570393961444	0.0	0.017487416794749796	-0.7005645810208936	-0.18455530095461548	-0.1029801985709263	0.0
-0.009758551199179986	0	0.02448437944138176	-0.14070305595150007	0.054746034290572794	0	-0.04059236768253274	0.0	0.019305137692516322	-0.6939488600036303	0.17450240460021996	-0.09525805630948486	0.0
-0.10164112647906808	0	0	-0.1391475842392438	0.05387536982482541	0	-0.015161480136236421	0.0	0.01653752353820383	-0.663150115479609	-0.17342165733293546	-0.09245346317872263	0.11805621947898223
0.06404310862484894	0	0	-0.13984016279062778	0.058143111049931084	0	-0.029002437095082205	0.0	0.021455863917274998	-0.6899542628134758	-0.18312194036713525	-0.09213004560170913	0.030343835155838345
-0.09766764027918465	0	0	-0.1394546726236193	0.05319850859375487	0	-0.03910133523411686	0.0	0.018193266225473438	0.6765555543553013	-0.18471518139108276	-0.10066199140932704	-0.01281474206371196
-0.01257245196558419	0	0	0.18551948464314097	0.06183438448423155	0	-0.04204721032479533	0.0	0.01739701081510437	-0.6998096491092396	-0.18667777925412177	-0.09032476047126321	0.020505847892594325
-0.023923833770222187	0	0	-0.019596633044130337	-0.0428119827346161	0	-0.018930436281568597	0.0	0.02641907845885173	-0.6870375597946798	-0.21130631625466098	-0.09848455348203583	-0.03450232105196825
-0.10037072716810044	0	0	0.030495143627013877	-0.0529934524148055	0	-0.03891828019951526	0.0	0.024153831548370554	-0.702514314509196	-0.1654345121241348	0.0887370011082525	-0.04402896015549567
-0.09296018838133717	0	0	-0.019197112179549558	-0.040723772516942425	0	-0.02575932780048294	0.0	-0.02169383210975019	-0.6760657351247963	-0.1835398886926871	-0.0977795279638949	-0.044605612257519446
-0.09838993793789881	0	0	-0.13580144218586102	0.06434220101152141	0	-0.047148234526383684	0.0	0.02464386875173361	-0.6964521211789622	-0.1635040100208646	0.09587925324266255	-0.08366895770705425
-0.014879847824787898	0	0	-0.020777220800846923	0.06644015506912106	0	-0.03789347862747412	0.0	-0.014171933094887498	-0.6708545849990543	-0.1821276549071523	-0.08617428250558104	0.035230866580463864
-0.10568301000651523	0	0	-0.1275810488720681	-0.04596364672834744	0	-0.035556026750776876	0.0	0.013221911641567302	-0.6816462790837069	-0.19026915799840696	-0.09795166233707535	0.019080932486205734
0.06909584031817267	0	0.022902214930207856	0.19540976493202245	0.060486021923377126	0	-0.04785653621795091	0.0	0.0	0.7017494975956027	-0.1559123144911899	0.041271727821483625	-0.05117706323555838
-0.09330427091894349	0	0	-0.1384515542495555	-0.04014303690032572	0	-0.03221415402594814	0.0	0.02637852013609704	-0.6944812996818024	-0.18551907452831512	-0.0918505362397692	-0.015001537899157416
0.0	0	0	-0.12935261277803556	0.0586695060616083	-0.016855343790738875	-0.04232689143267981	0.0	0.020586200782945173	-0.6872263510221615	-0.18910570621479836	-0.10149128794137355	0.05822277307898545
0.05056602698973144	0	0	-0.13261342044091684	0.05837229372976041	0	-0.04098215370316171	0.0	0.02275301825146157	-0.7088989430852394	-0.16886069135857915	-0.09292355504850978	-0.04525656813861048
-0.019390082437009667	0	0	-0.13122574431015327	-0.04631384658068043	0	0.1354269670102467	0.0	0.017610951307838463	-0.6878839182256619	-0.2001177365888621	-0.10094609079592741	-0.04619504889552144
-0.020373842591814323	0	0	0.1861910909885807	-0.04082617151553093	0	-0.01477746534172179	0.0	0.0102393556099095	-0.671407972002761	-0.19633761760370336	-0.10422099191882907	-0.02524470656911871
-0.10622810091544557	0	0	0.03984637524651915	-0.047817435921252045	-0.011117119146360271	0.0	0.0	0.014731203085739811	-0.6902090804495701	-0.20644875311270194	-0.09247486847394956	0.019424612704705524
0.078727916449221	0	0	0.1930702854865068	0.058210829507594354	0	-0.01506888617503339	0.0	-0.017662060445911353	-0.7153254189758526	-0.1657897033665047	-0.10621604606293511	-0.12943594519345453
0.04937184725914758	0.011959579525991276	0	-0.1388000965082644	0.058545971526700914	0	0.0	0.0	-0.025310789511194313	-0.675589064701049	-0.19728046439151198	-0.10306967066683036	0.024329391186233933
0.0	0	-0.012786932351473776	-0.022329676207383877	0.058743932121693786	0	-0.039625490286428644	0.0	0.020675184196338053	-0.6999760546287976	-0.20714896513871536	-0.09851043465584007	-0.0041137611499061175
0.07230946563093002	0	-0.011617682709916291	-0.13195757141242637	0.06559053554753763	0	-0.046611638966858465	0.0	0.018554263309581598	-0.6963196509827079	-0.16907734378492914	-0.09402363884944635	0.0
0.05616224026440786	0	0	-0.13684880964136995	0.0604780730554669	0	-0.04713705101627521	0.0	0.01620723473161956	-0.7051031528108516	-0.1769936521713051	-0.0937647336444272	-0.025703357282851676
0.0595359846341536	0	0	0.19892971360325118	0.06464423555556305	0	-0.04124507060194952	0.0	0.024630755554449445	-0.7022514777651071	-0.19117237665264292	0.10621517955157812	0.025199845394386536
-0.09185205464807876	0	0	-0.13290187933775174	-0.043761935687077425	0	-0.03364344157463252	0.0	0.016854178670936054	-0.7008063009783632	-0.19694083776919488	-0.09802792188286058	0.06393420226639022
0.06500612279074515	0	0	-0.019975564273938606	0.061377856079397476	0	-0.04161187069059024	0.0	0.011283218948657006	-0.695644291181698	-0.19194342533078684	-0.09790207244073779	-0.01427058399760546
-0.08865906981687317	0	0.016634039218260357	-0.13524424264105625	-0.04036870881803141	0	-0.015516908806214222	0.0	0.0	-0.6747474227515111	-0.18128765386712417	-0.0973175593154782	-0.01119655810764545
0.05563859237421555	0	0	-0.13926795598273486	-0.044344465048611184	0	-0.01603175521016842	0.0	0.020318125688786156	-0.6893634724991042	-0.1685658638315883	-0.09377324805301955	-0.030592340088232244
0.0691770625927246	0	0	-0.13568425896711572	0.05625532656291655	0.007938188540324742	-0.03912243971923311	0.0	0.021405904515889255	-0.6712132660802527	-0.19812681398391063	-0.09316338194858746	0.0
-0.09281556210451765	0	0.0178804471549327	-0.1330967337441443	-0.031950997357862276	0	-0.034643390290906344	0.0	0.0	-0.7195957581790005	-0.18983475359466642	-0.09555627283673944	0.009419107265152007
-0.022008564885732315	0	0	0.02356885650829401	0.06764435988351332	0	-0.01170407800534047	0.0	0.020102480050963642	-0.6814882365211854	-0.20781343993478368	-0.10334024229340091	-0.012474074317018803
-0.01603865340262806	0	0	0.1947728528807104	0.06825657587865099	0	-0.04553560028523751	0.0	0.01804561649579111	-0.6905345425124871	-0.17188548377864749	-0.09705632912996048	-0.012124349904568782
0.0	-0.010339223795521782	0	-0.020786852171346272	0.06834100699673876	0	-0.04295643442435211	0.0	0.023776510590209497	-0.6910532537892039	-0.17251655411136146	0.10544769399757314	-0.04602967762665634
0.061803819134976866	0	0	-0.13398529587890742	0.060415679916872154	0	-0.04053278074810987	0.0	0.022408483386581326	-0.716984731122626	-0.18021084765170756	0.03857381047015022	0.12851822993578604
0.06181819806746812	-0.009817957785469785	0	-0.13856400980547426	0.05808889681857174	0	-0.04695533116138944	0.0	0.024865731251166413	-0.6639153660233209	-0.1943711023321423	-0.10361075533826827	0.0
-0.09281970154064914	0	0	-0.13071018677123902	0.05743151319259509	0	-0.045373260957969695	0.0	0.026168531296682666	-0.7069340020988033	-0.1681940108802852	0.10959348479679726	-0.042141711818143544
-0.019952736179918246	0	0	-0.024038864423380272	-0.03931911926862652	0	-0.03476763847593163	0.0	0.021437243653093095	-0.681653469817911	-0.21757752634662042	-0.10657963971202317	0.024002488432525625
-0.016764881764274025	0	0	-0.13707768430809428	0.06270631387554051	0	-0.044930623314543186	0.0	0.027058070790609835	-0.6711467202119501	-0.23369270754450233	0.11012870591392918	0.022127274330325276
0.0	0.011731634923423603	0	0.19216516721141005	-0.03891041675813078	0	-0.01902244456302803	0.0	0.022214435233493226	-0.7141181847065955	-0.1797544103233249	0.10596025084258529	0.05056495492467513
0.06542088424936937	0	0	0.186762044568209	0.061019580754976314	0	-0.04616235600612	0.0	0.01829407496505453	-0.6930227210636534	-0.1923544091533336	0.1105629956509974	-0.03211492950551041
0.04985814059679634	0	0	0.19649427075565853	-0.0529602401593513	0	-0.017426952950055717	0.0	-0.021900457864377616	-0.6738825937508814	-0.19342684735462004	0.10733723331320043	0.07132197649815963
0.0	0	0.0257727558742125	-0.029204339202304187	0.05269374464858807	0	-0.03863506622852111	0.0	0.019459725559177198	-0.690873825262417	-0.17251118014707428	0.09966989384677455	0.06692183527533356
0.0571247625152433	0	0	-0.14085261809716088	0.06114800335053464	0	-0.03901003522468633	0.0	0.01035343806949337	-0.7072378566844204	-0.20582218631426916	-0.09526990776645107	-0.04021615572284156
0.0707534725850481	0	0	-0.14195175167879306	0.058680593204075475	0	-0.022698030806172657	0.0	-0.023896195701223987	0.6743125074758918	-0.1768605556266393	-0.09754171780061209	-0.0535564940665567
-0.10454529287583962	0	0	0.038970003472590053	-0.04356601256545602	0	-0.014948025132432752	0.0	0.020414589235418515	-0.7170534742411303	-0.15984894118264392	0.10072734793758474	0.03571836826561741
0.06048018346507173	-0.023865595039088118	0	-0.01944153721128574	0.04966191860247853	0	0.0	0.0	0.02127789056314565	0.6827196265759687	-0.187235533689402	0.11398652890145522	-0.08616128709237
-0.016736111393755825	0	0	0.20081996722314358	0.05715838808290818	0	-0.04814757407268109	0.0	0.019618759711724106	-0.6866456651140341	-0.17956321183619137	-0.09268442313662968	-0.07120400689838964
-0.10922099671684563	0	0	0.19471444031415805	0.060635012056792406	0	-0.05110614748255372	0.0	0.0252514437513981	0.6816008452736331	-0.17046523405946984	0.10828170693868464	-0.04744325708893103
0.056246568254948504	0	0	-0.024927081225752438	0.0618881796563392	0	0.13760982517831488	0.0	-0.031772694767573294	-0.6798298189621819	-0.1919203864424114	-0.09812898783685643	0.10366783834710373
-0.09537715939350769	0	0	-0.12970541237619448	0.06316268662252669	0	0.1326011484697286	0.0	-0.01584610247047489	-0.7240668348637986	-0.1660468599720064	0.09997959636336232	0.005158492892364758
-0.10316315033888579	0	-0.013052630007592513	-0.01534470147778496	0.062429425753413884	0	-0.04311960017966275	0.0	0.0	-0.6937248620336204	0.1949312001129724	-0.09985985799228343	-0.012960890390521274
0.05275850421173206	0	0	-0.01911502209522467	0.061114227067573405	0	0.14429623560492144	0.0	-0.02364240954736403	-0.6960097322402461	-0.14843263100654094	-0.09245968855828883	-0.07917476911627348
0.06073223206246795	0	-0.014533746873643867	-0.14077937176681657	0.058258815222397196	0	0.14788103609978404	0.0	0.0	-0.6789287098538143	-0.19513131525901392	-0.09493391767972206	0.040706365808364633
0.0542995663363499	0	0	-0.1414767774645902	0.057320088961660194	0	-0.046081536789696016	0.0	0.01799142328280891	-0.669481190922292	-0.18602874329130284	-0.09304476038742954	0.07479882223708481
-0.09164194155532734	0	0	-0.02412758842125756	-0.04250157745621493	0	-0.02911348517650227	0.0	-0.024299403667528342	-0.6902508091184337	-0.1702527976618949	-0.09402230375328766	0.05370595406261765
-0.02905275043461615	0	0	0.037075975534812886	-0.03756744385205807	0	-0.02197502702134497	0.0	0.0053493752768902225	-0.6763004664154294	-0.18175256273056167	-0.10724423676901722	0.08077245889411787
-0.09799162030468987	0	0	-0.023116442337060877	-0.046702963177512304	0	0.1330566870757495	0.0	-0.014155373230300024	-0.6879551431613291	-0.19874253173234774	-0.1004755323469258	-0.0606457147487375
-0.09867555908494147	0	0	-0.02341298243841735	-0.035660772918124355	0	-0.024947045031771177	0.0	-0.021617616426805847	-0.6921946985280066	-0.20188029368246044	-0.09963079334785425	-0.03778071078880767
0.06990580843498566	0	0	0.19478068163507287	0.06172038726988915	0	-0.042736738351800155	0.0	0.024665115351719488	-0.7000315220126445	0.2049809410949914	-0.10035833367828219	0.03318766216385826
0.07383310238090075	0	0	0.1967813343649204	0.05968639657327874	0	-0.04211713105334828	0.0	0.020752312969540797	-0.6798057448105405	-0.19664662963791013	-0.09823241898474525	-0.024141991861941162
-0.09910725727951075	0	0	-0.13171231842042874	-0.033996022908214456	0	0.13551119709097195	0.0	-0.017739121188400916	-0.6922315574598464	-0.1722317056442645	-0.09031977718762818	-0.07201814504142778
0.05285601483953066	0	0	-0.13199622411806147	0.0586623239789392	0	0.13114706571991597	0.0	-0.021964791913222814	-0.6911632470528856	-0.1738758705272608	-0.09708616147775348	0.05320237191324066
0.04748102272646281	0	0	0.18322578786101115	0.05906978565069532	0	-0.013790408199691007	0.0	-0.011679304705624071	0.6927103471981242	-0.15690397360591046	0.09733533443999216	0.030851706289620008
-0.016318933464381107	0	0	-0.13775863082241013	-0.03565573029851614	0	-0.01829239533560552	0.0	0.01593458418173839	-0.7014152956420746	-0.16700155577068576	0.10265228070965883	-0.041934637885891995
0.04854694979930333	0	0	0.20414713264170534	0.0469701157783427	0	-0.043857242487374666	0.0	0.02658511063331612	-0.6888223652783326	-0.16389689169034552	0.03031515953294218	-0.02067977893787558
0.060999461811368526	0	0	-0.14085128221764742	0.05603258341454381	0	-0.04021041312390858	0.0	0.018487431137400024	-0.6897742913499176	-0.1955758877147363	-0.09985543174267823	-0.04152951705133809
-0.10134147325602215	0	0.015271433072805402	-0.019868231493117994	-0.036658333383849384	0	0.0	0.0	-0.013203591893084045	-0.6929623532294776	-0.21277440398916372	-0.08635613293741853	0.021079710910800055
0.06512960380347775	0	0	-0.1357903015102766	0.06433611255926615	0	-0.049045018576588655	0.0	0.015080667978289424	-0.7224725004602549	-0.19689725232360664	0.10482165174646052	-0.13904069113794648
0.05711363667259204	0	0	0.20176670645418152	0.06246418780289516	0	0.15195570092340732	0.0	-0.021845066847497197	-0.7001552389360127	-0.1627247629070063	-0.10257170390008676	-0.029513590745109106
-0.01584439048685629	0	0	-0.1384954031849729	0.059714854694629435	0	0.14359221291942675	0.0	-0.023534601050158813	-0.6863317397010829	-0.16013101316256356	0.10153338405462767	0.0904653127652704
0.06980690676819583	0	0	0.034952267259248944	0.05429707978448868	0	-0.04296626053855305	0.0	0.019107804578898005	-0.7043423806591701	-0.18759483672266922	-0.09324582182115355	-0.039904040093704345
-0.09566455473902973	0	0.018139419058227628	-0.13676393753647662	-0.044447827169599635	0	0.13404248630349813	0.0	-0.01448266153030528	-0.695236827084142	-0.18626749094058162	-0.08957124606752687	0.0
0.05492118776822733	0	0	0.18809808886466692	0.06391307417094828	0	0.1380142007718335	0.0	-0.01903788403032126	-0.6789974549305258	-0.154709279162327	-0.09764478293029002	-0.06089486839576151
0.05039152230837256	0	0	0.18179243030709474	0.07007370488239198	0	-0.040700119144752925	0.0	0.0184055207379566	0.6847486067734723	-0.19159825222026358	0.10973244842263175	-0.01062002303293155
0.060009071457340614	0	0	-0.029717590383525325	0.06805041432596824	0	-0.010854593445443855	0.0	-0.019394174634489086	-0.6776966137864597	-0.15874161554703045	0.11146429277801628	-0.05512885836412844
0.06574715399367598	0	0	-0.137497347637287	0.055619802778212435	0	-0.046034526175988764	0.0	0.016029341235815304	-0.6988829421217074	-0.16464038802668673	-0.09373595331397137	-0.037146845039636486
-0.014269357592376969	0	0	-0.020189389674982395	0.0629386800695198	0	-0.03825842795442133	0.0	0.03327037786093677	-0.6950317164402536	-0.18681552664695592	0.09919186642915341	-0.03394774205168819
0.05824989880291283	0	0	-0.022865972792615378	0.05758133170515879	0	-0.043033155215283475	0.0	0.01521559448697144	-0.7093418250031985	-0.1944256648645781	-0.09747659846680533	-0.050863288881573175
-0.02321285098862847	0	0	-0.14004333319933585	-0.03394013055749288	0	-0.03507705840966317	0.0	-0.020527928624390693	-0.654577179527631	-0.18691974350236445	-0.107144700346872	-0.008611803866710966
0.050386783640035064	0	0	0.04945489567143503	0.052173215185355	0	-0.03605556771010878	0.0	0.023099637895754106	0.6782556848400214	-0.1908222142642607	0.08980944815533079	-0.05211710833958353
0.053898566039140144	0	0	-0.13930653032643636	0.05790891073140478	0	0.13939217394387693	0.0	-0.02739739358946234	-0.6720968838485263	-0.16628740652454926	-0.09337576153797106	-0.06942276135346477
0.06807359877571119	0	0	-0.13884749968146165	0.055298943463618765	0	-0.04250478441694902	0.0	0.019192956509387713	-0.6950191717908528	-0.18993312677012392	-0.09990034283646451	-0.018148344344267486
0.0	0	0.015811678492294784	-0.017506106181819477	-0.04110221617304797	0	-0.020236597551718347	0.0	-0.019649362992653362	-0.662676550324583	-0.19072263976183257	0.10939740904724392	-0.01663694534253899
-0.09269160300648795	0	0	-0.13484295865249285	-0.04112932709946873	0	-0.03031506725069876	0.0	0.020987573600964104	-0.700359770775394	-0.17244688823055696	-0.0958618542247863	0.023275557050631245
0.0	0	0.020610781133791896	-0.021397411296111297	0.060747925206794846	0	-0.04561323998098072	0.0	0.020333727232984142	-0.6840114991307551	-0.17034782078279043	0.10160259309921446	-0.030164878773634274
-0.10428172438642326	0	-0.007300747476951765	-0.14253158979087094	-0.04131653105666085	0	-0.024699284785754918	0.0	0.023020351377337142	-0.7071640425578439	-0.19298838440051658	-0.09250527851751046	0.0
-0.09942458583959855	0	0	0.19222478080810937	-0.03796976429351442	0	0.14346907326087696	0.0	-0.022973141963470303	-0.713198152938403	-0.17349862477815514	-0.09524275958732717	0.03406025528461851
0.07346928331154884	0	0	-0.13516007741084637	0.0498436144686572	0	-0.04096676621515979	0.0	0.01672425360686498	-0.6939555649319372	-0.16192039605270767	-0.10111125596435198	-0.02246462695988992
0.05190296146747215	0	0	0.028426005595379254	0.06492165761500904	0	-0.04392509767657435	0.0	0.019540852885067045	-0.6932262908758041	-0.1676375693654165	-0.10090311468321468	0.039118709728291526
0.05727955423986643	0	0	-0.01562532131743967	-0.046092478500693854	-0.0068896780785753136	0.13642792799671494	0.0	0.01846208004932852	-0.6877552023804814	-0.169591951529737	-0.09150467831079784	0.0
-0.0997460447053303	0	0	0.18452344118513167	-0.031295412422978945	0	-0.014102416069368863	0.0	0.021956083602029063	-0.7149516118363434	-0.16510088862207686	-0.09837211928396013	0.011201661543248625
-0.10186147420003347	-0.01244429474834325	0	0.030463985108616982	-0.040844454172232966	0	-0.02937769151983516	0.0	-0.017632346683623564	0.7074458364715557	-0.17576340671510826	0.10820588631559315	0.0
0.06188331472392538	0	-0.008956380052150763	-0.13165906948748057	-0.047572107855067235	0	-0.028482223134893087	0.0	0.018550021950262795	0.7026975448536051	-0.1722968702041953	0.09346347036638264	0.0
-0.016079883145860393	0	0	-0.1357295249102674	0.057595465714199504	0	-0.05006863068921686	0.0	0.021686109301412296	-0.6843953092617289	-0.2077990415351803	-0.10198018999651283	0.013755813690467494
0.06533508520217517	0	-0.012511243235811	-0.1398056077812985	0.055160968322412074	0	0.14066795568447618	0.0	-0.01766155105420524	-0.6824797822809701	-0.19274009364986647	0.10626301698821072	0.0
0.05387145542395884	0	0	-0.027315735395961684	0.06294281381139295	0	-0.04571199611649955	0.0	0.015423534445114519	0.6999853075497926	-0.14676544138432213	0.03239222004554162	0.05010954254250063
-0.09758777561411122	0	0.02105493149212948	-0.026127672744893325	0.06020360378260485	0	0.1412173975910948	0.0	0.0	-0.6585091021746153	-0.2130800665588779	-0.10311152740419076	0.034228310742718066
-0.023402095634359573	0	0	-0.14162078625486488	0.05997550574516332	0	-0.045858585359762026	0.0	0.017232528607493556	-0.6761652703459843	-0.21532932483298597	0.1122280043002326	0.12044184435109599
0.06429653905982283	0	0	0.030235500391485252	0.062402053338243106	0	0.13704304055097014	0.0	-0.023595445188191407	-0.6745344351126072	-0.2049057544193417	0.09879533926838703	0.02915951937762278
0.04562909342951003	0	0	0.19471365041760133	0.06401657637493766	0	-0.03769037973274312	0.0	0.014855740442386649	-0.6852409619535212	-0.1938214242474535	-0.10740897580958092	0.028245667382270533
0.04853642547024368	0	0.01897898985810124	0.18732134124133093	0.05891849742207468	0	-0.0337656388847213	0.0	0.0	-0.6967385870015761	-0.18934291119008959	0.11133912583659271	0.015103430962095746
0.07762384123006391	0	0	0.19093648205490532	0.06306300805118156	0	-0.04889549339309319	0.0	0.012402418064280269	0.676340438441846	-0.16304563291442353	0.10341171471830571	0.008199836865552949
0.05684324872841152	0	0	-0.13478864247796585	-0.08251413901500933	0	-0.03785106862794348	0.0	-0.020137336923275965	-0.6924199599350994	-0.1910144256601428	0.1009190122632314	-0.021975296428938938
0.07520885308664771	0	0	-0.13287955280666114	0.05245786860684938	0	-0.0417413250967736	0.0	0.014611841455625022	-0.6974701523197805	-0.17700136912503048	0.10086335496753798	-0.057323518897426574
-0.018535097990751287	0	0	0.19484898933271846	0.059998569780748155	0	-0.04791699805213796	0.0	0.020399350910688258	-0.6917114893046235	-0.1762378288443512	0.099132349707297	0.02661964561070584
-0.0965898680108644	0	0.010691474382233447	-0.13675330798191834	-0.034329415298502544	0	-0.029037578830433963	0.0	0.011672781268657091	-0.6939531979200281	-0.16961343307982796	-0.09957419052992507	0.0
-0.015057836154923935	0	0	-0.1293160518391824	-0.09034359038950508	0	-0.012908360730517805	0.0	-0.013940809471042195	-0.6958147737223404	-0.15631363616844976	-0.10060897399884755	0.031038051537321715
0.052435868422982035	0	0.018452132987586127	-0.1347487601349698	0.052861135972285964	0	-0.04147227186762825	0.0	0.0	-0.6853077247540731	-0.19860945308950392	-0.09516256271940197	-0.019874602056586838
0.06899930894129136	0	0	-0.13266441717899813	-0.038876653693509754	0	0.1347546461981091	0.0	-0.019033649383150428	-0.705432927503502	-0.15530557228694478	-0.10044436425971716	-0.01612160690243382
0.07073897664208707	0	0.006142527366394427	-0.13358364704940887	-0.08831385584984619	0	-0.013866399951382261	0.0	-0.01668727897994601	-0.7030789232623964	-0.18793879033804886	-0.09573483921737552	0.0
0.05030949239981202	0	0	0.19602935477416386	0.055613203985964005	0	0.13954840275007308	0.0	-0.019006903520138715	-0.6856038626355235	-0.1522625585248314	0.04088377462323096	-0.049620606695079
-0.016178437649384217	0	0	-0.024412049559538955	-0.0882530580243754	0	-0.01731870225455688	0.0	0.011380223654954833	-0.6773075488244876	-0.17823323217429463	-0.09097361084843958	0.08705900866890541
0.057217262468359745	0	0	-0.02661584752363735	-0.0919088717811423	0	0.14138925605330485	0.0	-0.017909470667241516	-0.6626378894674902	-0.1860597363380404	-0.10561084910485065	-0.015356710899915442
-0.008948160339067195	0	0	0.18642069829110344	0.0613763539530654	0	-0.03694983319778654	0.0	0.020297484183683823	-0.7073692271765663	-0.19823921525880803	0.10458406294703879	0.02078744782172995
0.05810985681181637	-0.0181931942694265	0	-0.1315849461803039	-0.037018524948515694	0	-0.03464602654115412	0.0	0.0	-0.6605989099833088	-0.17563378124388693	-0.09276385820304837	-0.05843255099592466
0.0764045337639072	0	0	0.20130632316473562	0.06777692313585547	0	-0.04247862333042676	0.0	0.021506628582677035	-0.6873132105857355	-0.18734835838125907	0.09328005810189016	0.016047573708405562
0.0656900399581913	0	0	-0.027778838434387186	0.06252649292683156	0	-0.013864581666507315	0.0	0.02295330819247462	0.6881224377239938	-0.20091517328041605	-0.09833756936607789	-0.009607647507030736
-0.021443479527356268	0	0	-0.13362536653666482	0.05325725254582043	0	-0.04430121127064499	0.0	0.01733254750255652	-0.7033080266092558	-0.14211206530368764	-0.09867588343731105	0.06310407824439801
-0.01543564287014795	0	0	-0.13468133551987904	-0.0462629610749855	0.006001134296788908	0.14360366991508727	0.0	-0.006693840346828677	-0.7100951171741741	-0.1631483933639725	-0.09393243324912545	0.0
-0.01802745555772429	0	-0.014115130259582649	0.19255208741618612	-0.045209927726975775	-0.01000121200602903	0.0	0.0	0.023953201229792942	-0.7035899408396149	-0.18593909088054086	0.03375807378961826	0.0
0.05309508796451321	0	0	0.18216593831369024	0.0660121816441399	0	-0.010712724406783669	0.0	0.0168452164727567	-0.7113414917204721	-0.1694765948841261	0.10471903695618172	0.010427738591491462
-0.019711647098057693	0	0	-0.13631420424006577	-0.04092200780591844	0	-0.027567287597842046	0.0	0.01336290444449511	-0.6904210872222345	-0.17088505759146982	-0.0985050549339976	-0.03338085931065203
-0.014389236014299487	0	0	0.19331322242074256	0.05971587384669929	0	-0.04883557053997637	0.0	0.02661645969727317	-0.6790557337160843	-0.18443039432302555	0.106945743488575	0.02445659468010905
0.0640475791955028	0	0	-0.1408473821441536	0.05629029189386493	0	-0.02244191652971493	0.0	0.022201365935003183	-0.6887964066558274	-0.20675161056008243	0.09597511386283265	0.03303709727139863
-0.017966671325641868	0	0.011365514902757655	-0.134306407639996	0.051614819868968	0	-0.02202636484172121	0.0	-0.009071250392405292	-0.7160344283973908	-0.15583211847601022	-0.09482235491159094	0.0
0.0	0	-0.01045872879961019	0.02124785094519467	0.06378245644935719	0	-0.038152652785924605	0.0	0.01254830173295827	-0.7102494871471196	0.20870321193463595	-0.10311393886767628	-0.015991979797561066
0.07089193620486173	-0.01976430888693957	0	-0.1390902093756526	-0.03526867966485006	0	-0.025719253785111442	0.0	0.0	-0.6942780003391913	0.18348995217917394	-0.10216172524722898	-0.022249895896395346
0.04859631022588536	0	0	-0.13830744836067516	0.0615325942093416	0	-0.04244657879162878	0.0	0.021908240077635397	-0.6500813397446463	-0.18232435249376905	-0.10120358209233392	0.03885501751879911
0.07153513839776386	0	0.015222047476727773	-0.14389077344185255	0.06230019187595665	0	-0.04880976840886112	0.0	0.016352995651850288	-0.686781832051537	-0.1837709004601261	-0.10214576947448815	0.0
-0.02376075956934649	0	0	0.18811692274687586	0.0624983979116497	0	-0.04665062650116663	0.0	0.02860973683751437	-0.7119049174964311	-0.17739861912091348	-0.09965675577344157	-0.014043333780591114
-0.08886424528471888	0	0	-0.13122170692617202	-0.037522828931174736	0	-0.0260253381178612	0.0	0.02205319154756127	-0.7112977636177638	-0.17080268023343745	-0.09530806433542591	0.038986716634159285
-0.09653108859433203	0	0	0.18444668754601595	-0.045898040823280965	0	-0.018070397504148246	0.0	-0.02006486646669939	-0.698772245547195	-0.20301232907010092	-0.10086605398994487	0.021010352248225894
-0.09909637969399462	0	0	-0.13299288836715076	-0.04332408300438538	0	-0.014653905778835245	0.0	-0.01131566362366526	-0.7170059900790676	-0.16975964060751692	-0.09534784383581682	-0.019569480873184327
-0.10309910248374715	0	0	-0.0236271621667093	-0.035929294623312145	0	-0.035884390544235915	0.0	0.02877571246423607	-0.6852531426726174	-0.17838068649815142	-0.09652409928087788	-0.03299754084916226
0.0683372262559521	0	0	0.18362305714250762	0.056541561128789435	0	-0.01828002325130281	0.0	0.021545550443529085	-0.6996679378977085	-0.18911195228057803	-0.10086244482959227	0.03230703284535951
-0.09468320332213599	0	0	-0.021606954816129488	-0.037778360879081506	0	-0.02225150470366815	0.0	0.013179661601170385	-0.6940582872120096	-0.17045398200218945	-0.09761716018872109	-0.05488407498439937
0.06820158742838203	0	0.01221196642260524	-0.13705658067467993	0.05573596297541294	0	-0.04580629455185711	0.0	0.0	-0.6906447551829005	-0.19119027201872663	-0.10024058961995122	0.014404611432997793
-0.008839427973599068	0	0	-0.13915702475558417	-0.04211412899901156	0	-0.033546637034460904	0.0	0.013851329749821761	-0.683923818477495	-0.1933979700390251	0.10034735334596813	0.040069395733139654
-0.01991248126417915	0	0	-0.02258602196615878	-0.04160906077339846	0	-0.019071673201091047	0.0	0.013553071357442197	-0.6710208758975558	-0.1903806735021287	0.10030887814851099	-0.12990833450620498
0.05980604559562898	0	0.022419841988941862	-0.13932884623029276	0.06024741592709861	0	-0.03976517654198417	0.0	0.0	-0.6912842387000112	-0.20073829953403902	0.10863486553424605	-0.05902960754200113
0.05640030304016641	0	0	0.1878975697285318	-0.08536373865130012	0	0.14497490180611072	0.0	-0.02033793042784556	-0.7153342132796501	-0.17111041400873608	-0.10532051605342722	0.019812193676282917
0.0	0	-0.009646896337693969	-0.022004934317885326	0.06339872757729408	0	-0.03985262607186592	0.0	0.021451269019084836	-0.7144205293602859	-0.18482543009756178	-0.095237764720516	-0.09466561200310963
0.05030794025550851	0	-0.013226325432868944	-0.14041949762828354	-0.046210957214066546	0	0.0	0.0	0.022790866484550806	0.6790476098193816	-0.19271735140226928	0.0960613240539907	0.06549822215694907
-0.0156007528467814	0	0.013524704983506728	-0.13906014487284818	0.055960235389767764	0	-0.014637768655954753	0.0	-0.020656771803612826	-0.6785617095328302	-0.19998510068088407	0.10731234347151856	0.0
-0.10047619166835128	0	0.019957002331213215	-0.13823580350124295	-0.03551636665549466	0	-0.02242905836325311	0.0	0.0	-0.6988915317108315	-0.15767979490007022	-0.1050351644409723	-0.02590347202559006
-0.0981430101528717	0	0	-0.13922843220281578	-0.03587745323779181	0	-0.024309430978854605	0.0	-0.015632556602522517	-0.6723359105383397	-0.2038849838629323	-0.09327584776942466	0.007514391171248345
-0.09908168636115446	0	0	-0.12784999055283286	0.05306855224262358	0	0.14345603849355448	0.0	-0.009494308980830677	-0.701353330458147	-0.18737900606839825	-0.10362550091235331	0.01569493820562461
-0.019802117965480107	0	0	0.19511430599825744	0.061166493964545314	0	-0.04427151607889996	0.0	0.02409426792322764	-0.6758391623294987	-0.19172600462301426	-0.09929038747643583	0.02559244320680253
0.061461124180714234	0	0	0.1936723498018165	0.06286819744502475	0	-0.041990696314655684	0.0	0.020336857469654423	-0.7169255287538377	-0.17670748675437617	-0.09827875789634877	-0.03105907252184375
0.055852018246619485	0	0	-0.023652751690499883	-0.03428926042404577	0	-0.023538370498354236	0.0	-0.022993356230446776	-0.7038938677696234	-0.17048189599740665	-0.10188365353930402	-0.009310103700983952
-0.09716112073797524	-0.005975378661632027	0	0.006638431300621373	-0.044475954920794786	0	-0.03753950210461302	0.0	0.013782623554401026	-0.7170006970449536	-0.1971456181073445	-0.10202182758354822	0.0
0.07366932386920567	0	0	-0.025593515205688543	0.05759858770118102	0	0.14775715694628003	0.0	-0.015530849603489723	-0.6876819900933973	-0.20834898373858132	-0.10170174721197744	0.033781857502636174
0.06013929282987605	0	0	0.04324710122066233	0.05536578530962458	0	-0.04418095307697419	0.0	0.0249591174160886	-0.6816673765187058	-0.1679409943136506	0.03932307612367206	0.04042037174897935
-0.09916508157968831	0	0	-0.018701290943347187	-0.0367716257876404	0	-0.02174330201699572	0.0	-0.014498760289968025	-0.7017590750849859	-0.1991213969065212	-0.09343886065695609	0.05231004321954737
-0.019770963299549353	0	0	0.18866766908973653	0.05335011308054146	0	-0.04784032116868221	0.0	0.016659853189757403	-0.6909194909924252	0.16917356654709587	-0.10594247056850226	0.12502172158915117
0.05150647999775748	0	0.017412364212196926	0.196160779145857	-0.03582020944594902	0	-0.016960065237336498	0.0	0.023217332597990532	-0.6866346263498366	-0.19181864775780239	0.09674546542226965	0.0
-0.10688484856754948	0	-0.016685242133428653	-0.01669169376912654	-0.03456890695109588	0	0.0	0.0	0.017179973209773648	-0.675887942995409	-0.16704084957665516	0.1054981800795433	-0.018873757147079624
0.05145631992673419	0	0	-0.1358229126187767	0.05843735858763436	0	0.1263697983170557	0.0	0.013904258408406396	-0.6774473944557241	-0.1843696898640013	-0.10132775564488915	0.07031021646400788
-0.010447362705363158	0	-0.018391004505676756	-0.02505338265689389	-0.03871958731924497	0	0.0	0.0	0.01569882195265106	-0.6823417925233677	-0.19590485224481807	0.10523421367305588	-0.10993801893259222
0.0	0	0.011751128407898739	-0.14730897805532495	0.07089265099673624	0	-0.0450939962629537	0.0	0.017298597611506965	-0.6791922665938155	-0.18957040680643794	-0.10590970768929564	-0.020108789597152205
-0.10333099612606399	0	0	-0.134042221916995	-0.03663599651646386	0	-0.02986424272861783	0.0	0.01463820878506254	-0.6914715346044691	-0.1949331089419941	-0.0968266060124387	0.009280115025738122
0.07430025720960756	0	0	-0.024210721187108004	0.05709117496704003	0	-0.045820031280985295	0.0	0.012313468915114695	-0.7054303159963935	-0.1779679705306287	-0.0983910205360292	0.04325076514099119
0.058936466784521774	0	0	-0.14297263056215184	0.060644121701640415	0	0.13238467182114474	0.0	-0.022258760192314212	-0.6843940452310351	-0.17193305094410205	-0.09475462591806778	-0.04452507384918035
0.06004367755305845	0	0	0.19659439778222057	0.061240516763171056	0	-0.044001713756819716	0.0	0.016388764928290056	-0.7059430876963042	-0.20310859504872497	-0.1048424173153236	0.025586157240639323
-0.01938651016506996	0	0	0.19391526446418048	-0.039291329407772094	-0.016407732110014235	0.0	0.0	-0.014739608786516565	-0.6999046859752505	-0.18089607589342618	0.1072541333678677	0.023679445567504672
-0.10090124774312599	0	0	0.1855251542112149	-0.03932975415027514	0	-0.018731490301724506	0.0	0.022006107147189424	-0.7009930098821041	-0.17886841177609034	-0.0949216060084544	0.03507692835278371
0.06880015465738744	0	0.010291707606522094	-0.13676906747661421	0.05821763746103298	0	0.14114048237200816	0.0	-0.024089383273253447	-0.701987407993341	-0.20181236973006383	-0.09775899731503014	0.0
-0.11255826482841917	0	0	-0.13515316772984198	-0.040544148253478664	0	-0.033324329052556875	0.0	0.01895180400405103	-0.6855454788834227	-0.19575546170457922	-0.095998654481454	0.012703709297306279
0.05331143790430962	0	0	-0.13994890326531384	0.06346661427476645	0	-0.036911921129257154	0.0	0.015900495799250205	-0.6875348481605347	-0.18629192474923081	0.10393400642913084	0.03439464966684846
0.06900279420754665	0	0	0.19497926877757096	0.06439492238343117	0	-0.04874793314655386	0.0	0.01857723964603859	-0.6926309797319088	0.17002224444838626	-0.09607454192103125	0.09941243858224817
0.04564307483050936	0	0	-0.13505497182253004	0.05532138523577214	0	-0.048117938154257876	0.0	0.018613763854024256	-0.7034844128213917	-0.16451487272042814	-0.09738997977255802	-0.006298887919602931
-0.014978602270360285	0	0	0.19419981513418644	-0.034589477339620825	0	-0.010618646260813304	0.0	-0.017742479959954992	-0.6967193902277139	-0.17010499592418732	-0.08996057441696728	-0.01569530288738356
-0.018159270307044718	0	0.013452031187168076	-0.13182439663733797	0.05481688952081246	0	-0.04433391316251353	0.0	0.01219745741251709	0.6962008284019684	-0.19781029680953757	-0.0987917040812597	0.0
0.0683880421745642	0	0	0.18828128991521947	0.053166525509634445	0	-0.03970446230327722	0.0	0.0193453359937892	-0.6926281461516149	-0.1856077920741765	-0.09962127168033143	0.056064642645777645
-0.02198831828697422	0	0	-0.13836032764132805	-0.08485387608302403	0	0.1489974437373793	0.0	0.02381985929426264	-0.6918653347531875	-0.17086860307097804	-0.09036952765763036	0.055704181849350436
0.06269033267205844	0	0	0.19547465747704698	0.06236835116095177	0	-0.04562122547336002	0.0	0.020886944060450226	-0.6710207766474445	-0.17938660954559918	-0.09825713563148096	0.01340379893128089
0.06873942849987139	0	0	-0.13624817522906332	0.05892947611392246	0	-0.03995351497000295	0.0	0.016545750044117864	-0.7040212870821178	-0.17591313072380538	-0.09768580363017328	-0.08718219592053186
-0.10336980301418142	0	0	-0.021876477472064292	0.05823933736368116	0	0.13102964436020548	0.0	-0.019186870062070087	-0.7108350816507055	0.1957697154698639	-0.09980663050659251	0.02864376019852031
0.05169860129978851	0	-0.011392744766021782	0.1922534745695294	-0.04227534509768491	0	0.14429668035162851	0.0	-0.019269902984438935	-0.6865337094692446	-0.20068075078110978	-0.08796198596625099	0.0
-0.01649982076329331	0	0	0.18305700620914284	0.05552800962924969	0	-0.04187108562472834	0.0	0.023737050037254757	-0.6716580981679189	-0.155918421644611	0.03442126285188204	-0.02546616278175109
-0.09546942672012854	0	0.012984984652728716	-0.1369373411955989	-0.03476969682931473	0	-0.025978027454538987	0.0	0.009820388815809723	-0.7064411500774337	-0.18162975036015747	-0.09878335214485646	0.0
0.07660799578122425	0	0	0.18821697255103773	0.06034768348696607	0	-0.013584555245601936	0.0	0.01978169368290338	-0.6830672370061018	-0.20815536824758932	0.10383672369758719	0.05240129943031915
-0.08943864889496314	0	0	-0.13304170872679055	0.05863601710906192	0	-0.050486686917596016	0.0	0.020714832803828343	-0.6905380867707996	-0.18334229272189945	-0.10264519993726756	-0.022530089653064654
0.0685841627020136	0	-0.02082899843143051	0.1873690791393319	0.05532716060982029	0	-0.03882421884276405	0.0	0.01932353251280609	-0.6814481905158476	-0.17672365020230993	0.03702997583858204	0.0
0.04168347352220712	0	0	-0.1291674611635936	-0.04688654891733042	0	-0.026180315000839272	0.0	-0.013778003901522215	-0.6806581883130207	-0.17194849380458174	-0.09280612496260847	0.05343121595788591
0.07503147438838118	0	0	-0.01930970842000766	0.053160585829556364	0	-0.01912290667137019	0.0	-0.019113857835860792	-0.6825353216480512	-0.17495725713586943	-0.10368833376459295	-0.06120391625843626
-0.10473492282815598	0	0	0.19055670110692505	-0.04673282540307887	0	-0.01986981185188462	0.0	-0.018317036058749497	-0.7289352407370475	-0.1798953777105741	-0.09994312281267494	-0.046969928536014297
0.053621756999313576	0	0	0.1808294764822657	-0.036819257190555794	0	-0.02187819536352171	0.0	-0.019922815691758407	-0.7008509853729674	-0.18717024887014394	-0.09952940398958263	-0.041689150064927245
0.07139352623408521	0	0	0.19182615081505608	-0.08636339347251856	0	-0.02464504347767486	0.0	-0.018688372846199862	-0.6918238055423642	-0.19417086728070176	-0.10337940532725687	0.11095414675202958
0.06860433390581391	0	0	-0.14152780419865493	0.06038197230510871	0	-0.047801859875316245	0.0	0.025343307447478466	-0.6888858519564072	-0.18154716277238295	-0.09917317944172063	-0.07785795455363112
-0.011472700382416977	-0.010351696367104448	0	0.0	-0.038389775229865815	0	-0.029432531297898662	0.0	0.021265872035684703	-0.6857438683215119	-0.14594515489637694	-0.1023479174514488	0.008628145324778005
-0.011997297617128882	0	0	-0.14168972061519253	-0.0337555879083059	0	-0.019584670909221853	0.0	-0.015843311286499854	-0.687253300556813	-0.19211583769306506	-0.09291526577175395	0.06728101681693169
-0.027069298457218945	0	0	-0.019926408471957202	0.060623581687585866	0	-0.03904757005551636	0.0	0.02274152613755146	-0.6715566493717265	-0.1812187165420278	-0.093788083750259	0.06868456501978358
-0.09955553531639959	0	0	-0.13796261359798567	-0.04310831936892114	0	-0.0167338970045098	0.0	0.023811031697226093	-0.6912665426075055	-0.21231597706423072	-0.09497724315784317	-0.02317723271991241
-0.10162844420635464	0	0	-0.13375286403184783	-0.040825269114042204	0	-0.029237743132945283	0.0	0.020104293008936545	-0.6981048130371936	-0.18825765739626685	0.026284124128571167	0.03465369069823887
0.05336729301210359	0	0	-0.02654564683149717	0.06124565647724196	0	0.1362182258654409	0.0	-0.01892214688528747	-0.6863928021698203	-0.18478886980028375	-0.0885168932734293	-0.011188699185466305
-0.016497657715076552	0	0	-0.1396781106039432	0.06658517747002878	0	-0.005821336675638935	0.0	0.01838673913972274	-0.6831123525778964	-0.16095749019365468	0.10616849208467447	0.040963647257399115
0.0759476873020562	0	0.004013109333674175	-0.1393723443786537	0.05977654493700333	0	-0.04202575831060751	0.0	0.014571710902628463	-0.6822762209485517	-0.1695776370275973	-0.09007446690970453	0.0
-0.021815425609705032	0	0.014732122597965695	0.18540418882452292	-0.035819419725841725	0	-0.014439055997939786	0.0	0.016277056441435345	-0.6967653455743408	-0.17706977934274168	-0.1027187540460708	0.0
0.0740991506991109	0	0	-0.13946780923206067	0.05855080369265175	0	-0.04024502834258764	0.0	0.017867142284523116	-0.6981113357602823	-0.17135071547245562	-0.0945206404574968	0.01692081522188216
0.051068679398868735	0	0	0.18724923628549658	0.06289613534626974	0	-0.04591370164427295	0.0	0.016342991349045495	-0.7053254259933531	0.18574190307564145	0.09827107699570307	0.016326361680622164
-0.10093239360275998	0	0	0.1814859790729877	-0.039964545952333834	0	-0.026506463055287206	0.0	0.01677244859833132	-0.6932161229271382	-0.18230054380370386	-0.09420269514978839	-0.007912807589763274
-0.09441821044322894	0	0	-0.1349224629000511	-0.04575666100039462	0	-0.020372292499882382	0.0	-0.015378828000178563	-0.6852973056743432	-0.18446800689145376	-0.09329147775476462	0.020583952124744353
-0.017907623843712302	0	0	-0.13123503059296937	-0.0415037575831029	0	0.13897640947017734	0.0	-0.01347303298826977	-0.6748493575707117	-0.18953846825754073	-0.09825308503805029	-0.07227599363053466
-0.09896532533303153	0	0	-0.13370928200951893	-0.04056586700762205	0	-0.007758182314049926	0.0	-0.017914972245773864	-0.7046918880337452	-0.17780327818535627	0.09460565393723873	-0.016012796260296586
-0.1028850781044547	0	0	-0.02077387267764441	-0.03936433127974808	0	0.13392538337258972	0.0	-0.01884595536847659	-0.6751224524782561	-0.1818951262339602	-0.09820016171293058	-0.06113701043045021
-0.010602190022578636	0	0	-0.14016855284490023	0.059021806912772735	0	0.1450876175833313	0.0	-0.024487638681107357	-0.6960480558721607	-0.1797054444256004	-0.10708321505298309	-0.04587875132342717
-0.022437756059883657	0	0	0.19832508843586588	0.05864420802597058	0	-0.04008599917433761	0.0	0.022590007382024883	-0.7022563821022259	-0.1690579969960925	-0.09341384098594532	-0.050735630031367544
-0.013892659769680796	0	0	-0.019787920488220923	0.058238041197907695	0	-0.045723783694086896	0.0	0.02638865772637654	-0.6794726910130667	-0.1884671096312903	-0.09858444396487129	0.09191573933467624
0.059146169585410094	0	0	0.19270321353579042	0.05742452700551187	0	-0.042961902311700516	0.0	0.015190892858466722	-0.6852535431925959	0.19873418176506008	0.1053187779236929	0.041301348575345294
0.05591505878716627	0	-0.014267264813483007	0.190797405268545	0.05951198908623198	0	-0.04125411397498665	0.0	0.01408092879549619	-0.7047384516742887	-0.2096358087971112	0.10126926146123641	0.0
-0.09918518274977081	0.010578067233717651	0	-0.137804372021331	-0.04135023814176552	0	-0.02395068087055836	0.0	-0.018178122890750645	-0.6930929211936033	-0.18609985523829228	-0.09720471346930594	0.0
-0.095585068825456	0	0	-0.13845463456108592	0.05609268888788003	0	-0.016289948248573383	0.0	0.019505836598474508	0.665054161868031	-0.17068679980049864	0.02032878035424858	-0.0492370135735386
-0.019240233258764484	0	-0.008049570168642434	0.19670256571078984	0.06468519770057062	0	-0.04093588048326854	0.0	0.025732969173865264	-0.6780126057797132	-0.1812245207781469	0.10700630840080998	0.0
0.05747526342394987	0	0	-0.028447897575443654	0.05670112652791747	0	-0.04364567613030124	0.0	0.022217406987100508	0.7046252959218955	-0.1712104462847109	-0.09904356500470841	0.09371324395500336
0.052907185248860865	0	0	-0.14081734266338927	0.06420438824692515	0	0.1533097565099667	0.0	-0.021736383659694557	-0.6760198261144389	-0.18239457589362093	-0.10898918352033983	-0.04304276094525763
-0.09692769730314503	-0.01014003269329389	0	0.022553348725727115	-0.04053741850690833	0	-0.03565625038777854	0.0	0.021212943643713168	-0.6990409436785563	-0.18832295640943805	-0.09284651478287789	0.0
0.06058090910497601	0	0	-0.13664834106820983	0.05523413892187543	0	-0.046343326727471656	0.0	0.016503087690281155	-0.6844611827508013	-0.17711654326441606	0.042190981120196584	0.03613116967005097
-0.09672604984959059	0	0	-0.13118297503951687	-0.03992427125903023	0	-0.030390169412728277	0.0	0.018796252035211715	-0.6936352369787915	-0.18263360611073048	-0.0974917497971556	-0.05408191917504251
0.07169851808320117	0	0	-0.13617677892582852	-0.0906676840712733	0	-0.015942850356280708	0.0	-0.015353041006529561	-0.6893278114773288	-0.16550680793902228	-0.10006280111564561	0.054398234064682124
-0.10454794259268069	0	0	0.18552194716338585	-0.035972392041736176	0	-0.039881572097175154	0.0	-0.022067475966931125	-0.709514226354562	-0.17870127426684898	-0.10462136336343184	-0.024966209688121008
0.07946060823419021	0	0	-0.13477798632232657	0.054912954016994676	0	-0.043552180386362244	0.0	0.019628308314501998	-0.7073840868844362	-0.1766830623425212	-0.10580061444154526	-0.00935730452839296
-0.01848346956880652	0	0	-0.018581921916089424	-0.046046300056970614	0	-0.02656556414467416	0.0	0.01856373034930373	-0.7217124040225237	-0.1902387849436019	-0.10489791368191129	0.025999948064181443
0.05481905437981947	0	0	0.1956140831830137	0.05615163765968105	0	-0.04506784306395075	0.0	0.016636614576738578	-0.6725068930383387	-0.20624242618017805	-0.09891640278200717	0.04022514520324092
0.0755646975241426	0	0	0.18310725371287223	0.06097757528257737	0	-0.04376856481272814	0.0	0.018703199660167143	-0.6854396886397651	-0.2068057741468905	0.10571601447053831	-0.028766282237678374
0.06775609137605484	0	-0.012935970805724074	0.17845170064688815	-0.04469562940016845	0	0.0	0.0	-0.018984994549933767	-0.6888784053150312	-0.17913371363275254	-0.10429347321633103	-0.028381919932664968
0.05635350022861416	0	0	0.1928954731631626	0.06207714952633279	0	-0.04622381972836957	0.0	0.018263568822769076	-0.66107971913753	-0.1786691892865479	0.026979484481856844	-0.03704522413228543
0.06920501405241472	0	0	0.18517819530589985	0.05841879897150566	0	0.13383829420600937	0.0	-0.019407786777746832	-0.6926574533652115	-0.18358458451920237	-0.09907668859525537	-0.013261523485435632
-0.09899906920997696	-0.012272001448302155	0	-0.01854878469656785	-0.03834933162345254	0	-0.032516175974043146	0.0	-0.021076588478577598	-0.7046573784142405	-0.177426443606082	-0.09720996101288096	0.0
0.052511229791766874	0	-0.01096866093260421	-0.13667186824054983	0.06118093554785883	0	0.14136203466441694	0.0	-0.019281391063906236	-0.702059280828128	-0.17936057979043932	-0.09506707924110205	0.0
0.061572267992634454	0	0	-0.13807729171342353	0.06460822773066172	0	-0.042447810694024084	0.0	0.022527461472012296	-0.7162722702138166	-0.17451231293544167	-0.10223704505217081	-0.06186989956570762
-0.09132128004682061	0	0.021085976025023774	-0.02879071108478675	-0.04181623201072339	0	-0.025488174796567807	0.0	0.0	-0.713893690537802	-0.19503350480360332	-0.09734025784627696	0.049723490452082325
-0.10309792662164986	-0.011452955583999213	0	-0.018431283516906406	-0.035123611737149306	0	-0.02195682042198909	0.0	0.022034019996630502	-0.6903329365597073	-0.1698267237239085	-0.0936995645327372	0.0
0.060689606252193044	0	0	0.03221393080244463	0.05894937090043006	0	0.1353575254487427	0.0	-0.01784575123839744	-0.6835760677972004	-0.18217268945781684	-0.10682311009834884	-0.02617639697679777
0.06651901019687982	0	0	-0.13172301195709274	0.05870956595611938	0	-0.036889147251307174	0.0	0.02279341342228912	-0.6970605708873767	-0.19452625799465725	-0.09820587674487494	0.012512825831850566
-0.09401596900960724	0	0.013842745518467422	-0.13710691147891033	-0.035676503641002486	0	-0.021218878656561878	0.0	0.017370827589102477	-0.7080469134249441	-0.19688265121492782	-0.10251062994524487	0.0
0.05107726657223494	0	0	-0.021955547830674254	0.0582568831124711	0	0.13769330713322114	0.0	-0.022790492111655552	-0.6807934811513401	-0.19464038971582498	-0.10012141102153473	-0.021990127025041443
0.06539516478615895	0	0	-0.13765447257277041	0.05878896042157578	0	-0.044146895254329466	0.0	0.020574868348358987	0.7000594133702264	-0.1917018068464945	0.1042524607263843	-0.08848835018650887
-0.021288864227982356	0	0	-0.13662592612685745	0.06192230919279626	0	-0.045577719277871194	0.0	0.026296241072559245	-0.6919548070331878	-0.1803653290243953	0.10674217299428677	0.044222033930537044
-0.011863809082278784	0	0	0.19811906455119035	0.06958744674778211	0	-0.03825514869090911	0.0	0.010513626001301393	-0.6812116903651119	0.15917235224227455	0.028700519608898554	0.007200913090200595
-0.1047867829741869	0	0	0.1836860509429997	-0.04304342496430567	0	-0.018584212117242815	0.0	0.01685537244300075	-0.7088304290049031	-0.18757652828697166	0.039440133965350795	-0.023855310436047446
-0.022847751803840848	0	0.015957670066022625	-0.014250588096023083	0.06418742919193494	0	0.14690746862536383	0.0	-0.025943806071855202	-0.6846206412186082	-0.1462143780592228	-0.1049880740746065	0.0
-0.0944629770208895	0	0	-0.12650286495000843	-0.041376023182390025	0	-0.02743184283778931	0.0	-0.01220424280111745	-0.6892541412556112	-0.17267994153965144	-0.09519814959475321	-0.06562445850928754
0.06064052238827938	0	0	-0.0203147098674756	0.05955210623619078	0	-0.027793258497675	0.0	-0.018431680666536374	-0.7004890291860565	-0.1693542189375681	-0.10192280026547124	0.014927752228175948
-0.013047515857469067	0	0	-0.13008149759318074	0.05572303536564904	0	0.13383163351673508	0.0	-0.020492810562071764	-0.6915145819384977	-0.17658117193938136	-0.0960614326492849	-0.05491471043864853
0.045096669757389365	0	0.011079713591220073	-0.13961858325949084	0.06110701303530829	0	-0.01211788550832511	0.0	0.02086902428706304	-0.6996037543140249	-0.16682014499735948	-0.10721220828694533	0.0
0.06797281224641984	0	0	-0.028546305241888264	-0.030551020517826488	0	-0.009167203606811317	0.0	0.01955787181820185	-0.6925524539794942	-0.1633578787580925	-0.10600129574654384	0.006215008435584532
0.056485620432586245	0	0	0.18492910172332114	0.06227215325983499	0	-0.03712357934621653	0.0	0.020865378767517193	0.6829376216999331	-0.19566363435954212	0.10711541527017301	-0.030589872920905634
0.05090185138945066	0	0	-0.13543851941987325	-0.03723025612401893	0	-0.0078341014679532	0.0	-0.013440703991320815	-0.6919240798882262	-0.1925703200085724	-0.09342097334432264	-0.013766014468491463
-0.0987921060328341	0	0	-0.131659184688203	0.05475351514589361	0	0.12637656215850418	0.0	-0.023316689956554504	0.6765025745616233	-0.1822166851008099	-0.09956601226670156	0.013458213008325988
-0.014227706591576957	0	0	0.1954371292533465	0.0558883173100071	0	-0.047903183177437574	0.0	0.02532213371261924	-0.680969401807957	-0.1812008390131255	-0.09926949242749239	-0.04592859931365116
0.0717905578566504	0	0	-0.02476848307831344	0.0657370845542892	0	-0.013976993040491164	0.0	0.03088212116280448	-0.6960207571990144	-0.20156984856096113	0.10725562883969089	0.016356428271767788
0.054312166988298355	0	0.008973050756618082	-0.14198012804482063	0.05822718633051104	0	0.1306912832574953	0.0	0.020363306108082	0.6876297962836703	-0.17555027842022858	0.10484912593468029	0.0
0.05339513925142879	0	0	-0.016060513195649457	0.052085541639973365	0	0.13739341307102174	0.0	-0.026254397414462383	-0.7192981026965839	-0.15283095416880532	-0.09385992266649003	0.02696069313065405
-0.10455473348301564	0	0	-0.13684492726147182	0.06208941230645408	0	-0.0420848576568141	0.0	0.017858196200678057	-0.6715766326873	-0.16499379152059665	-0.10595296838321343	0.09297481166237481
-0.009374833848317483	0	0	-0.019452690180698274	0.06244625487275553	0	-0.0400641526207794	0.0	0.014489133750915702	-0.6820103607239068	-0.18454917874264776	-0.09905068580730793	-0.08768881746631184
-0.09166051287097046	0	0.017393882706833747	-0.137788426624722	-0.041314543784031425	0	-0.02610116838246672	0.0	-0.011628812110443696	-0.6875151115860684	-0.18354027131797915	-0.08856160182535451	0.0
0.05885129450156117	0	0	0.18729137907359839	0.0648654258779881	0	-0.03762869716823956	0.0	0.017822491575581023	-0.7058349556569123	-0.18236969358427965	0.10279913351727707	-0.022592183083555897
-0.0952545689030156	0	0	-0.131325406163464	-0.036211571480510976	-0.005219830607711349	-0.03283673366397299	0.0	-0.022606250311228118	-0.7042884788673831	-0.17634080344463482	-0.09276919743642782	0.0
-0.011285690945769887	-0.01899365678434441	0	-0.12854981293028164	0.05608719440786071	0	-0.037307298610838584	0.0	0.010595754986990016	-0.698166000139265	-0.16273929792881256	-0.08995869960914095	0.0
0.06959509136145751	0	0	0.19396064461142434	-0.040908855184736484	0	-0.01332316758715502	0.0	0.017165424572380752	-0.700368956405802	0.20048016697344812	0.10709285622649121	0.014005850992283367
0.07597419476117807	0	0	-0.13661896085155842	0.0630011710649474	0	-0.044436535534585056	0.0	0.015543281418436462	-0.6912064832215603	-0.16050571932174315	-0.09332090581953187	0.034187896481368704
0.05102195632749468	0	-0.013552595632915394	-0.016579704754264256	0.06259175007014281	0	-0.028801095769180086	0.0	0.015856976012262058	0.7076635003021093	-0.17531052424972185	-0.09729846878917917	0.0
0.05951367780357884	0	0	-0.1361086522706437	0.06850052733332233	0	-0.042169824683310306	0.0	0.017831305726760182	-0.6840095301293604	-0.2052705641519863	0.031623718812970276	0.04992486019997301
0.07323268170667002	0	-0.010848995918558604	0.19616494404185325	0.05642986080174759	0	-0.044425021053481235	0.0	0.0	-0.7204346875358513	-0.18483755465106608	0.1069899187675383	-0.07740388042804051
-0.09283919176851296	0	0	-0.13602810728682146	-0.035978380915867414	0	-0.024989410245301245	0.0	-0.012384860821602232	-0.6913745590496209	-0.1934884700164761	-0.09475502151090752	0.03292500712491113
-0.016817385796984392	0	-0.01069406531268135	0.18451656094383911	-0.04046473663897662	0	-0.011840157909341278	0.0	-0.008376958874623109	0.7050572681510514	-0.19099275354117137	-0.09438474586637151	0.0
0.050654458473655704	0	0	0.1935254283591411	-0.043529628781142485	0	-0.021546698762008196	0.0	-0.020605377697509947	0.6907087212798626	-0.17922704172913362	-0.09469742733134215	0.017345192948205464
-0.09973081737042055	-0.011295809323198562	0	-0.13606733027271045	-0.04260892989714411	0	-0.02031047021753294	0.0	0.011004744719592617	-0.6918715914916673	-0.21324972035004972	0.01767497662150143	0.0
-0.0952676117083945	0	0	-0.024796538887504705	-0.031753158731278826	0	-0.012995999633440884	0.0	0.024215237241699248	-0.719060656059463	-0.205013201112046	-0.08921992454824255	-0.031337383866510804
-0.015319038931187624	0	0	0.05348129147390902	-0.0776592412959312	0	-0.014767764187316311	0.0	-0.013582616685602967	-0.7143677549931392	-0.19955229543851252	-0.09587251452999478	0.030509095130027964
0.0	0	0.015289265015884151	-0.1420167820279158	-0.09129421900060777	0	-0.0420545152247538	0.0	0.009693207287893751	-0.6761603911958832	-0.17370698786233185	0.10288667866089876	0.023120629837780782
