age	work-class	fnlwgt	education-num	marital-status	occupation	relationship	race	sex	capital-gain	capital-loss	hours-per-week	native-country
-0.08125804259231433	0.012421586612725806	0	-0.003941078995302393	0.0399352586456589	0	0	0.0	0.004325693234720592	-0.6772077494261266	-0.0495714543048532	-0.057614257675549306	-0.009869591723444279
0.04013181770444184	-0.007073554914092246	0	-0.05145251468012002	0.04886528036062472	0	0.025682137510074466	0.0	0.0	-0.6728041950500971	-0.05027268614121646	-0.0506226301086817	0.024617755748446365
0.015171056200410146	0.009904156390808614	0	0.0726956320861119	0.04845985069243998	0	-0.006243621152407137	0.0	0.0	-0.673117070124659	-0.056360478859267926	0.05397492106135969	-0.035880065864363826
0.013743399943535723	0.005130529093607164	0	0.07016938687006428	-0.041983512856312806	0	0	0.0	0.004281842264056556	-0.6649346433500054	-0.0654019293776355	-0.05995753981861481	0.02413929080986394
0.016376004459360022	-0.012262745580684166	0	-0.008383002568867084	0.04633635713275752	0	-0.011249114692033175	0.0	0.0	0.6920591100898819	-0.06387255617708991	0.05165632156532327	0.007578943182628492
0.03722084413768256	0.005922720686862905	0	0.07729273847192497	0.04514492600141624	-0.010795560821559315	0	0.0	0.0	-0.660620673883546	-0.05339754489191163	0.056005568627982824	0.03892495179918038
0.03333066725706373	0.0	0	-0.05126454041819419	0.05297931547713316	-0.004968610352408028	-0.009328989553572052	0.0	0.0	0.6888231002670837	-0.04100128036983625	0.047932820088659484	0.04434732799569148
-0.07731437565087372	0.006130547011658649	0	-0.05097665069212706	-0.04031508777410576	0	0	0.0	-0.004837917363488415	-0.6666394944975604	-0.03981877813623242	-0.0555105319769524	0.06809009151772648
0.030025355011819414	0.0	0	-0.004537011301936612	0.04440100454127971	0.013170172336592689	0	0.0	0.004383643385923356	-0.6850872285389582	-0.05070166791562675	-0.055323569863691656	-0.08827535836854655
0.03635970620490606	0.0	-0.008147528332018652	-0.047728496251514714	0.04785006865970213	0	-0.009092338139033812	0.0	0.0	0.6782231765847159	-0.06151100382528962	-0.056944528589879945	0.02332392799408938
0.03586087593285245	-0.007570358343357031	0	0.0762046098224745	-0.04379013253369631	0.013932949164385963	0	0.0	0.006878369693902145	-0.6971514033693159	-0.07683357411064058	0.028085861092889432	0.0
0.005371267355148536	0.011015273208755946	0	-0.04992026864654634	0.050355150082165456	0	-0.005489006856439303	0.0	0.0	-0.6761954813743811	-0.04581257496145201	-0.04934200622639929	-0.004478443258876961
0.03594452202607051	0.0	0.010514949976600362	0.07303045656997245	-0.03476426181982129	-0.010721144145750146	0	0.0	0.0	-0.6568591464087009	-0.05297358118214073	-0.05511225017264894	-0.010780027106414987
0.04388758522469712	0.0	0	-0.05421081219282226	0.046496155200350525	-0.010365477396210049	0.03208766718802031	0.0	0.0	-0.6658416358764803	-0.05861571636759804	0.03382454179398211	0.03024911652508287
0.010880089856023225	0.0	0	-0.004026468344218472	0.04654017800916143	-0.0049682533569174025	0.02243860063477741	0.0	0.0	-0.6726732272178592	-0.036244656260178025	-0.05608559884903929	0.02168106886339408
0.04079618863202424	0.0	0.005003950733856685	-0.04499810326157612	-0.028142568604983285	0	0.030856597712734662	0.0	0.0	-0.6428350321387102	-0.0452417089967814	-0.04887113852649954	-0.06301062273524337
0.04765988025337116	0.01285630142087131	0.0015215635029289713	0.0	0.05416464639076655	-0.002900131638917632	-0.010418860001333598	0.0	0.0	0.6603777617702931	-0.0520912934066695	0.0551826114366046	0.0
0.036880496721988176	-0.010996081678940693	0	0.07320445257825099	0.04543348688218453	0	-0.01005093347891455	0.0	0.0	-0.6751199386337939	-0.03906360854763602	-0.05686986305665464	0.015044344134407712
0.04680907613185004	0.01042210093148064	0	0.008928284398981816	0.04926534243050452	0	0.030864206328288582	0.0	0.0	0.6794625191183679	-0.05944416015807323	-0.057328945361674884	0.006603682130545176
0.01444431477016241	-0.009487347494366897	0	0.06937736510965221	0.04816626424080738	0	0.03177355233484844	0.0	0.0	-0.6608519212073535	-0.053411497973064256	-0.0614678963107344	-0.012002485303290936
0.045079877810943074	0.0	0.005429773811362582	-0.05216949061779909	0.0471988025282879	0	-0.008141555623806281	0.0	0.0	-0.6800295769591328	-0.061788176031257476	-0.05018818847481064	-0.0029043533127527644
0.0	-0.007031839569022634	0	-0.05286399533221256	0.04147752200619355	0.021376853862919196	-0.006946919650765101	0.0	0.0	-0.6846513660108968	-0.05651596205621563	-0.05691060895809572	0.04509275921905937
0.03548814420648699	0.0	0	0.07643775947519255	0.04636509670530887	0.017291967684661926	0.040259425615824775	0.0	0.0	-0.6671197350513762	-0.04011477975774032	-0.057014692967784525	-0.02439085240154321
-0.07412868365853596	0.010004410521114707	0	-0.049666026005172954	-0.04321401546349409	0	-0.01034082610691437	0.0	0.0	-0.6499586647942258	-0.04057956067297992	-0.053840081366279095	0.10083480325524466
0.016793831866363625	0.004049800955313705	0	0.0	0.048071049022960874	-0.006218364406421026	-0.003695210443005109	0.0	0.0	-0.6719041820870014	-0.058031318244933024	0.05380875223344773	0.008748427612487215
0.013084764688946107	0.006820380991654821	0	0.06310497904159836	-0.04076137984716151	-0.006744916642621123	0	0.0	0.0	-0.6803340861898171	-0.03734173875002855	-0.05223568514115308	0.006282021184142736
0.034880602812659645	0.010375242835370602	0	-0.04961253659596852	-0.04107933668183234	0	0.03467906139839042	0.0	0.0	-0.69809500251916	-0.047247459980186694	-0.05297537825930161	0.028871764388895122
0.01430878582262343	0.008099830314795373	0	0.06341484556404862	-0.04634511231133271	-0.007446239382243072	0.03231294075743803	0.0	0.0	-0.6834309495649338	-0.03809214406028072	-0.05590402395529806	0.0
0.008937179635309886	0.009842597978260549	0	-0.004545693190710357	-0.04117217266807577	-0.010270251540658804	0	0.0	0.0	-0.6808377592893058	-0.04203219437276514	0.05622249872149633	0.005370855307081264
-0.08049702119257247	0.0	0	-0.05283290616476425	-0.039272450683765996	0.016472442157006252	-0.008188994150720073	0.0	0.0	-0.7007412408900277	-0.05962237103600511	-0.058059526292830455	-0.017651907970057987
0.03489539081510342	0.0065601505739036935	0.008097843885898062	-0.0502184002724072	0.044292721760853734	0	-0.008277253043061306	0.0	0.0	0.6585884857264988	-0.04819992725762051	-0.056519377134758526	0.0
0.013158911228158923	0.0	0	-0.011060572069160899	0.05022800636352899	0	-0.009103764094350743	0.0	0.0038177736841623314	-0.6917372298490544	-0.06384112034924526	-0.05301168439456799	-0.058270430170257466
-0.08187863331327395	0.0	0	-0.048521788823673875	-0.04031758239686547	0.017565125440625464	-0.006744979008977592	0.0	0.0	-0.6723453701260517	-0.03096897010050634	-0.05196764240757326	0.014711851791770134
-0.07875542468395438	0.011228831029938189	0	-0.04700251218175419	-0.024531054670330354	0	0.032086499551567546	0.0	0.0	-0.6514927149614829	-0.07085667056523613	-0.04877955674953987	-0.047378268029713726
-0.0822281896929057	0.014473419402864892	0	0.06628857864010917	-0.04056179443446689	0.003954229118250605	0	0.0	0.0	-0.6435250594800661	-0.05217857425788937	-0.05774341455045644	-0.008948398366806318
0.010681745132017473	0.007306801522998514	0	0.07784151190165291	0.05059222009437864	0	-0.01226985340464164	0.0	0.0	-0.6791293617155549	0.04855332237308156	-0.05535350505812771	-0.007926626707270007
-0.07588112780600569	0.0	0	-0.04629739729396811	-0.037923730857682345	-0.00747146665696577	-0.0075264068179957365	0.0	0.0	-0.6543027975200036	-0.042530036157948904	-0.05399283168650746	-0.01037203308007642
0.009249927982246107	0.00722516598132275	0	0.009175334322183709	-0.03880116823283852	0	-0.006800889290110323	0.0	0.0	-0.6821809144901274	-0.04377072073828546	-0.05327766551434985	0.009642446688300067
-0.07831962170190458	0.0	0.0055874432715376	0.0	-0.031541272887052815	-0.004908053546146686	-0.009086347491709687	0.0	0.0	-0.6562670985610812	-0.03904304065000254	-0.056178987191355355	-0.008448971935828437
0.03662930974703492	0.006016945174458821	0	-0.048497464826970337	0.047933389537560545	-0.01019467477141708	0	0.0	0.0	-0.6895238036409033	-0.061465927492544724	-0.058159383867486876	0.021642194624525667
0.012534128174622829	0.005465205664371748	0	-0.0027923404140220965	0.047354336019416556	-0.010961950984042308	0	0.0	0.0	-0.6622151974844991	-0.047263054602407116	-0.04816216745044197	-0.055430510244334846
0.04049541894956708	0.006600022763259598	-0.004724644645397852	0.011492106339090678	0.04913787584307019	0	0.02585145173411436	0.0	0.0	-0.6548997673160686	-0.047800293769538496	-0.052669866670353276	0.0
0.0477189809194009	0.013913670581400016	0	0.07028045979252387	0.04515826735998599	-0.004555007185348285	-0.005896424027085724	0.0	0.0	0.6975911192600115	-0.040580333050253416	0.050461397206653304	0.01221439457682175
0.033198202441880646	0.0	0	-0.05014115342360592	-0.02091996757796812	-0.008582252660256924	0.026971817292279193	0.0	0.0	-0.6672382321517619	-0.04543560846887697	-0.05702499351582378	-0.05121088169935239
0.043809035577892674	0.0	0	-0.008851303907982123	0.04471995711018007	0.019652633639339716	-0.01286806572446825	0.0	0.0	-0.6614557896686933	-0.04184862749149796	0.0574743663130773	-0.027596082604031374
0.04062589878045124	0.0	0.0045579326740377325	-0.05342060062549343	0.04870591771093965	-0.011583578041644711	-0.011652220234005393	0.0	0.0	-0.6766176452628853	-0.048887301870361416	-0.05131978859032779	0.0
0.041818529348949585	0.0064487519306645385	0	-0.05178040963107248	0.0450861670423052	0	-0.00576783127399155	0.0	0.0	-0.6589985721453041	-0.04040119230434583	0.05058257203618951	-0.007760008257658792
-0.0780166059792283	0.0	0	-0.043206512888899075	-0.042053323948069536	-0.01507605098936875	0.029014258468400937	0.0	0.0	-0.6383946137688994	-0.044166565868033435	-0.052342909152145047	0.02169205315801882
0.03131976515157326	0.01780772512892059	0	-0.053507093975829374	0.04477132264831656	0	-0.007564163337502119	0.0	0.0	-0.6591547400509634	-0.05789527407703452	0.05788056908760634	-0.007944153815777353
0.04446736487178895	0.0	-0.0023065519183257605	-0.054340523159683754	0.04847604035383244	0	-0.01461066771835733	0.0	0.0	-0.6561383530386207	-0.06491540280638822	-0.05686277517356424	-0.029969167862052528
0.03791493709064034	0.0	-0.004120025659256774	-0.05292773044090938	0.04706579092447018	0	-0.005259748563271728	0.0	0.0	-0.6592189951633799	-0.050735304631418544	-0.05847887592222163	0.006296929203867538
-0.0806859265441981	-0.0036053258694015715	0	-0.005163185731007064	-0.042091621645753544	0	-0.013450672126634327	0.0	0.0	-0.670990168939762	-0.05835373218197534	-0.05744573540477102	-0.01509326682990186
0.04832574983299659	0.01096358956601678	0	-0.008453989847893941	0.050682283939089	0.024653373897865424	0	0.0	0.0	0.674310005996096	-0.044911655401865404	0.047436030009894554	-0.013601353336884472
-0.07342191021395333	0.0	0	-0.047864710110076425	0.050543750273865075	-0.004106295118815057	-0.004429056114100206	0.0	0.0	-0.6525855288919892	-0.056581457242557795	-0.05089628511083133	-0.028208059390837696
-0.08107554050573776	0.008743852153725641	0	0.06761414424947927	-0.04451033754048041	0	-0.004748639701882779	0.0	0.0	-0.670526251253019	-0.05089327978298026	0.05309965886587986	-0.00776487942303891
0.0335847325020562	0.0024133737588811705	0	-0.044837711413718596	-0.03199019343969018	0.01999446244609208	0	0.0	0.0	-0.6704795493534994	-0.05879359732116038	-0.049883386424187125	-0.04133867007561996
0.011468348675601061	0.0	0	-0.04810346755947292	0.043545305541113015	0.013858806368706005	-0.006549292160547381	0.0	0.0	-0.6986716448256818	-0.05267191110561418	-0.04868955422392503	-0.03544871255708255
-0.0777762869194354	0.004989640818143999	0	-0.05002410754176493	-0.04788970729055736	0.014915038725498311	-0.013650401147800561	0.0	0.0	-0.6816732266743365	-0.050220760442003014	-0.05288880439493783	0.0
-0.07826246136488114	0.0	-0.005198265439106529	-0.04728588801589703	0.04362954847223143	0	-0.00892241671014108	0.0	0.0	0.6718327308994538	-0.05172472757189677	-0.05576678310899331	-0.013040006890478732
0.036762899129996564	0.011087142724145675	0	0.06954165108303552	-0.02520585501052567	-0.006383182027004804	0	0.0	0.0	-0.6407598921290211	-0.048853145146312546	0.04675676176818294	-0.003933891857106909
0.039389942987725565	0.01367384997332717	0	-0.05353108027027445	0.0483610925437677	0	0.03383851763335411	0.0	0.0	-0.6782220463149669	-0.05592824059677918	-0.05265503404032218	0.02945279693988796
0.041619271647613774	0.006125899243429419	0	-0.049736629774021344	0.03839100393557939	0	-0.009786829916843034	0.0	0.0	-0.6597882822853829	-0.04452125084564636	-0.054777313285986506	-0.0051226002506517725
-0.0831364497049848	0.0	0	0.07247459690763154	0.043696748520498305	0.018938653956355085	-0.011433789722873426	0.0	0.0	-0.6885382792248658	-0.04215388678644747	-0.05429975116899913	0.00858901764256989
-0.07766935152260432	-0.007525795486932702	0	0.06788379051558367	0.04930733928570942	0.01917662627055536	0	0.0	0.0	-0.6664730007322911	-0.06391138116058893	-0.05781282354533882	-0.04395613015833317
0.011915291563049244	-0.0040021455070964156	0	0.06760276060768454	-0.046955655961481456	0	-0.005647918049838128	0.0	0.0	-0.6668627137445863	-0.052637740001337946	-0.06156408796820299	0.010204621565266777
0.031095243066374508	0.008231731746192794	-0.007489239609995834	0.0	-0.03569397164105333	0	0.020852822353503758	0.0	0.0	-0.6717792452851886	-0.07173053521162336	-0.05925047574305658	-0.06462243318793981
0.03720953244566915	-0.008753413415245631	0	-0.05114862056097784	0.04165817422172154	0.004695409537196584	-0.009203080503098494	0.0	0.0	0.6610493078054085	-0.06006232281367217	-0.05609358924553865	0.0
-0.07180748615675736	0.0	0	-0.05513211772520336	-0.043608889889839846	0.014315463309201866	-0.0038087949027542636	0.0	0.0	-0.653268943274626	-0.05846926331288041	-0.05243251316154902	0.061305462713664896
0.041783587553554435	0.0	0.007521397464366932	0.06895658985525792	-0.041842880426950765	-0.012225542549289042	0	0.0	0.0	-0.6942782523850511	-0.04371904834838761	0.05267902957379618	0.0938009154578545
0.007398681075157795	0.011032791947670179	0.005441330481093986	0.0	0.048370362033261574	-0.007363242208852908	-0.008842808294967955	0.0	0.0	-0.660899601625989	-0.06488565464153635	-0.05941328050279144	0.03133192726257756
0.03690709902561962	0.0	0	-0.05262753006484782	0.04278394986897646	0.012832406901799893	-0.01586289674630222	0.0	0.0	-0.6498054968801662	-0.05953506812922468	-0.05597303387186204	-0.008179022767779308
-0.0801642770735727	0.0	-0.005074853268948223	-0.05071474067451079	-0.0454936577738587	0.01840392141654613	0	0.0	0.0	-0.6786000979840261	-0.044997165893843324	-0.05393649738486343	-0.016358135674023482
-0.07886085314388164	0.008081584626604197	0	-0.04192577923164492	-0.04179686968520403	0	-0.003225827179289154	0.0	0.0	-0.6687025875896213	-0.05341254116010172	-0.050423273162723804	-0.0028639445521461584
0.008932171302826268	0.006131502100694782	0	0.06943127651634043	0.04414080512502771	0	-0.007002464210819472	0.0	0.0	-0.6648901437430683	-0.06305011725203077	-0.05674576767437002	0.03065790708906275
-0.08267118614897996	0.0	0	0.06603279122223094	-0.03632892741110828	-0.011038621881637376	-0.0047758629635560445	0.0	0.0	-0.6615143879241503	-0.048246886598774755	-0.05313864084133528	-0.03981025062177197
0.04149932121487432	0.004027939622999331	0	-0.059012250818420355	0.051600168864170105	0	-0.014600412946642336	0.0	0.0	-0.6830028049983434	-0.08373337461570214	-0.05676483424559009	-0.03517453291417623
0.04296072697714787	0.0097643616307117	0	-0.004422070305163485	0.04724155834788701	0	0.03476628247102125	0.0	0.0	-0.6721482918221341	-0.07362240648418616	-0.054727468467329586	-0.014025699123797286
0.02969045079394289	0.010310798818150146	0	0.0	-0.04368560288609617	0	-0.004394925478179152	0.0	-0.006186316287203588	-0.6700350932984958	-0.04161109965092155	-0.06018291118834008	0.042090969353039916
0.030363160421596803	0.019483781094350613	0	-0.048583934092687735	0.04461240429306422	0	-0.007761755731153638	0.0	0.0	-0.6614402635542488	-0.07228179746071252	-0.05718222266316015	0.010480581717630848
-0.07674626115213365	0.0045825007983427354	0	-0.050120583436012965	-0.04043765319403569	-0.007283709761336402	0	0.0	0.0	-0.687637069034896	-0.04821010487107709	-0.04924785363516408	-0.0459192279956486
0.012204231619971641	0.006586379667195101	0	0.070546460615108	-0.04973081390867462	-0.009384205910136376	0.032590195512284544	0.0	0.0	0.6832110965378223	-0.058138419587560344	0.050413947613264225	0.0
0.0	0.009470045816043285	0	0.06606080793766923	-0.04537208780417128	-0.006685424310455473	-0.00981641033622382	0.0	0.0	-0.6784445145903527	-0.07383916042942644	-0.05425538383575187	-0.013459118321319642
0.008062784866763829	0.007153206883241702	0	0.008457664771446185	0.04844630750062395	0	-0.010135600804266173	0.0	0.0	0.6755197693336198	-0.06724195941008979	-0.05986424783374391	-0.05345099783992286
0.04502691914286528	0.008839879180489485	0	0.07175767041901684	0.050816908165535274	0	-0.008519805173606572	0.0	0.0	-0.6698036368792961	0.062685123471815	-0.05073831338210628	0.013421025178183846
0.01768932344262522	0.0	0	0.07122095221561152	-0.04364183557295219	-0.009488947030179757	-0.007187642760500885	0.0	0.0	-0.6828996938492734	-0.060255825356215834	-0.057806793838916445	0.026575126766629778
0.03210665445037935	0.0	0	-0.047112434484593464	-0.04119121897967135	-0.008784720938941172	-0.0029597537521045747	0.0	0.0	-0.6590664330479932	-0.0442644442676934	-0.05125347266439974	0.022273798399055522
0.013603541689779154	0.004321657863155785	0	0.0	0.04768509686939104	-0.007681942489981058	0.03253238122352924	0.0	0.0	-0.6494436206326978	-0.05637006847865714	-0.05133024689835534	0.0049257598663085675
0.04203685479099602	0.005947200706954229	0	0.08042112098757886	0.05424652179895048	0.024084345135119402	0	0.0	0.0	0.6366047636935179	-0.061465832351944624	-0.05262992537589731	0.031849190366412976
0.04136535423335163	0.0	0	-0.051260445366555	0.05056520505790397	0.021839538401500724	-0.008731435966284362	0.0	0.0	-0.6825396906998664	-0.0451940527205512	-0.05312778485998115	-0.02213858374368458
-0.07837344722644633	0.00976798639863387	0	-0.05447063186596023	0.04527639536279828	0	0.034812424836111695	0.0	0.0	-0.6602516083899103	-0.04189451568813527	-0.04598308301040512	0.02276238381995643
0.025280730298778815	0.0	0	-0.05307776822551763	0.05129202162522178	0.014560875869540649	-0.008445228683692046	0.0	0.0	-0.6633276169839892	-0.04204266440147303	0.03753661037351276	0.007475646697180663
-0.07924145466195819	0.0	0	-0.05019094053231721	0.04315451271520398	-0.006417742284707732	0.022370095541936818	0.0	0.0	-0.6604056999951526	-0.049854215742188665	-0.06005766595820892	-0.04081978139802677
-0.08136447431468659	0.014942546343487764	0	-0.008290881111397851	-0.0415800504434558	-0.009498115090098902	0	0.0	0.0	-0.6756985860202313	-0.03773412602904399	-0.05349751836619696	-0.0331018218251822
0.00778269617415605	0.0	0	-0.04703459835299317	0.046038917714359834	0.01492798642856666	-0.007139425321540993	0.0	0.0	-0.6639226771268392	-0.06619243838513734	-0.05671768393430277	0.013439930951313222
0.035382052701893936	0.013732748048378037	0	0.0	-0.04107097942238702	0.025353367010031453	0.028050919609440495	0.0	0.003849716087733284	-0.6662691634987005	0.06421553390627471	-0.051209015105402135	0.0
-0.07337657308065303	0.0	0	-0.044943702014327964	-0.042725991839968634	-0.0056510056183048975	0	0.0	-0.0033909270220798754	-0.6932035724894422	-0.05289121366676676	-0.050923647962614435	-0.03002280460863047
0.028551415444892994	0.004773910624530277	0	-0.04335046746585569	-0.034874051752868264	-0.004522698163501768	0	0.0	0.0	-0.6741921500348985	-0.045576520459611115	-0.054776684910272246	-0.007297613029344095
0.01116174344448475	0.007355128190613009	-0.007871782263457902	0.0	0.04156494411442544	0	-0.006966098974378255	0.0	0.0	-0.7003101143438873	-0.05007138368005716	-0.05198450048969848	-0.018351856683437907
-0.0825298247775438	0.009429450162703567	0	0.0	0.04454922834236003	0	-0.0047039741569017465	0.0	0.003333522548112854	-0.6856175117811416	-0.05397929361629996	-0.0532711084246934	0.04181242006541436
-0.08062101698406819	0.009946513339117908	0	-0.047409659671167205	-0.045033959787548386	-0.005768811948014806	0	0.0	0.0	-0.6703119103145271	-0.04714187210176504	-0.058117894557909104	-0.02965936987745025
0.04788840124616387	0.0	0	0.0700430941740398	0.0528778099689983	-0.011677040918100361	-0.01033642456274823	0.0	0.0	0.6802244404229002	-0.0727701931799751	0.058135020646346146	0.0392595591319505
0.008286371527464613	0.008477882752791415	0	-0.046438460936209486	0.05216439588953314	0	-0.007983784336430788	0.0	0.0	-0.6638857553734224	-0.05534275153709499	-0.05175037854368192	0.019732191329284447
0.04300290585488429	0.0075693612322026895	0	-0.05253877362798749	0.05221033162675946	0.020112386495103537	0	0.0	0.0	-0.6632735249446823	-0.07875675449440825	-0.06357675067169528	-0.01374528751053882
-0.08230175287353189	0.007075087072282878	0	-0.04386263185532775	-0.042552988705311955	0	-0.007416054186002547	0.0	0.0	-0.6807597659118	-0.06500551894592098	-0.05584561777197354	-0.035181322491306954
0.03869451049618493	-0.004396096980569866	0	-0.005319110736453136	0.050114347956014466	0	-0.010064120584651386	0.0	0.0	-0.6651136642010691	-0.05600800446463015	0.05549862414548145	0.010223580305053478
0.03868462487966296	0.0028613594109386784	0.0039250769604274	-0.04815755054150818	0.044847592733570994	0	-0.003962245646515969	0.0	0.0	-0.7024348402324485	-0.06667602498841776	-0.04931255916357905	0.0
0.043705082417757814	0.0	0	0.07109493805367217	0.049425601872831765	0.02862190279976246	0.02583006093500637	0.0	0.0	-0.6505134391885414	-0.05340469859915725	-0.058610907369286425	-0.011576386078282546
0.04131023756064522	0.0	0	0.06933450360907409	0.04663476741310435	0.01804861016519499	-0.007205406471966305	0.0	0.0	-0.6692266445686759	-0.05726878562384082	0.05027600961910798	0.023416940562410855
0.01022589195843277	0.005071483426786339	0	0.009392704015051458	-0.04124327716121352	0	-0.0025417746544465097	0.0	0.0	-0.6933625154965014	-0.05424642274964609	-0.05196973787497688	-0.0018829443580141616
0.031991251663258106	0.0	0	0.07503184514494698	0.04777281370292817	-0.005575615746175767	-0.009008593281303165	0.0	0.0	-0.6486574631433538	-0.05836422492703046	0.05489209685939455	-0.01678332625428129
0.012620045690243567	-0.003471560415001972	0	0.07198439335323378	-0.04253008027632752	-0.009980531039880936	0	0.0	0.0	-0.6675858099447824	0.03876056994570953	0.047671585108957734	-0.005493678208708006
-0.08556295117514862	0.0	-0.004199261763655481	-0.04706721235920631	-0.04405212007553993	0.020509411104659717	-0.011071195232661198	0.0	0.0	-0.6731275791009039	-0.06367636013091472	-0.054402235060185516	0.0
-0.07802148397174803	0.004874905788219546	0	0.0	-0.046785995655333534	0.018801717022494994	-0.0048811554488943695	0.0	-0.005026159981891815	-0.657458058397873	-0.03608765560044416	-0.0543964028537981	0.0
0.0	0.010179710048684948	0	-0.05230159005686716	0.047093531632869876	0.01406220072428319	0	0.0	-0.0034138366665860203	-0.6750909488854866	-0.05438875028893322	-0.05270266163460557	0.03960692766635446
-0.08060884313272507	0.0	0	-0.04704237072681704	0.04560129683090709	-0.017453879979106503	0.028339772119455518	0.0	0.0	-0.6466261031126813	-0.05890897838889599	-0.05474818085728452	-0.0708527786868371
-0.08094332856283733	0.01023360303005241	0	-0.049190742725669125	-0.03973594110340847	0	0	0.0	0.005139442013274499	-0.6730354384600287	-0.050043763903287436	-0.05558405563146832	0.005888213819380092
0.04370762555864965	0.0	0	0.07481857911309556	0.04668569919304543	-0.012595089154326814	-0.010392046313683354	0.0	0.0	0.6672294797890697	-0.04797349454502447	-0.05618511774650728	-0.014180961495008467
0.04262259444303092	0.003807505894688898	0	0.0679687724173068	-0.04398538205031688	0	-0.009255461424466859	0.0	0.0	-0.6820474500834477	-0.05865048526847222	-0.05983119393047394	-0.04056533563323558
-0.07927197516613592	0.004425948659475178	0	-0.05080069692702134	0.050242716485536326	0	0.027476913165147412	0.0	0.0	-0.6514667544076086	-0.04420220505034735	-0.05504525632795953	-0.040116159969804104
-0.07907869691338443	0.005719369092996125	0	0.06571308803114771	-0.04291779374529938	0.019214909858953445	0	0.0	0.0	-0.6667741182973832	-0.05713484753089028	-0.05333352322247713	-0.026148956579879087
0.015040607032783867	0.009156030620124015	0	-0.008919529954146596	-0.043940421472259954	0	-0.005586822670664994	0.0	0.0	-0.6496646216571098	-0.057583984017850844	0.04007763365485511	-0.06332706546775073
0.037791894277021586	0.00839741907043654	0	-0.048809178347669714	0.048491773642848054	0.017245167526286423	0	0.0	0.0	0.6784674420509788	-0.06546856335433843	-0.053071782287157046	-0.034674413706327456
0.03542913508407409	0.0	0	-0.052198910438924315	0.04943288514085686	-0.00972197526620687	0.024362978244860806	0.0	0.0	-0.6754657169324705	-0.053139327346434194	-0.05301130349838375	0.014575155493649806
0.04481227931395327	0.0	-0.0027355974963414265	-0.04846451195816855	0.0461504574230794	0	-0.00919723078555338	0.0	0.0	-0.681415282568128	-0.05356874065240447	-0.05114856572861535	-0.013808665254330978
-0.0780291866624477	0.008623284654952672	0	0.0	-0.0392333934464453	-0.00886223877539638	0.03014039975316106	0.0	0.0	-0.6819925863012759	-0.06171543049034592	-0.05498148011951368	-0.017074981828332676
0.032488201250135865	0.008416774696084206	0	-0.04423247123858546	-0.028405935438908885	0.014218734550173836	0	0.0	0.0	-0.6495121042984409	-0.06807290637918668	-0.05321783003000181	0.036124867049086684
0.04622083616680487	0.011674360775049828	0	0.06880714678654669	0.04587321607302907	0	-0.01114387114623147	0.0	0.0	-0.6538526656106344	0.04961493482724967	0.05449862360751286	-0.026168131245317163
0.00667151173193399	0.0	0	0.07055497581344662	-0.043746778247745505	0	-0.0038763554103274727	0.0	0.004934017514130668	-0.660377546411086	-0.06295085469728404	-0.0606223151952356	-0.018289039219668894
0.04398089197276439	0.00726373319170137	0	0.06395284817288252	0.04881796841447846	-0.007719656021869607	0	0.0	0.0	-0.6578320939804073	-0.053427363173616446	0.05244165461974497	0.0076504055203690064
0.040596931754741584	0.0	0	0.07317250244936611	0.048332927168296215	0.019363219775996053	-0.012375625377154082	0.0	0.0	-0.6578630966873142	-0.04044371037376019	0.053385561872428156	-0.017896871404990636
0.010570147884510613	-0.006774798401036702	0	-0.04784937755360977	0.04946047045806868	0	-0.008482197401310171	0.0	0.0	-0.6796070684472237	0.05562732024465078	0.051608689715820555	-0.008822188168621284
0.04062127820096117	0.010507660717637885	0	-0.005329074951429707	0.047498850295432916	0	-0.015472798002656102	0.0	0.0	-0.6852642729514481	-0.06443162215709965	-0.05524519550027157	0.025073618560775123
0.030091105611691604	0.008823252468772082	0	0.07417763020220308	0.05615593683067339	-0.009466327813837008	-0.006704555566093256	0.0	0.0	-0.6559028660899242	0.07769753634056696	-0.05501281410358648	0.0
0.010836515208374685	0.008904057628828939	-0.004439730270104794	0.0	0.05236034669247777	0.0198153931691785	0	0.0	0.0	-0.6384249701276761	-0.055790965518316284	-0.05731572376191799	-0.06003724553929301
0.03929728218985729	0.0	0	-0.052133332133741536	-0.043308022185017774	0.017280643930100613	-0.007534769942473844	0.0	0.0	-0.6562343668684186	-0.05448036241058027	-0.05475161693304541	-0.011780005664365453
0.03214760082058105	0.013456404376629812	0	-0.05361744465821543	0.04494772830557438	0	-0.007602299909684643	0.0	0.0	-0.6650696603914157	-0.029848462961183653	-0.05836091181419328	-0.016066776369743473
0.04529181414194656	0.0	0	-0.05269756515558997	-0.020210924575197534	0.019927376004598353	0.03450631997964839	0.0	0.0	-0.652841395865991	-0.060615297867231924	-0.05603343507945495	0.06620256533072881
0.0361467184311665	0.0030418565184855105	0	-0.005671021273538051	0.05127499117630846	-0.006366628350665603	0	0.0	0.00296127078758816	-0.6475057448119816	-0.06049911583425185	-0.05640886106608019	0.0
0.04748269783587264	0.0	0	0.07191470217716461	0.04792610353604701	-0.009111626691240675	-0.01281442076201648	0.0	0.0	-0.6790055369245248	-0.042933458781753184	0.0550214640115203	-0.030245504017264262
-0.07807347394617259	-0.007829406896508458	-0.007063757189693824	-0.049169367430717245	-0.043311064542260753	-0.012888050814809685	0	0.0	0.0	-0.647089165009805	-0.062267974862500027	-0.051033719825286754	0.0
0.03636143857687883	0.008235179822394667	0	0.06623944465912568	0.04451474410462051	0	-0.009107384992596812	0.0	0.0	-0.6866909843298159	-0.06581058952240727	-0.05618262190290565	-0.03149210502194467
-0.08065636463799374	0.007591228024614814	0	0.0	-0.04501415553819879	-0.008596624343714068	0.00429627143368137	0.0	0.0	-0.6485588171593444	-0.04976559782457757	-0.05468488987156495	0.0073525519367163795
0.0435490952715944	0.0	0	0.06926998843616677	-0.028547944148288207	-0.009916617988504925	0.02501441704459429	0.0	0.0	-0.6646202899891934	-0.05345381027239099	-0.05531767971092499	-0.030265691223673976
0.02972745347406639	0.0	0.005899228441489132	-0.0510274580107907	0.04448903212289949	0	-0.010822628965991812	0.0	0.0	-0.6809240998326324	-0.05406354118589309	-0.05677358907698436	-0.04169431003120403
0.00968134821590305	-0.008051533537070827	0	0.07024899191265295	0.04543116221406594	0	0	0.0	-0.007723754177491941	-0.6954064656407979	0.05090431085815884	-0.052660979485382814	-0.010524856148082106
0.041989339139865314	0.010753756646723282	0	0.0719036531453283	0.050218201636091205	-0.010378351158062118	0.028903940997022332	0.0	0.0	-0.6601807273049104	-0.05032055570042881	0.05507313924080657	0.0
0.03380917977439049	0.0	0	-0.05312445316891278	0.045936440512811254	-0.005816839464439059	-0.0055413527372163715	0.0	0.0	-0.6880656720465634	-0.04757939843454416	0.04843463178035257	0.057402546325066944
0.03190076164474752	0.0	0	-0.04930379059937974	-0.024721609650118933	0.01260039930115707	-0.009162356601890517	0.0	0.0	-0.6681184197387046	0.04753364593396194	-0.05529902119356744	0.06217200875177395
0.04290353553609755	0.009203815810977276	0	-0.047233791307825346	0.04641537177747729	-0.008679039943368987	0	0.0	0.0	-0.6605000682588059	-0.047733061282264816	-0.04837686647845655	0.026340907594234155
0.03592971438600176	0.0	0	0.07588623934446916	0.04404702933525553	-0.004481853210308275	-0.008041453938465077	0.0	0.0	-0.6881837362634263	-0.06819720543796436	0.05113771065692197	-0.021624380482522944
-0.07373615507174153	0.007731789583763025	-0.005088905419825786	0.06511736902084651	-0.04294959522763429	0	-0.00710080514055727	0.0	0.0	-0.6747091651455208	-0.045548390045750446	-0.05329117183817943	0.0
0.050454386240983466	0.0034400616079135874	0	-0.05020829543798165	0.0452932794125276	-0.005183336483648576	0	0.0	0.0	0.6982257860562907	-0.0619763322209319	0.029505318137586587	-0.03611671116026102
0.05032127159129759	0.01045274848673533	0	-0.006430260068914962	0.05025125627520161	0	-0.007403162041222681	0.0	0.0	-0.6554618146035587	-0.05033271531475343	-0.05377146123745337	0.02603872750623701
0.03334763745507145	0.0	0	-0.004141826497300144	0.046233324649431466	0.01817738230824027	-0.006660731275939908	0.0	0.0	-0.6740671802651859	-0.04778524890856675	0.048696071982125264	-0.02939392769189829
0.04409607806749989	0.014896561983148895	-0.0033317814861548683	-0.047847828819709635	0.05252061964747771	0	0.03829379718988361	0.0	0.0	-0.6464155871813457	-0.050743420318230016	0.05559956174894441	0.0
0.03401818226959929	0.0	0	0.0026643312142214113	-0.0259726504656961	-0.005241168881512605	0	0.0	-0.0022420911824861146	-0.6545093670571792	-0.064635913443428	-0.055172661571585124	-0.01648513093334369
-0.08040833703352392	0.009432250730085126	0	-0.04515906615920072	-0.042299170206702874	0	-0.004784646560505924	0.0	0.0	-0.634579669648456	-0.052484360979649064	-0.05638197214362466	0.03904221010376176
0.01627232773582948	0.0034723433756779967	0	-0.04480646203064688	-0.044703413510891826	0	0	0.0	0.0041514495998362716	-0.6590341759184575	-0.059084867873406936	-0.0478051082634805	-0.053608408478075784
0.04073845877927817	0.013899086897576034	0	-0.05530541568852571	-0.02608378766972306	0	0.02548983850919018	0.0	-0.004865676041596901	-0.6742702387596387	-0.06099677475919586	-0.05325372640371896	0.0
-0.0821595300369125	0.0	0	-0.043227253439093415	-0.03921610060902733	0.012307648045599686	-0.005893121420883646	0.0	0.0	-0.6642222944452246	-0.031120504576150603	-0.055384010887708925	-0.04437111270835881
0.01217713405224706	0.006742139759406961	0	-0.005309093085491217	-0.03957219031314228	0	-0.009243987668401475	0.0	0.0	-0.6586765803177603	-0.06870048022766162	-0.05874405185136328	0.027729122683166414
0.03877166366130525	0.011371383981755205	-0.007678328211381608	0.0	-0.03934492840578792	0	0	0.0	-0.0018927748246389787	-0.6913843253608926	-0.060378420018156014	-0.050622586208926235	0.01563963438087503
-0.07643859872646212	0.0	0.0029609643717005865	-0.005114975876504935	-0.045482167966550524	-0.006691175394380479	0	0.0	0.0	-0.6724611177377098	-0.04148944860930924	-0.05332432929831284	-0.018442746497995204
0.03737364690325774	0.0	0.004628671407183855	-0.047237765934776396	0.04552449699481095	0	0.03130472976834772	0.0	0.0	-0.6954122108059022	-0.06946364449871785	-0.054887949570503705	-0.013852848786603231
0.030940819932069916	0.012093775221292112	0	-0.0033701061287300022	0.04956134994224026	0	-0.009105682729494925	0.0	0.0	-0.6856986924289445	-0.06791513871692866	-0.052536437046086085	-0.015469123404642158
0.041579198589854885	0.004318579410381014	0.0076892322350666014	-0.008600317211667109	0.043255453115191925	-0.009435852394141284	0	0.0	0.0	-0.6948132574676903	-0.046718736931632025	0.05275940710736278	0.0
-0.07930606233583878	0.006815525536212793	0	-0.0482303451305589	-0.038532919684230345	-0.004165265296245845	0	0.0	0.0	-0.663026709544626	-0.05008817204498429	-0.054686757427625986	0.07790809582085982
0.03225477923101101	0.005898121383053871	0	-0.04755858424518971	-0.042444719772925715	0	0	0.0	-0.0017553492599599273	-0.708312349428297	-0.048397723079767294	0.045952429913910825	-0.0020091343461294186
0.03777640224166049	0.0028987493535606377	0	-0.047046289365082226	-0.043826550657290755	0	-0.004196553310782427	0.0	0.0	0.688587732551347	-0.05443080090332388	-0.05024945434435406	-0.04142652700598105
0.038745937020203514	0.0	0	0.06947679234319326	0.04790488374237006	-0.008045938531059291	-0.008136731504583467	0.0	0.0	-0.6682594072720955	-0.0443029918580124	-0.053143208290788696	-0.04459310219484311
-0.08297909595660664	0.010319476330433619	0	-0.04331381580298822	-0.0403379387737524	-0.00700538004280921	0	0.0	0.0	-0.6498096825690799	-0.05356769787342151	-0.05572383830153481	-0.013253784030616715
0.03883799396017885	0.0	0	0.07337099606170605	0.055890488468098756	-0.010669737325041525	0.029842561606320133	0.0	0.0	-0.6777819779191638	-0.05027014973107237	0.0560823068074907	-0.014222478505249781
-0.07600265559446637	0.0069990659607268154	0.005556843797510858	-0.009190169508301255	0.04492772100343941	0	0.024790620534480293	0.0	0.0	-0.6493992282871781	-0.0420077757102787	-0.052759263196405906	0.0
0.028003426160600888	0.0	0	-0.05319284283900981	0.05568167144571097	0.02112058720624718	-0.00953785659913953	0.0	0.0	-0.6449008031952159	-0.07194161952937836	0.05369509291677704	0.04971277277039905
0.046006839072376175	0.00839980254683322	0	-0.010905467703711166	0.045656769373884944	0	-0.015636363027166394	0.0	0.0	0.6414957595057521	-0.039156144797138095	0.04482154384315608	0.0022309193890072752
-0.0809310717710321	0.008233305849154169	0	0.06559105257891418	-0.04263872445457484	-0.01197576984178399	0	0.0	0.0	-0.6467908948807282	-0.06077521197140119	-0.052325033934191315	-0.00523646713313995
0.044048889569194255	0.0	0	0.07140681520902091	0.0531292811296373	-0.008037979029574994	-0.0080690796190079	0.0	0.0	0.6840537568399264	-0.05251948596227305	-0.05798932778118258	-0.04012324430272516
0.04221421437179922	0.0	0.00577330043328072	-0.004657042359618224	0.049158205535690794	0	-0.002993076700240337	0.0	0.0	0.6597994488218754	-0.07034389450607034	0.05371513386334833	0.03617148538337656
-0.07955290543817045	0.0	0	-0.0023818762578923713	-0.041694332858204085	-0.007326273145543312	0	0.0	-0.0036299577010840676	-0.6570223141694516	-0.0625053940117328	-0.05609959109670517	-0.0463577350547982
0.03305157868333373	0.013770479734090174	0	-0.057820648161655316	-0.041272594259501166	0	0	0.0	-0.004124347765747715	-0.6787112337883717	-0.07124656693973723	0.036978458434691594	-0.02256492020691699
-0.08519165498435488	-0.006313394229784852	0	0.06406303708442028	0.04957682771537977	-0.007091665767034448	0	0.0	0.0	-0.6465183457343877	-0.060518758568832876	0.04970281818380534	0.03712434302122235
0.035061131744754996	0.0	0	0.07100132778689132	0.0456132491152966	-0.013247483576034282	-0.006642485333748057	0.0	0.0	-0.6806006998724543	-0.06479062538753216	-0.05623890014918063	0.03481307523261649
-0.0801929188396793	0.00677975873520491	0	0.0	-0.04543027017547821	0.021763157721273886	-0.006751252635146368	0.0	0.0	-0.6630253730833606	-0.04545568755762307	-0.05548845397769555	0.011644719583727934
-0.07705213290787619	0.006082835375599842	0	0.0	-0.044498793899592375	0	0.03304204845779796	0.0	-0.003964054072537303	-0.6720905632279297	-0.05222917715204389	-0.05460838407668767	-0.005594565543549739
0.03377815515699394	0.009622604365402125	0	-0.053037886913844624	0.042593736885860545	0	-0.005927113146483547	0.0	0.0	-0.6697238803063403	-0.06032698151507724	-0.0597239370565613	0.007046948760787305
0.03301167003479497	-0.003537762156227514	0	-0.045893999509766456	-0.033774976405690715	-0.01392276159413663	0	0.0	-0.0037434364561600266	0.6576442507548002	-0.06042550044808848	-0.05725223058818991	0.0
0.030404065557892566	0.003297832722448903	0	-0.04738142406825284	0.04807215261466899	0	0.0178176421273122	0.0	0.0	0.683744490513377	-0.04982444559809895	-0.055005192735210144	-0.020406389455828476
-0.08118887429391336	0.008885681982576766	0	-0.005762408612225027	-0.045784045069342146	0	-0.00609360274850829	0.0	0.0	-0.671941583237336	-0.05615968836818264	-0.05566249784470986	-0.05405033558775132
0.007470462281934972	0.009874339480288692	0	0.07105638820432537	0.047337457046478626	-0.009420899846953493	0	0.0	0.0	0.6745125873309641	-0.05319786475866431	-0.05588626853251836	-0.03414564973620483
0.03540249997026738	0.005586463001479026	0	0.06449442385837803	0.046501735149811686	0	-0.006968894744072667	0.0	0.0	-0.6411248257647691	-0.061759351381045095	-0.05984958531166889	0.016561684952067664
0.04292656253935956	0.010105341069447491	0	0.06477786620258703	-0.039422365402918054	0.01787475793257032	0	0.0	0.0	-0.6893533355709411	-0.04337215411961815	-0.05927366758439018	-0.01718441201440088
-0.08718377877493237	0.009968110512792994	-0.0074440714040508804	0.0749825393424293	0.050644270842870966	0	0	0.0	0.0	0.662274672266582	-0.05083789482776518	0.05295701117589136	-0.049064614839533595
0.013537188681742786	0.008446349766869633	0	-0.041848433499335584	0.04667689417723695	-0.003171347758472186	-0.007001260187487191	0.0	0.0	-0.6835122093176483	-0.06286921504248301	-0.05403996556856109	0.0
0.013338256830985877	0.0	0	0.073408788317712	0.04567150521272689	-0.009900303383386707	-0.013700404507538597	0.0	0.0	-0.680286158678308	-0.05395242880976333	0.04715783749447416	-0.012615742609825417
0.03277998317237425	0.0	0.006734897643481697	-0.050424321232112934	0.04590386982066819	0	-0.00920795170765946	0.0	0.0	-0.6769570151345216	-0.03540935134392945	-0.053480571962410704	0.11877276852746127
-0.07916730097530146	0.006036600714161481	0.004373344915160282	-0.04740687833455494	-0.04638228674830458	0	-0.0055184122838486125	0.0	0.0	-0.6565041087814523	-0.0624199634697153	0.04633841992187504	0.0
0.0397723212270084	0.008909356856405913	0	0.0	0.04151714385332342	-0.008592835288148375	0.027929466056117323	0.0	0.0	-0.6614441303018638	-0.059663974127591266	0.054874027762179325	0.025327444947265076
0.038557509970410415	0.01218345350893904	0	0.06405251005547026	0.04648552220907652	0	0.023229152721379133	0.0	0.0	-0.6591696298524923	-0.03640834410871772	-0.05126608805282729	0.01041735021983266
-0.07798661551526449	0.0	0.004140360963677279	0.0	-0.03785979022038152	-0.006130311822091739	0.003787885658714509	0.0	0.0	-0.6647682094113165	-0.07148691181955877	-0.05242929676719492	0.006492513140228754
-0.07616075425463209	0.0	0	-0.04927930403869339	-0.04480929077772408	0.02234167758260744	-0.009967096602563914	0.0	0.0	-0.6544133536265166	-0.04900269897609189	0.05065594663363566	0.008330806797958949
0.033786227188315816	0.0	0	-0.04811707034529264	0.044617879406808225	-0.007279901618892044	-0.011067914612143693	0.0	0.0	-0.6925003079485085	-0.05138032018090173	-0.0547229591510426	-0.011477816387536036
-0.08301247260582306	0.0	0	0.07122369760147415	-0.0450697192982207	0.010747420684940969	-0.007507156608478159	0.0	0.0	-0.662614888491368	-0.0620156628095689	-0.05361464044351829	0.008492966883866956
0.03509745825444984	0.0	0	0.0	0.04764610107232316	-0.0056886368761064855	-0.013449704665749823	0.0	-0.003940389281298528	-0.6865344372735864	-0.04847539070479812	0.03906190270510422	-0.017236275023441126
0.029650512453611687	0.0	0	0.06902134326121785	0.04482273999877855	-0.010426866248583239	-0.005959143632630198	0.0	0.0	0.701004887906615	-0.05107977890179085	-0.054571395725015834	0.028718277770429516
0.042594380333380366	0.0	0	0.08013619615428125	0.046207102271136495	-0.004218102539280818	0	0.0	-0.00696831231124856	-0.6853925634664525	0.05484811103213115	0.05177593365499616	0.014940277986798983
-0.07903727058951646	0.004514654929174953	-0.00802635030555722	0.0	-0.04192657978576325	0	-0.009677195073184229	0.0	0.0	-0.6487996654938681	-0.07589527073875565	-0.05276041731170706	0.04706881402870718
0.04299367597357584	0.0	0	-0.04984760474510554	0.04617265205420326	-0.005999682590917187	-0.015966268400443205	0.0	0.0	-0.665824334097482	-0.055419366613121426	-0.0512692233446623	0.02089932418397223
-0.07817507696523132	0.0	0	-0.04976449134017907	0.046366758751832604	0	0.02824982239013062	0.0	0.005212074238304378	-0.6727316248215237	-0.04396740009861886	-0.05189950880845591	-0.013030666409643702
0.042938855469594424	0.0024115706514951994	0	-0.052841500416118174	0.047815894443066574	-0.0033325992082715306	-0.007014753012017883	0.0	0.0	-0.6911292976416211	-0.044607535864414634	-0.053480529823774145	0.0
0.03449255815582363	-0.008379650598174476	0.0028441381778195533	-0.05294153077169768	0.0458064830256675	-0.004611875576654554	0	0.0	0.0	-0.6687060318811935	-0.0519344693342583	-0.05588622217975559	0.0
0.03987031549555543	0.0	0.0028092908809991555	-0.008124653867880331	0.04447640987589907	0	-0.011167512347376065	0.0	0.0	-0.6633569634706766	-0.06686849782058642	0.051050259530067026	0.009222765462999305
-0.08408700329269901	0.0042259323682959414	0	0.007596009587092558	0.04490246681493058	0	-0.010135662171227395	0.0	0.0	-0.6680014932542154	-0.03590763032659262	0.05014522923869553	-0.015271095248777674
-0.07720214813529058	0.0	-0.0031050219171830256	-0.003291733751697765	-0.041368468810720815	0	-0.004021331546885567	0.0	0.0	-0.6639954424083194	-0.04092011009575522	-0.05321379794984609	-0.012528126776751355
0.009810117024547848	-0.009189030758079747	0	0.011450182154044367	-0.027118373880939992	-0.005658091489617866	0	0.0	0.0	-0.6546356611733133	-0.059781584572620096	-0.05421892362039459	0.03036562793671813
0.010456188919073486	0.014700416503944005	0	0.0	0.04587994436746819	-0.0038833122631114344	-0.010853222837827362	0.0	0.0	-0.6748194195740923	-0.05821308116334742	0.05416201480320484	-0.039687199642471714
-0.07931360653629045	0.0061966923049813355	0	-0.04025827686571097	-0.039480484523440544	0	0	0.0	0.00482557126494053	-0.6906548851966756	-0.05596143672107412	-0.05377366874662508	0.010784706934703094
0.039212259571157385	0.006466072785948722	0	0.0	-0.02671323260662135	-0.00976718275782061	0.02697501932617895	0.0	0.0	-0.6796010061565072	-0.06504679921114126	-0.05728779957069705	-0.014398795494683495
-0.07860863754078784	0.008295489363019196	0.002193580388755817	-0.007083540039006863	-0.042234820435920126	-0.006604784209920511	0	0.0	0.0	-0.6718520572824142	-0.05108365403853666	-0.05362192584084619	0.0
0.04124310853611606	0.007267673303104674	0	0.008349756789428968	0.04783945774178288	0	0.03894612560712437	0.0	0.0	-0.6672727267495172	-0.07362811091499952	-0.05186546516277468	-0.003252637070845856
0.011012041859676145	0.011970860173418014	0	0.0	0.0506912222279875	-0.012984676551799986	-0.012831061239060155	0.0	0.0	-0.6680951841318784	-0.06958266328239733	0.046873580291775095	0.05455461211497102
0.0422466263194746	0.0	0	0.009303183945021453	0.047951811740132654	-0.009783793966734157	0.03161178253679761	0.0	0.0	-0.6895257350049607	-0.05105810325077201	-0.054393241566000984	-0.02418551746966287
0.03760056907579322	0.005049829704617125	0	-0.044130728379792254	0.044686478681964396	0	-0.009115454103453649	0.0	0.0	-0.6808870819774522	-0.04562085543816462	-0.05242485636184519	-0.05262424174857562
-0.07528856086413459	0.0	0	0.06825249522712658	-0.04139916336310537	0.021631125879118546	-0.009976179682852833	0.0	0.0	-0.6454024846533665	-0.04924891226929823	-0.05291008060134383	-0.012229151570037067
0.011370725717587807	0.009392483816057817	0	0.07985085882833	0.05220505323382301	-0.0092951609986157	0	0.0	0.0	-0.629474599538908	-0.0507310586863523	0.051487578598467594	0.06305050834831381
-0.07589398126968727	0.008294156122635845	0	-0.046263298493995166	-0.04111175171053919	-0.0045132676143962765	0	0.0	0.0	-0.6591826407425043	-0.04966631228790942	-0.04921295459407108	-0.003788653590380191
0.03671845725613101	0.009319909743370009	0	0.06901828121356378	0.04769700899362063	-0.02122354926168972	0	0.0	0.0	-0.6780267252170766	-0.06189336400599708	-0.05492087865144367	-0.040993545232117436
0.03162168752155424	0.011579022639298069	0	0.06475016364454783	0.04311562664909291	0	-0.006876378962667301	0.0	0.0	-0.6579034221632224	-0.06245501125184901	-0.05363425394304081	-0.016655809571473442
0.00627566538587936	0.006952555076633261	0	-0.051128741075128464	0.04944509964365484	-0.0032601941386372663	-0.008832948413486223	0.0	0.0	-0.6714782641516279	-0.0453093198907017	-0.05308113903362623	0.0
0.011413049932069553	0.006613513683962299	0	0.0	-0.04178216177148569	0	-0.006416915920956643	0.0	-0.006266362009869998	-0.6799908286101188	-0.06774294937063587	0.034762707084365393	-0.0064747510400628774
-0.07957578422580146	0.0	0	-0.04891687814605216	-0.04587738010893523	-0.0033962233195975354	-0.01000114466564431	0.0	0.0032742365880016255	-0.6831116719622078	-0.029429270702154117	-0.050206645518458874	0.0
0.011394749243389598	0.0	0	-0.00827074640234184	0.04533242242016467	0.015250732190942659	0.02710371433761003	0.0	0.0	0.6626442097268642	-0.05197984502780963	-0.060409993206745276	-0.03111184062015992
0.0	0.00978573278605683	-0.00808496140092513	0.0696686439632175	0.04874075733026628	0.018530297610715302	0	0.0	0.0	-0.6680083196316847	-0.05991666404838366	0.05548938670087507	0.12618237344981859
0.011374230603686293	0.012710407193569239	-0.00469282707503091	-0.04206510894002352	-0.041239177955752535	0	0	0.0	0.0	-0.6873748037205718	-0.06061108637022433	0.058503677838275474	0.003122180841885948
0.03196263383026306	0.0	0	0.07634666021397543	-0.029782399786507145	-0.0038211692274803667	-0.006206658006212889	0.0	0.0	-0.6929344837593876	-0.05823958776815857	-0.060457871130837545	-0.004177761906989379
-0.07759184674433826	0.012598779700690671	0	0.0	0.044966662500227926	0	-0.010656109049311382	0.0	0.004586818628651856	-0.6539698537750122	-0.05666222547648907	-0.0625334273825726	0.03255533360279048
0.011720186701216495	0.009439179258833804	0	-0.04773311779205491	0.04600450509235418	0	-0.00572552351455687	0.0	0.0	-0.6804058011947873	0.07493996668095816	-0.04932967437587769	0.015681178007440674
-0.08696683740465778	0.006540492426903524	0	-0.05283778201833523	0.041804877313641485	0.01799856293237221	0	0.0	0.0	-0.6677689539616908	-0.060068152434366515	-0.06271234205800563	-0.010908233457975182
0.03036129409988504	0.0	0	-0.047339165426280055	0.04184917719845954	0.021441757767268834	-0.008664768439133866	0.0	0.0	-0.6719737191916181	-0.04916475340233472	-0.05360184203953419	-0.010490814148034525
-0.08794629087310032	0.006877799372206655	0	-0.04816794951675378	0.04584694284535074	0	-0.011140984234034071	0.0	0.0	0.6572979118386618	-0.053481158343152875	-0.05727493521069967	0.01271119386942211
0.011681518621804382	0.0	0	0.06907392632244598	0.04633689373761518	0.02256930573355063	-0.006165126606936057	0.0	0.0	-0.6903601119302878	-0.05271573079728308	-0.05321235773472115	-0.0160472691802793
0.007990633165467725	0.0055669415407254	0	-0.005463844139623309	-0.03899171240536352	0.016483464437584066	0	0.0	0.0	-0.6789189908879631	-0.06990919640641359	-0.05073790383261637	-0.007486502926913721
-0.08402085162733769	0.007670509233597966	0	0.008535133567227729	-0.04785287090427978	0.009890368975758141	0	0.0	0.0	-0.6607005411364507	-0.05355903486401753	0.04752484327995614	-0.005790082807469292
-0.07465167516773573	0.009783307977276407	0	0.0	-0.03912038172691176	-0.009204637395781983	-0.00962896075773401	0.0	0.0	-0.6533241412164705	-0.05188567351251081	-0.057285679309658326	-0.009748719236707998
-0.08132623260505349	0.0	0	-0.04060193635751102	0.04544182970848126	0.018350193605143585	-0.005150167676340479	0.0	0.0	-0.6858286210887438	-0.04507715221956324	0.05209954513388241	0.006705895018700588
0.0063691447817982244	0.01029037134167189	0	0.005954750482605898	0.046809915792488735	-0.011068324681333105	0	0.0	0.0	-0.6857905053489289	-0.05080140659030194	-0.051256978688042944	0.08172133186487089
-0.0773378447424259	0.007381186294790023	0	-0.04573187238842872	-0.039572482600771994	0	-0.012551561683983378	0.0	0.0	-0.648630994453793	-0.0512204591314575	-0.04971137971566471	-0.024359181128172074
0.03995614308210081	0.013957498719387668	0	0.06534754164464826	0.053981412468962445	0	-0.01392235726310109	0.0	0.0	0.6473483249750712	-0.052203826539484646	0.026806934205719328	-0.033660829209035244
-0.07451455488687173	0.008817551317137564	0	-0.048618208128954905	-0.043650371563230726	0	-0.007392295206278873	0.0	0.0	-0.6793350534796038	-0.06551850116777214	-0.05108760983280241	-0.03764293655365122
0.012595497185179598	0.0	0	-0.04939523386790887	0.046209523604848694	0.016718830326500976	-0.012048335028964144	0.0	0.0	-0.6648887253397247	-0.04634978640300757	-0.05073747906269967	0.060464204672428606
0.03909584710724867	0.0030819357112772715	0	-0.04887326822040847	0.050094217098396565	-0.0030764620677081115	-0.0051979093430972794	0.0	0.0	-0.6801845624655638	-0.053315409415989584	-0.05173253299260977	0.0
0.008566324150320867	0.0	0	-0.0425299977697201	-0.03967527853723097	0	0.027764756368551673	0.0	-0.005227798203458041	-0.6654669406661994	-0.05098720312852929	-0.05425019969541012	-0.014723810528756064
0.011116271290528472	0.009888652628661931	0	0.06823450753326726	-0.041401573959685335	0.02132366014855662	0	0.0	0.0	-0.6624887354000449	-0.052894066302141225	-0.05608507149039305	-0.030228787596991186
-0.08501079940717872	0.007335946397250908	0	0.003784360254111826	-0.042284230893259736	0	-0.008397785883746357	0.0	0.0	-0.6683153739114516	-0.03674255641289723	-0.05710868381000423	0.032613991528102314
0.03015011987273315	0.0	-0.008831475674136221	0.0725495425320752	0.04340028016937033	0.024770925256184496	-0.006104387601328291	0.0	0.0	-0.6754863344830905	-0.07115173013835101	-0.05307013189235063	0.0
0.04163332981172551	0.0	0.004301007837460978	-0.046396173051227216	0.049380001580242534	0	-0.0027675599417325922	0.0	0.0	-0.6720654657683774	-0.03582203371051123	-0.049958416332122516	0.003713017417071899
0.005866932466424917	0.0	0	-0.009078376939574117	0.050024765764754425	0	-0.009276243808618459	0.0	-0.009205723384892896	-0.7015630403262095	-0.052852583760283796	-0.06037477184738424	-0.026426859909804725
0.03444101298804786	0.010174741683954356	0	-0.04709358659321555	0.049678967348903834	-0.006385871700517007	0	0.0	0.0	-0.6513341648931472	-0.06088146983217308	-0.054239739658722336	0.029521229589774087
0.032278501621369714	0.009224753200978882	0	-0.04717896557089871	0.040458176057587766	0	-0.012716242827021213	0.0	0.0	-0.6871738778958901	-0.05614236570175252	-0.05423017112928491	0.03961194734812009
0.04007506680921974	-0.009933298476470238	0	0.07777901707395109	0.045905747803598906	0	-0.006485356068363564	0.0	0.0	-0.6840842987793769	-0.05377776300975691	0.05944016476255896	0.02598138897337761
-0.08228541725117913	-0.007556786420433341	0	-0.05055247670293528	-0.04532533310737257	0.01847934468340366	-0.01326558183504316	0.0	0.0	-0.6451976114602912	-0.04780537323210131	-0.049476121442809703	0.0
0.04287450820268039	0.0	-0.006218176562840329	0.0	0.05394850549903531	-0.007934391893741042	-0.008705400458810741	0.0	0.0	-0.6491476218175528	-0.05850822027793183	-0.05272375345644032	0.09006016013905305
-0.07945306394372349	0.0031167814103124614	0.006352334215505092	-0.047258547728067014	-0.04142363202502599	0	0	0.0	0.0	-0.654647283984249	-0.040809478215682767	-0.05434341506471968	-0.03818200174749695
0.041119358015293865	0.0	0	-0.048163574298916885	-0.04811202383878229	0.023263454189000443	-0.009437870207751702	0.0	0.0	-0.6638377274867454	-0.06614532913006284	-0.0599178148249879	-0.019924563712283534
0.03228174210231003	0.0	0	-0.04553577496120244	0.05340853474358933	0.016997270439932443	-0.009262427487108328	0.0	0.0	-0.6618051933175901	-0.06089137963506416	-0.05565072154808205	0.03055988894841802
-0.08086164763897366	0.004648887605142163	0	-0.04597439125685917	-0.04350771227633136	0	-0.010265504409031541	0.0	0.0	-0.6701254633359773	-0.06143966958152852	-0.053863253503343436	0.011583094311340855
0.00851760645619136	0.0	0.008846636522038601	0.00986275819153763	0.04534608122558314	-0.012314520572654761	0	0.0	0.0	-0.688262877223698	-0.06350253276823195	-0.05702432438798739	-0.034432366697179716
0.014234929705305047	0.009339455957837793	0	0.07229701229667054	0.04505768876370903	0	-0.010699211528933592	0.0	0.0	-0.6870704466100149	-0.07083751722454597	-0.04750102467474155	0.030340484781936607
0.013184250662148022	0.005218735306205984	0	-0.008426692742182806	0.046487315207129565	0	-0.006497647552168509	0.0	0.0	-0.7063454563133852	-0.03456909462403351	0.050638844333169605	0.010318341680358691
0.03914392965489822	0.003804213491658619	0	-0.05690721331559433	0.04696610049892876	0	-0.008697341559041701	0.0	0.0039862167635227	-0.6709485261359289	-0.06575347339279594	0.03484352965770894	0.0
0.032496253025689745	0.0	0.006594622295699374	-0.05197265953507397	0.04622428428053816	-0.016704378606783837	0	0.0	0.0	-0.6713857521975787	-0.04892259022370932	-0.055701513395121346	0.020363463087874106
-0.07911559367358371	0.0	0	-0.04920400449946749	0.05425457488251162	0.014672740178312523	-0.01157844173808526	0.0	0.0	-0.658889382651749	-0.0456228291853222	0.0586268891977207	0.01832437632310279
0.0075789546737288225	0.0	0	-0.003601235024813823	-0.04397515559633436	0.0035463179560301177	0	0.0	0.0030184192682900486	-0.6641658683972602	-0.054588478160591196	-0.052571776376768825	0.029978910344069656
0.011821887616482547	0.00782185236679233	0	-0.05343514983606756	0.045544787384907644	0	-0.007932313681058744	0.0	0.0	-0.6525415889222035	-0.05375479351476285	0.05174845063792407	0.06741741377204724
0.018254952685708564	0.011618596701136132	0.006565631718998067	0.07137634733742107	-0.04179040476548145	0	-0.005168124786290419	0.0	0.0	-0.659984912967122	-0.06283242878421721	0.05375331732283278	0.0
0.03329810336084448	0.0	0	0.0725789751024614	0.05081613980802049	0.019607667780602255	-0.009167357127687896	0.0	0.0	-0.677551117252495	-0.07325378312741844	0.05734431142796101	-0.024589083164089046
0.041964410400072316	0.012840792581597888	0	0.07137813728008789	-0.0449076245149095	-0.00965911993414567	-0.00823529615442553	0.0	0.0	-0.6594390712660891	-0.08441035013408084	0.0531738546531222	0.0
0.008512958220452956	0.008692670714618293	0	0.0	0.050381901958538235	0	-0.007005663861264407	0.0	0.005352163389370437	-0.6748292844172002	-0.037686572698343954	0.05145982662849711	0.024249978913461846
0.03735118681129057	0.0	0	-0.04749046920990705	0.04424936125761218	-0.006677953542680608	-0.010682004848225624	0.0	0.0	-0.6916926549597194	-0.06755393556792817	-0.05396374653990882	-0.02126552702122523
0.03566200205066644	0.0	0	-0.04829056368363802	0.050688992639013476	0	-0.00880214932977613	0.0	0.0031093278895766747	0.6800311858199997	-0.047170631755136506	-0.05287553606783536	-0.014479256463191913
-0.07738969845631921	-0.01092546241717215	0	0.011114574117128666	-0.04538711292997661	0.01682827110115217	0	0.0	0.0	-0.646284267746392	-0.06381855416695664	0.04978292970991723	0.019145525249346203
0.04085789830670663	0.0039418873202820455	0	-0.006256931150708501	0.050438168321036786	-0.008060427389512313	-0.00577799222634821	0.0	0.0	0.6460569169075232	-0.05108765927804084	0.058198276867957484	0.030174805711001014
0.01372234583118438	0.007115679358060626	0	0.07351562689487608	0.04739788556828643	0	-0.013359539815558917	0.0	0.0	-0.6573848823202314	-0.06091607336309133	-0.058838532191557096	0.05152915295958186
-0.08357824670662184	0.0	0	0.07168645894863795	0.04814183705583115	-0.011232192647537045	-0.01140237286807802	0.0	0.0	0.6682653338160418	-0.06575047431949131	0.05710870828676819	0.006460369560254688
0.04255153333451881	0.0	0	-0.006586197406771594	0.05109636884253462	-0.010945723536635654	0.027314484691995787	0.0	0.0	-0.6635206445876918	-0.044187246402964474	-0.057547413425743835	0.026687780986294454
-0.08117566599613825	0.0	0	-0.050468839050907294	0.04449857585929521	0.01928598933536956	0.025364092238185355	0.0	0.0	-0.6538884631155207	-0.0501927160018862	0.05697250550948972	0.02782682641991412
-0.07876203586732235	0.0	0	-0.007802552794950764	0.047694292628657486	-0.005192432436533965	-0.00910657601162463	0.0	0.0	-0.6792459362281061	0.05384288267746037	-0.04850886112552612	-0.026589303845477464
0.03865515110536043	0.017822148150770968	0	0.0	0.05181708487300779	-0.01176668057340269	0.029303940433976976	0.0	0.0	-0.6594937000454408	-0.06821228691932468	-0.052005967881354545	-0.02376099877218151
0.04167573545999528	0.004998267760565324	0	-0.0512663526008148	0.04971757981506133	0	0.033381402040055186	0.0	0.0	-0.6667000689423458	-0.06335540831061338	-0.05027984646443402	0.05168414341059023
0.03646527753535122	0.0	0	-0.04779025649261819	0.04734944413656481	0.02025428526528714	-0.011929377792251143	0.0	0.0	-0.6739966733043663	-0.06118318006199728	-0.04958076685097473	0.06254025991836436
-0.08403738556074784	0.0015066821721864286	0	-0.00281207649059916	-0.047657950213240166	-0.002041587785745592	0	0.0	0.0	-0.6583937260740204	-0.050943845808565896	-0.04830603456685052	0.009225015698793446
0.009020690826300278	0.009086554071721941	-0.0064809862293149076	0.0	-0.04620681623707036	-0.01388504837288492	0	0.0	0.0	-0.661089251964767	-0.03431348498070251	-0.05388943601185859	0.036135641280099606
-0.08030909483014968	0.006634402588826037	0	0.0	-0.04324998903665173	-0.010306890713177327	0.0249014256058636	0.0	0.0	-0.6783817116462391	-0.05979114191560895	-0.05433300256894193	-0.01329420184055187
-0.07597166489060868	0.008755832030938696	0	-0.008389765548047273	-0.043976076970201554	0	-0.01127794736263529	0.0	0.0	-0.6867650576833343	-0.04923349894702436	-0.04984693627730655	0.006744625647225406
0.035264673786138644	0.01345113313423087	0.005942205228685669	0.07206377431325824	0.049453017278480824	0	0	0.0	0.0	-0.6218980323875577	0.047517502548956085	-0.05537666813510977	0.03074972846893895
0.03552209412779271	0.008312513058049524	0	0.07173798629054048	0.04678617188190107	0	-0.006344671521055271	0.0	0.0	-0.645946350841294	-0.05361913460738994	-0.05508914100604221	0.009496946497407196
-0.07988556929438725	0.011989594350334276	0	-0.04421505510858019	-0.042484756849345044	0	0.02520739518738319	0.0	0.0	-0.6753284693241545	-0.05908226510423568	-0.05064271833954706	0.014102833991344797
0.04464096566700461	0.0	0	-0.05122802988597962	0.049823388111370395	-0.015150293400876026	0.036273163880717205	0.0	-0.007867940034251654	-0.6315075613639793	-0.05350419698650742	-0.06118185462007884	0.0
0.044540955377791326	0.010603688510196208	0	0.07467798813214313	0.048121475378591724	-0.01792750052041873	0	0.0	0.0	0.6603456067210296	-0.046546459899523204	0.050546941784912855	-0.0160668753047044
0.01442848457994798	0.0034799298457655757	0	-0.054625719845843294	-0.04260456612696893	0	-0.003053094386892271	0.0	0.004077851036956961	-0.6689914456075168	-0.05912576244809119	0.0476553193167647	0.0
0.03864824959446553	0.0	0	0.0760134793896998	0.04771358451543621	-0.009423811101252663	-0.010890027134123523	0.0	0.0	-0.6640240721301012	-0.06508960338482982	0.03969224783304729	-0.024307698740318816
0.03011646551221003	0.0	0.0032720104368092083	-0.054482894783884885	0.05087370659533967	-0.004649973484286859	-0.009546473368455094	0.0	0.0	-0.6666658360416672	-0.04385226178370082	-0.05453371601357446	0.0
-0.08268387550759056	0.011289318685800465	0	0.0	-0.04232814927712641	-0.009981926291325818	-0.009359199781004848	0.0	0.0	-0.666949318157151	-0.062328561738435796	-0.05615454033835169	0.04741903032172529
0.03275294222150953	0.009104731259904944	0	-0.0534688572070533	0.048863458040514104	0.023143843921359163	0	0.0	0.0	-0.6896291041474222	-0.04916568765971563	0.052345209987730526	0.02311465721068427
0.04616794134476139	0.0	0	0.06803861620018484	0.05246854615919632	-0.006981963555546547	0.028190454925073397	0.0	-0.00522427610856373	-0.6562805283757623	-0.04924715793518882	-0.052775775583044256	0.0
0.008427416428282571	0.00717745932484626	0	-0.047773758693145325	0.04972368709212337	0	0.032743418007116186	0.0	0.0	-0.702110654565948	-0.046331338828697985	0.047548316793554826	-0.03600543689152726
0.04508587018502628	0.0	0	0.005472746735246343	0.05059300894822522	-0.010213227580224462	-0.011568231093572391	0.0	0.0	-0.6545915590604735	-0.0689032565154175	-0.050549667307857545	-0.06693516238342001
-0.08219767690971667	0.0	0	-0.046244058525347784	-0.04214494151463937	-0.009027934481214805	0.03037742254448793	0.0	0.0	-0.6534100870208565	-0.050113250769540145	-0.0557066514108032	-0.011438117130590878
0.05046004652967594	0.0	0	0.07156556784894127	0.048547026713402996	-0.009658371632346598	0.02930101928672647	0.0	0.0	-0.6567733758864482	-0.05693335950889191	-0.052328710687930415	0.05137976978182257
0.040769402631284854	-0.008826396119983017	0	0.06438636342480299	0.0465669491427395	0	-0.007519634693162409	0.0	0.0	0.6917129454313239	-0.06328423514926051	0.05129096379646163	-0.033630981677985665
0.03924019530319962	0.0	-0.009216550158187281	-0.01091407823432929	0.04681712029871091	0	0	0.0	-0.004960525492524139	-0.6532777262500982	-0.07740016040067876	0.051586928296588966	-0.040443015246819834
0.036537035735246616	0.007591451567627922	0	-0.045423777888126786	0.05030815015725411	-0.005011202168269683	-0.007132609143910395	0.0	0.0	-0.6629681665768169	-0.04663008347766603	-0.05334392624795687	0.0
0.007044639874028356	-0.005811325108002111	0	0.0	0.049725078360819484	0.015289107297024162	-0.004030672084901303	0.0	0.0	-0.6726201905483837	-0.08171518077065348	0.043339114866827115	0.058148237358652544
0.03592020204057304	0.005062370131661523	0.0037457498544341034	0.0	0.04246379428546254	0	-0.006737012452849927	0.0	0.0	-0.6808629218541566	-0.06375601567664003	-0.05699863398849286	0.04765050215747918
0.008452579276823143	0.0	0	-0.043590288610155375	-0.04512338016550743	-0.003847502607216738	-0.006901067866618361	0.0	0.0	-0.6827313716300096	-0.04802575443263659	-0.05240495981790359	-0.0024596288244000605
0.04567900353261827	0.010852628150755253	0	0.0	0.04412094604355891	-0.004248540254286499	-0.010691805994311576	0.0	0.0	0.6577808387970033	-0.028973274751930324	0.05592046855214897	0.012366391268789034
0.043172884685652904	0.005927110780253452	0	-0.055479804390615256	0.04451436674455291	0.018794436856521858	0.030224009412643246	0.0	0.0	-0.6773534118273247	-0.05694559335262197	-0.05313549212662894	0.0
0.03748006725024284	0.010250147109433817	0	-0.0508803898020319	0.049125794159047866	0.018121723868968643	-0.01342997794239024	0.0	0.0	-0.6767170251321869	-0.05767366173003808	-0.05605670183308529	0.0
0.012784716287984938	0.00887138468602103	0	0.0	-0.04362106125733577	0.02284506909456007	-0.008986908574267495	0.0	0.0	-0.685623016346675	-0.041883930018625566	0.04887903935433245	0.0063941894529722
-0.07973668952178813	0.008784638548784121	0	-0.048780630824426637	-0.04027550957164272	0	0	0.0	0.003657493653415157	-0.6729721698883439	-0.03904958899763787	-0.04912873564548037	-0.022993468349422196
0.01305679305204921	0.0	0.0055175143960816304	0.0	0.04156706212257528	0.01620879254846026	-0.006891365769079746	0.0	0.0	-0.6671288862810115	-0.05865802913514036	0.04590231915428507	-0.03023321845813844
-0.07851428905747422	0.0	0	-0.046148336566232004	-0.0363790416024109	0.011265557960178339	-0.007155999369019868	0.0	0.0	-0.6705040002278937	-0.05313662388987984	-0.05223133546792358	0.027554490985293157
-0.07636637580360292	0.0	0	0.06605716604631136	-0.04232428536837007	-0.012722581647972039	0.027949105620716917	0.0	0.0	-0.6692548754726719	-0.04028391664858637	-0.052623343659587395	-0.011890316204096113
0.0305768432545145	0.008318849122914905	0	-0.04768777577130618	0.04941014377252271	0	-0.005630528363156939	0.0	0.0	-0.6386673372144783	-0.05762319710069383	-0.04951392399678494	0.016982843939829545
0.042256143604397826	0.0	0	0.007736521176179241	0.04949033243645278	-0.0065121839325453885	-0.008378544639086915	0.0	0.0	-0.6765472108651702	-0.04706839087699831	-0.056986710381231515	0.008333233547392153
0.04636677036545352	0.0	-0.004209468163617514	0.0	-0.04566723575124746	0.015815692635809633	0.02686869316187677	0.0	0.0	-0.680368165568537	-0.07089960813462272	-0.05344094052169088	0.017682701065219124
-0.07764233243892911	0.0	0.004193701782121416	0.069098252477885	-0.04661502890793171	0.012894087463455573	0	0.0	0.0	-0.6647834658588978	-0.049126657120970744	-0.05357342919663737	0.012468432919912974
-0.08558872363271233	0.012423801916642009	-0.006234334704634284	0.0	-0.050858032997542706	0	-0.008443922754848067	0.0	-0.005809657690151931	0.6894427164627025	-0.03980161497467411	0.04861984089043863	0.027973121309985225
0.043783882421026266	0.009432510463184194	0	-0.04250774508500959	-0.04523093133227057	0.016715681696159737	0	0.0	0.0	0.6769808446638842	-0.05444157750163607	0.06028329076643209	-0.031694065072449915
0.013107217463426501	0.006944239558749726	0	-0.04911696970144488	0.044816533040317415	0.0024416823879660305	-0.012948721585720463	0.0	0.0	-0.6447865575343288	-0.045372320547801694	-0.05866775626429717	0.0
0.03495854184615938	0.0	0	-0.053918747170503455	0.04689817125729917	0.01312883545085161	0.03010501950800373	0.0	0.0	-0.6644538483022171	-0.04312110086197207	0.05369425027089656	-0.05595272666924005
0.040101773269168264	-0.00774593356719982	0	0.0	0.0453380667314753	0	-0.013246429828995931	0.0	-0.007173419302057852	0.6866387099129421	-0.03988751014904968	0.02714370292843054	-0.018512662618534962
-0.0791850987211652	-0.005458643756592194	0	-0.007499682700470713	0.04363369727265338	0	0.028286485955235936	0.0	0.0	-0.6611668574703657	-0.03398566072952324	-0.05558879432042197	-0.010771920360533625
0.009032748731892264	0.0	0	-0.04967960408686699	0.043497918211541885	-0.011332774974031875	-0.010622983960672428	0.0	0.0	-0.6614371279055836	-0.05315717615178496	0.051020786280565424	-0.0060237671133955475
0.04263811286749392	0.006741240667617782	0	0.00445729917066346	0.04862647809366646	0	0.02721945653188465	0.0	0.0	-0.6659064600387923	-0.04060327332283323	0.05431040672118276	0.02933344554814293
0.04165048674803377	0.0	0	0.07019277619467706	0.049013630315692384	-0.010492101424232458	-0.009666165880118816	0.0	0.0	-0.6773900658943524	-0.05438002111808367	-0.05064197162943322	-0.022181587312994182
0.04114786014469771	0.0	0	0.07217317836001473	0.04200310012329033	-0.012554664335460937	-0.007829610595588178	0.0	0.0	-0.6701742831075932	-0.04587010427298126	0.05389304203461596	0.05538258343249831
0.035714725070263485	0.0	0	0.06985817365820261	0.044198801324394695	-0.010908262801442959	-0.006965588386298395	0.0	0.0	0.6740734126724148	-0.04892896733189171	0.046437694975493195	0.008425494734329967
0.047634331947186484	-0.0069599873131660816	0	-0.04600740427316413	-0.023257648603458577	0	-0.01020213983338384	0.0	0.0	-0.6492961211385224	-0.060363330676789735	0.04424202155182667	0.0332154754929467
0.03669973084954492	0.0	0	-0.04731441563596536	0.05234306794180348	-0.008686753281343756	-0.011207719211038795	0.0	0.0	-0.6489081222495104	-0.038874370385564655	0.05279602154920228	-0.032161548669063185
0.009010442476771983	0.0	0	0.06920111044141514	0.05102371684329756	0.025195410482797904	-0.00930430134910403	0.0	0.0	-0.6682661308662472	-0.04281682422579171	0.04981857462597526	0.058701905056457025
-0.07999637381225717	0.0	0	-0.04942031674693526	-0.04076034379396845	-0.004690470602554433	-0.010179330481695774	0.0	0.0	-0.6640853636755797	-0.033899245221678254	-0.05761696490489395	0.013275239303268935
0.01317247434493549	0.0	-0.005756748406544121	-0.04982665574487983	-0.030253580256238824	0	0	0.0	0.005949047376899061	-0.6584493202275529	-0.05583564041038618	-0.05198616437663866	-0.019648351549059296
0.04091758239832798	0.01223588485316591	0	-0.053540428746052506	0.049565687585843655	0	-0.012226379195596998	0.0	0.0	-0.6828464175417435	-0.05274395750573999	-0.057351353332689564	0.030128262577844706
0.0338590917938978	0.0	0	-0.04799845220977534	-0.04602977046104347	-0.013930339100077493	0.034149531601933826	0.0	0.0	-0.6592228331448603	-0.05792345575674297	-0.051299492265215	0.019258266482518157
0.03566363147064553	0.013901865765108155	0	-0.05375470811899454	-0.028768058231548252	-0.004717008584668479	0	0.0	0.0	-0.6599612198743666	-0.06074995251860041	-0.05275715940504813	0.03561328338642509
0.047789734103478046	0.0	0	0.07415220415364474	0.05541053648310687	-0.00643797886928195	0.033416775331127135	0.0	0.0	-0.6562483241193816	-0.056686966464763344	0.042980009356580376	0.02424374411886588
0.004071608408884595	0.0	0.003288794622844469	-0.00639946982679551	-0.025959196929863263	0	-0.006467935720328282	0.0	0.0	-0.6694441286526432	-0.05220818985297612	-0.049851223325901355	0.01488452949286991
0.04095378545829127	0.003027903755290437	0	0.0	-0.027820851495891575	-0.011648765597568589	0.03168096874809355	0.0	0.0	-0.6893176103150029	-0.05700574774103038	-0.054648204724928755	-0.06352990176743312
0.012708426317758535	0.0	0.003642545835543544	0.07296455345486254	0.05072057016405931	0.01774843235648459	-0.010277188523620034	0.0	0.0	-0.685429512753861	-0.05419103443751383	0.051412825649937974	0.0
0.039314060771294165	0.010800852730364945	0	-0.04515328412066359	-0.043304509502786734	-0.0077554132472964915	0	0.0	0.0	-0.6897052413139604	-0.06572087860379498	-0.05428169450750274	-0.006531817330739431
0.03351582859801391	0.0	0	0.08074160132027347	0.045815186590181245	0.021385805163879324	-0.006154440823096752	0.0	0.0	-0.6800352398024493	-0.06287278349899021	0.06039074273780681	0.012974045550088166
0.0358492843190893	0.0018808336594922075	0	-0.00508738615076454	0.047336722801678395	-0.0014097071496006152	0	0.0	0.0	0.7023485314852314	-0.06531189334389816	-0.05938417764883633	0.08589901534744047
0.005330560843045309	0.0060059239157412925	0	-0.04748477250137094	0.0467842303599298	0	-0.007162801713485271	0.0	0.0026461184273866762	-0.661683293875985	-0.04564112931672396	-0.05165560217869493	0.0
0.010979837253956513	0.0	0	-0.04664300444151292	-0.046772601615011726	-0.020205897660020733	0.022948813891217803	0.0	0.0	-0.6628328733084412	-0.03840881081581881	-0.05556556059673889	-0.012775177945094687
0.005162519674840832	0.0	0	0.07383277904732832	-0.042638144111943575	-0.007243991194631877	-0.009327762421862755	0.0	0.0	-0.6581227942648218	-0.05906090720222635	0.039903465447435824	-0.014841528101856717
0.0457291049062877	-0.0060687381627551225	0	0.07507849349372701	0.05008379500102503	0.018785252990645446	0	0.0	0.0	-0.6923446822593876	-0.03485281771807885	0.05144204297405592	0.006022170806515524
0.011311651070281209	0.0	0	-0.04512000322971888	-0.04762944122151707	0	-0.010832940642005701	0.0	0.008908313216213295	-0.6683105203051034	-0.05001274550296464	-0.05337649907267502	0.012439961320080913
0.00833201828859243	0.0	0	0.07756773838802046	0.04665985441325495	-0.005340577557281248	-0.012383463382460196	0.0	0.0	-0.6795527790181457	-0.05747998133737348	0.054371495993131236	0.01691990450779373
0.03665132163150853	0.007342723660751387	0	-0.05338885953711312	0.05115039131677801	0	-0.005794619678561634	0.0	0.0	-0.6704216293051155	-0.04932393682688932	0.050760020012619485	-0.016645272570916823
0.011491130760070047	-0.011475162911664916	0	-0.046699299396631797	0.0508966953214237	0	-0.008417304186126972	0.0	0.0	-0.6624711781403297	-0.07422774436475943	-0.056614941414908714	0.025697769421714648
0.013611807663957452	0.005046268156464217	0	0.0	0.04757636556286009	0	-0.0071733691368058876	0.0	0.006727826339133732	-0.6573580962107234	0.06041408056105745	-0.056183366748460924	0.008577984713461476
0.033370298412463376	0.008020883668050137	0	-0.04857630673783693	-0.03751576869210931	-0.006376308157996357	0	0.0	0.0	-0.6760680303897547	0.07326216049735053	-0.05642965101332996	0.02991651069669579
0.04258560499076585	0.009981296078530929	0	-0.05212693374643178	0.04543009904192461	0	-0.007685599976877115	0.0	0.0	-0.6638754632517317	-0.053968941047408486	-0.060713310898257676	0.013162319145518889
0.03177085241003575	0.007272497473922444	0	-0.05089805208464539	0.04337769073024486	-0.0033340761229946167	0	0.0	0.0	-0.6777325964154614	-0.05500996083710403	-0.05723206688601207	-0.0053043823003778
0.009789864095770245	0.016922724515828977	0	0.06603052530532005	0.045322023958736475	0	-0.008424215994840528	0.0	0.0	-0.6566639074239919	-0.06160767290912857	-0.056393827450928635	-0.028735377404820548
-0.07801410092013988	0.0	0	-0.045340842149231696	-0.04163169516359438	-0.003786417338951726	-0.00950607431320797	0.0	0.0	-0.6680168289476573	-0.05492683322079671	-0.051653039426852745	0.007667607133752064
-0.07433262040038856	0.0	-0.006980923074358845	0.06463949271046458	-0.04480346469692874	0.021966083856899073	0	0.0	0.0	-0.6721289998901078	-0.06277587296206454	-0.05315938067902552	0.005105768893119839
-0.08273347788283664	0.007819966154132411	0	-0.04892090554319444	-0.03956837704587597	0	0	0.0	0.003903696790070578	-0.6798631592460388	-0.05022055352590664	-0.053882444720039745	-0.003745203158371571
-0.07952170258791776	0.004794152732998597	0	0.0	-0.04154390830609586	0	-0.01235343136997759	0.0	-0.005838228733637581	-0.6505820706313666	-0.061159041226403074	-0.05631007303857699	0.02638285489686179
0.030885016438101393	0.0	0	0.06771343422860916	0.04552304611883922	-0.009911183281006404	-0.005971055603537599	0.0	0.0	-0.6574713308716624	-0.05170045495752594	-0.05308245682939796	-0.012493781300722184
-0.07619391210663136	0.0	-0.003211843480875006	0.0	-0.03858793545775136	-0.003742617786317038	-0.007076719177453902	0.0	0.0	-0.6617513732162577	-0.05387558300317019	-0.05290914779332171	-0.01963881054358648
0.033591303734331515	0.0075784589456726935	0	-0.047592469413056185	0.047865767901474315	0	-0.012436734680346636	0.0	0.0	-0.6546178439811661	-0.06035010342810331	-0.05655713294444993	0.004899307857584078
0.016230307363849054	0.0	0	-0.05238046652101811	-0.038731947974092566	-0.008929039904487613	-0.008860619269975093	0.0	0.0	-0.6874881417626932	-0.04182398527578465	0.04813012808681728	0.07393527995191945
0.007031040598128897	0.0	0	-0.006587529799308006	-0.04554015157740953	0.020711925411894174	-0.0021450930039243004	0.0	0.0	-0.6916637213782402	-0.05254694817070577	0.05191075238247453	-0.011861188579393864
0.041477238973660284	0.002977764058388954	-0.0034933402623267464	-0.04597209828423865	0.05309902471716163	0	-0.011628265717488687	0.0	0.0	-0.6559429432789488	-0.04328333202727568	0.051146040952175065	0.0
0.04871526001112556	0.0	0	0.0721495329839366	-0.030951383316918595	0	0.026736810921101202	0.0	0.00769706662595124	-0.6508865657798417	-0.03748838677491939	-0.06150423815232789	-0.03295276019247405
0.008663669244294304	0.009662125526897089	0	-0.008218931604831205	0.04496362052478205	-0.009735146235010313	0	0.0	0.0	-0.6475467337144761	-0.02811842607470039	-0.057632422756512876	0.03365172837445862
0.03978504204135071	0.01222814730575495	0.007434004310391879	-0.05247020303788692	-0.04517580062400204	0	0	0.0	0.0	0.6458837568255561	-0.07706260247202383	0.05154073602233497	0.08437051116275665
0.010651347580758535	0.0	0	-0.052794315980483765	0.050675467547008815	-0.0038565720084037707	-0.004091071034140183	0.0	0.0	-0.6617042160332463	-0.044720867276765455	0.054351641667180116	-0.03187003570940697
-0.0764387295870842	0.008399730149520557	0	-0.04566806788226995	-0.043104879731347426	0	-0.004557641355858833	0.0	0.0	-0.6643075837159096	-0.032781461492123916	-0.056699097496005345	0.0562290732400767
-0.08131263532435459	0.00790279228687806	0	-0.04529224481374398	-0.04080866226164924	0.018160136539083837	0	0.0	0.0	-0.675463583630019	-0.06403381814330612	-0.05259710786235961	-0.025141883622443743
-0.07673348666579428	0.0	0	-0.046839591401283874	0.044733566262286126	0	0.031525890546738676	0.0	-0.00922995074481303	-0.6683214390710819	-0.045107945005904565	-0.05698197787695583	0.022292206204614872
0.006152112713041518	0.0	0.007244714871496468	0.0763509129637395	0.04910109652095219	-0.013245936522801146	0	0.0	0.0	-0.693816730245478	-0.06036479809259194	-0.05542177723485836	-0.006720984294832387
0.047005664964603865	0.0	0	0.07458544122486908	0.04811435781735218	0.014048661673226383	-0.012386832242402205	0.0	0.0	-0.6811461176190434	-0.052076656037276556	-0.057418229945210175	-0.038204540611645306
0.03916132722607647	0.009846191132511062	0	0.0	-0.04228842483654506	-0.004175692614582762	-0.006904533597662526	0.0	0.0	-0.666014135795466	-0.06471635301761519	-0.05490799938720396	-0.061550325670133674
-0.08295144946769585	0.0	-0.002391994160889695	-0.002323673394547499	-0.04893035805668017	0	-0.002966541805732099	0.0	0.0	-0.6580822140492442	-0.061415427424881805	-0.056539830977791264	-0.049541329876978214
0.036102732216813684	0.0	0	0.0	0.05039763966232564	0.015744990093380016	0.02258392864902484	0.0	-0.004442434089025399	-0.6798983446663636	-0.0619749556007145	-0.0539560949389427	0.03904834965186577
0.04337893798419383	0.007382962040300609	0	-0.009302255646040349	0.04881935985270454	0.012365506244646945	0	0.0	0.0	-0.6602157145752693	-0.05662256367395691	0.04963217394780227	0.03386162950710275
-0.07844806613322464	0.00872747038336298	0	-0.006182832602157142	-0.0420036115125284	0	-0.004844143860151301	0.0	0.0	-0.6476762718350398	-0.05615774545404506	-0.052337260790629045	0.008191302588875326
0.008771065827307958	0.0	0	0.07007191827980905	0.051997311676722925	-0.008372715378275943	-0.011596371357010601	0.0	0.0	-0.6490785733521616	0.06337660734622245	-0.05715881943096261	0.07269219086466006
0.044107944903137325	0.0	0.010854619645266642	0.07350367920207233	-0.03799347475034134	0.023799595233095293	0	0.0	0.0	-0.6509553555800439	-0.06294793335180243	0.045144619681545435	0.012716212417596098
-0.08453070082549038	0.004404758328058762	0	-0.00797001306240607	-0.04286822222462321	-0.0061426241103530645	0	0.0	0.0	-0.6379557511044336	-0.04089974995184653	0.04912897117727524	-0.012927769804475872
0.04155929764825655	0.008141915928093641	0	-0.0533274655921092	0.05155050891056677	0	0.0340906654327745	0.0	0.0	-0.6903854558613536	-0.04997901395069198	-0.05769993595957555	-0.004109328572445676
0.008726282134743784	0.0	0	-0.011600636902566911	-0.04317024284144937	-0.011682013745531995	0	0.0	-0.00623856406479669	-0.6550128600141732	-0.03807554080592078	0.053911026245349415	-0.011647755334072486
0.015309556053050094	0.011827481995588638	0	-0.04687324236391287	0.04734642142815854	0.020567284393433805	-0.011656585642849245	0.0	0.0	-0.6972805339530942	-0.05607251485723497	-0.05460028681717074	0.0
-0.07557819018746077	0.0	0	-0.04669165941339445	-0.04137462517598375	-0.01883883413275984	-0.008733612491267828	0.0	0.0	-0.6710251161028513	-0.059629651984869685	-0.05178102235059803	0.0718372962117938
0.030322034709148994	0.009592961205006209	0	-0.006299187904126362	0.04848721919719219	0	-0.008612698371679899	0.0	0.0	-0.6819904514889988	-0.04698189871801774	-0.05395383698659198	-0.014905084024056344
0.03852077285604998	0.0	0	-0.05117492781541004	0.04512041109263646	-0.009193248050484566	0.020915798194583494	0.0	0.0	-0.6396398152857187	-0.05298797342660056	-0.051541771946466274	-0.012560013775024352
0.04495529842787578	0.0036817496256517394	0	0.06965470737814745	0.04362190858756063	0	-0.005893653814865739	0.0	0.0	-0.6713015028695213	-0.046352397183879034	-0.05325501684220878	-0.030552562525103216
0.009512204497397234	0.0	0	0.06950673679100117	-0.047967915695907436	0.021811863899846066	-0.012095031411208181	0.0	0.0	-0.6866673009036737	-0.04249840287815928	0.05738899714647498	-0.009419912429305094
-0.08006459544648231	0.008061383336431483	0.0009660079319118326	0.06459002805836277	-0.04372718618210986	0	0	0.0	0.0	-0.659099197046856	-0.04739619344807683	-0.05565160010949682	-0.001955411542296897
0.030226513365554347	0.0	0	-0.04764743537545812	0.04467241570413985	-0.014803275272635991	0.0316602023367935	0.0	0.0	-0.6929483228460718	-0.06096436508101635	-0.05341677938546981	-0.02810594164799739
-0.08050776950929443	0.0	0	-0.04613896392024267	-0.044197031631165416	-0.010758923993342483	-0.00790714579366049	0.0	0.0	-0.6751731717094949	-0.04734514833318166	-0.05096363979016897	-0.08278983346538743
0.04394184427082044	0.004858749346922928	0	-0.05110273904544081	0.04454625742605807	0	-0.009264108181791303	0.0	0.0	-0.6793646705847276	-0.05851066326039174	0.054321101931640324	-0.00814630400456713
0.039099458413632555	0.0	0	0.07393440967504594	0.049443190379891595	-0.010689105249014598	-0.01002510393029152	0.0	0.0	-0.6591781761867413	0.05632484753597396	-0.06038263547470237	0.014474020728505932
0.04038649763642586	0.0	0	-0.05027688194022343	0.04714533138799198	-0.005149878000306765	-0.014432800377533932	0.0	0.0	-0.6702610513189303	-0.05962457536714031	-0.057970568514933124	-0.019517977314240417
0.005970784012960637	0.0	0	0.07483594366799809	-0.044815296700112	0.021412422069048472	-0.007667920292372624	0.0	0.0	-0.6929283901156907	-0.057741783821413165	-0.05181112792889224	0.007347820160148178
0.018517677480941762	0.008519662574562012	0	-0.04458617484537958	0.04342769315114713	0	-0.007533582171335979	0.0	0.0	0.6726319292649157	-0.07294687605456726	-0.05241013501651207	-0.07022755043629524
0.03438938365843982	-0.003768933334173009	0	0.0693911221273807	0.045513013387321326	0	-0.009480781331331001	0.0	0.0	-0.6783988397656545	-0.05215523917214607	-0.04903318427739938	-0.05975390641308803
0.011881262447288675	0.0	0	-0.05229499374462974	-0.026180417960842094	0	0.03199857138453089	0.0	-0.006692825114570977	-0.6538546979509163	-0.061427732849598606	-0.0523368174678755	-0.02340633929641421
0.039389829151581054	0.0	0	0.06989971004835455	0.04738946536621047	-0.013501918780868231	-0.010087227288707165	0.0	0.0	-0.6479687577512904	-0.052172315197208205	-0.05973633271056971	-0.031293700681933496
0.03740435029530863	0.005060478758215188	0	-0.051743720996577466	0.04791270836049594	0	-0.008408107613113868	0.0	0.0	-0.6789274425042942	-0.061538158827667555	-0.0548733508935359	0.018104923151654583
-0.07907702967278354	0.00598972757798015	0	-0.0040239970530434885	0.04419590677551979	0	0.03358692695857266	0.0	0.0	-0.7003443708411818	0.04801097224107785	-0.05159978752876203	0.021258528659397244
0.04145903904929499	0.0	0	0.0747562387412911	-0.03973930266251206	-0.011715621193385232	0.025673921785578584	0.0	0.0	-0.6708010727895478	-0.03390660161311477	-0.05393748367689101	-0.008594885487482454
0.01650801669622287	0.0	0	0.07654991476713699	0.04603671564121689	-0.005046967363387688	-0.009722143862328525	0.0	0.0	-0.6495721686541018	-0.0612771407417732	0.039238501615835156	-0.02129421857391213
-0.07927393474423065	0.010719035373375036	0	-0.05118086869849609	-0.04595234286981498	0.021442022887655433	0	0.0	0.0	-0.6575919161049176	-0.04643164496457404	-0.04539532084158774	0.04194982724583273
0.034446058130415916	0.006321474770324927	0	0.07339103646644242	0.04769210454203047	0.022372257365094423	0	0.0	0.0	-0.6755206115935047	-0.05699760086356032	0.05047422909482359	0.0034111016836198744
-0.0788894165852441	0.0	0.008703764654158456	-0.04652922367278047	0.04792702359401948	0	-0.010810435728888205	0.0	-0.006308537242492037	-0.6436821442230769	-0.060529820126753855	-0.054932474986529874	0.0
0.036825519464955096	0.0	0.006102498492741128	0.0724416893085564	0.04631073133617844	0	-0.007311993186055637	0.0	0.0	-0.6595037513863226	-0.0381806000858204	0.03672855910812709	-0.010969652433430182
0.044076929964348095	0.00850054068521696	0	-0.043429290747747845	-0.04207919570384967	0.015490978522310822	-0.010773077109923744	0.0	0.0	-0.6732343840577325	-0.05351803166183736	-0.05649045000200837	0.0
0.038104160174579765	0.006302345053735333	-0.011400363751511907	0.0	0.04584897489886345	0	-0.004456788504879627	0.0	0.0	-0.6488017944022487	-0.06692462608127817	-0.050669597860372374	-0.008935547622981915
-0.07622733537399415	0.0075233315281052204	0	0.0651172497850159	-0.041354481985537525	0.02316391742546504	0	0.0	0.0	-0.6642961656399844	-0.06014082958620104	-0.05491735737918455	0.01046429345011126
0.04661383564573817	0.006535600296808787	0	0.07603152632531836	-0.04236242094493906	-0.010100026539272383	0	0.0	0.0	-0.6757450027123124	-0.044447871654912124	-0.055693970832060076	0.14865089621099062
0.032512029775090295	-0.010174980974194477	0.007726374964816661	0.06377014835558018	-0.024577807720984012	0.018690841131453386	0	0.0	0.0	-0.6631510844704359	-0.054767580941249026	-0.05313139590105296	0.0
0.033109418763931954	0.007001387108647059	0	-0.054398320236568806	0.04294249458707863	0	-0.012475707627444847	0.0	0.0	-0.6563276823967916	-0.028797524002026984	-0.05539522401220301	-0.04649839979422527
0.015632337580141976	0.006689786590252927	0	-0.009556910472068364	-0.04109054923238993	0.016303593761734923	0	0.0	0.006880702674644287	-0.6763160457962847	-0.042216809581298725	-0.05123911026699154	0.0
0.009378097037506722	0.0	0.0021026971667745297	-0.04679531178444997	-0.04684233159743944	0	0	0.0	-0.002727062040045208	-0.6964346054910368	-0.06085708806224982	-0.05536289682902597	0.031468415672740606
0.010499074334757125	0.0	0.0021252020724010436	0.0	0.04189209945226428	-0.017195365724784462	-0.009307475644562541	0.0	0.0	-0.6600933865818177	-0.05836413608651403	-0.05519339820493517	-0.013746384135515065
-0.07967561071246958	0.0	0.006057078108677608	-0.04908372870049637	-0.04385916887940129	-0.015251120527680892	-0.009770511446929508	0.0	0.0	-0.68085921702735	-0.0591939138468974	-0.049966033391395	0.0
-0.0812261514473133	0.004165011542188272	0	-0.04967790929629957	-0.042877306467822444	0	-0.006267283914785071	0.0	0.0	-0.648523510692173	-0.055594298169157015	0.03102161740402021	0.0017685291184502537
0.03962099192635658	0.007494644173141163	0	0.0	0.05030023582615915	-0.006494341700589062	0.024087592451232404	0.0	0.0	-0.6873041969908148	-0.04107926882941959	-0.053845844920640505	-0.023163726194708998
0.012852105596750618	-0.006271663114350373	0	-0.05041427935195169	0.04521576957724665	0	0	0.0	-0.003531176770059113	-0.676120692791112	-0.05035408766388106	0.046747076552699385	-0.01619561092636652
0.0320105538477446	0.0	0	-0.048200189293759264	0.04636632843713645	0	-0.00939319077328761	0.0	-0.0035675870368983625	-0.7212260138669799	-0.05281576416243942	-0.057423117283013095	-0.014373398900076184
0.0	0.0	0.007940381257300283	0.06920613461477197	-0.039918960392258854	0.017128832693454787	0	0.0	0.010130173271191954	-0.6527800426540292	-0.05711962650444714	-0.05773026417926474	-0.003485007599617815
0.036661684059957234	0.0	0	-0.04971649893598663	0.041739797172662484	0	-0.0019798171651198506	0.0	0.0013736275003252327	-0.6801202460894472	-0.04839164118225825	-0.0588001270016476	-0.036995607834639746
0.04381728946596469	0.010148087221974505	0	0.0758006207361464	0.051612548895263066	0	-0.006490220367755373	0.0	0.0	-0.6561999159288582	0.06290283152532031	0.046299591167473356	0.0063552076214059595
-0.07976589304151414	0.012079611217486162	0	0.06962645302234036	-0.045504856942099714	0	-0.01340199501160328	0.0	0.0	-0.6680908126537359	-0.07185314028627164	-0.054343452003069996	-0.010451452877250418
-0.08321730382105191	0.00987581225421452	0	-0.04437257541271588	-0.044313974517837924	-0.004887695593807222	0	0.0	0.0	-0.6592053488073826	-0.03878334171681003	-0.05141266899682138	0.009468241234979571
0.008294870446883177	0.0	0.005258127964185785	-0.05246332982779808	-0.04503124485711457	0	0.03609215973330348	0.0	0.0	-0.6931244679312515	-0.05156362148897798	-0.05775851379267859	-0.020456794833615746
-0.07410147828467295	0.008820869803096165	0	-0.05025451584197213	-0.04277342676939757	0	-0.0037793431401103015	0.0	0.0	-0.6600551016388126	-0.04547721102427802	0.0492835001139551	-0.0072784211859574875
-0.08124646414737799	0.007982162652144948	0	0.0	-0.04221579367178539	0	0.02768000949458138	0.0	-0.004202348345202559	-0.7113605761210283	-0.05578543565396638	-0.05186482046304869	-0.011546758134494838
0.01384739242669004	0.0	0	-0.04638272438684428	0.0529725477553167	0	0.02557480910228381	0.0	-0.0029208656245189673	-0.65977502231771	-0.06882626870378555	-0.05494932323244134	0.03866602190066721
0.011556208942134607	0.01161462616558374	0	0.06353472404967457	0.04704103276077622	-0.01273568119879537	-0.012505953716285307	0.0	0.0	-0.6540138702222017	-0.05588764097665869	-0.04851047711132787	0.0
0.009744484028193197	0.012558000254890811	0.004376480928627786	0.0	0.05073449613766849	0	-0.016730077286195695	0.0	0.0	-0.6533418733614763	-0.04685992442154237	-0.06169296708073119	-0.004661444450158882
0.0435212771796298	-0.007560702562895585	0	0.07381201303975636	0.04765277770823669	-0.004478718437318892	-0.006652549436521287	0.0	0.0	-0.654552406967412	0.05715709232432372	0.050324632200194994	0.0
0.04049134647664342	0.0	0	0.06945804544827877	0.05080312820887067	-0.008454007791718652	-0.011892301715315048	0.0	0.0	-0.6560917936579785	-0.07847032463963274	0.054578285067831335	0.011196551694595977
-0.07587091299470551	0.005915019612751033	0	-0.04828019739278207	-0.04676307639268925	0	-0.007784700248025983	0.0	0.0	-0.6833605129895741	-0.05654451417058168	-0.05027200684720061	-0.024010547214015365
-0.08790374095288585	0.011468691396845216	0	-0.047439290342017056	0.0414775454078136	0	-0.0065383373485241965	0.0	0.0	0.6643479763930867	-0.05087354015161728	0.02985320865540472	0.013379789564970136
0.009334823907311501	0.0	0	0.06706461876584327	0.05166626285817078	-0.007414123788250787	-0.015820282484036573	0.0	0.0	-0.6641325788050654	-0.06829637507186449	0.057078180105286425	-0.0323786089114774
0.035064196314503415	0.008469708814475604	-0.008510444418734619	0.0	0.04818693546216734	0	-0.0072247854501817565	0.0	0.0	0.6394939260197388	-0.0593130302581029	-0.05589176675926338	-0.08859752748002118
0.04031638463586543	0.00508943863456715	0	-0.04716358807510716	0.049259410234022145	-0.004541614113589806	0.024642186758441147	0.0	0.0	-0.690414163913265	-0.05267947867130639	-0.0521617316560324	0.0
-0.08285149985579211	0.008237260582191966	0	0.017103387601612896	-0.04319207881364045	0.01865173678904719	0	0.0	0.0	-0.6637261364210022	-0.04702011396511143	-0.061173513283184454	-0.020289583728940304
0.03864580417347331	0.012338738347975414	0	-0.05329559283962239	0.04544032992817583	0	-0.007728565226004035	0.0	0.0	-0.6707127619203048	-0.07267888554902373	0.04008761744375821	-0.03938577395626691
-0.08312578016399162	0.008487301643386645	0	-0.04405806150694155	-0.044257999019955384	-0.007440121023179017	-0.017350513295958755	0.0	0.0	-0.672765904164946	-0.0552852145514292	-0.052647759462378874	0.0
0.03688279809674493	0.005323891477537731	0.005000135793820713	-0.04781317896599428	-0.030765926606349834	0	0	0.0	0.0	-0.6923340202049573	-0.0492027953839162	-0.05309758387796549	-0.03225075924594766
-0.08295012013077428	0.0	0	0.06849613564642765	-0.04277616930901243	0.019664610143592765	-0.00886439952747009	0.0	0.0	-0.6314646921133473	-0.046893718672154375	-0.05479435583826421	-0.00850854070722503
0.03190546929346354	0.0	-0.004359418172548383	-0.05273009877235466	0.04886801366765074	0	-0.009561398478545815	0.0	0.0	-0.672961503493856	-0.06557366241167288	-0.0560955479813086	0.02283634887924029
0.009365567505713504	0.006298444102402989	0	-0.005703370492533314	-0.0430432942435187	-0.005584225154165978	0	0.0	0.0	-0.6891585660456624	-0.0507210013104923	-0.05626975466138873	-0.004382506056645527
0.04292875142938447	0.0	0	0.0699971723778606	0.05235852488794882	-0.0061765251878801025	-0.0053024685413209285	0.0	0.0	-0.6680663669510168	-0.024929663068763954	-0.05943563446519988	0.04799409316589468
0.03385644983240823	0.0	-0.011183582420059195	0.07192875465040384	0.044370976291912785	-0.01430704323659903	-0.009047439470298296	0.0	0.0	-0.662272102960475	-0.04852022444661449	0.05210518700803662	0.0
0.033445353474281	0.0	0	0.06416152295095628	-0.041045046014822874	-0.003277859505788105	-0.0036123063417783487	0.0	0.0	-0.667131911323103	-0.054260920770461955	-0.05645886788447007	-0.03498041076257391
0.048552280034656906	0.009267699260108278	0	0.06978327524297669	0.05141290792071333	0	-0.007899604132482066	0.0	0.0	-0.6589168442002998	-0.047726923352957744	0.04243871424238424	0.021391760009049413
0.03553522977063674	0.0	0	0.07457310268095672	0.03951763735353446	-0.005653856017185517	0.028561422240302173	0.0	0.0	-0.6581855766811264	-0.06246984154859906	-0.05396467150561603	0.019517920919127907
-0.08122223061001739	0.010103520943143419	0	-0.007046693389202001	-0.04587282703876796	-0.008784326682200359	0	0.0	0.0	-0.6627978648719215	-0.06076065980976646	-0.0544309189906055	-0.010105200524408754
0.041942729474697675	0.0	0	-0.052528850646698766	0.04784140495036394	-0.010060995543666568	0.037173169469734715	0.0	0.0	-0.6715736239723369	-0.0327866971711087	-0.05503164908033202	-0.05139524994979796
0.036914029453591304	0.017986178999657428	0	-0.04609860240510295	0.03920302316032723	0	-0.0062830042582765885	0.0	0.0	-0.6629763788698876	-0.05334562668161769	-0.05353910469433197	-0.010492218259195467
-0.07804492510206565	0.011772566725042649	-0.006648186171682213	-0.012393299883671388	-0.045371926296070904	0	0	0.0	0.0	-0.6666211278759456	-0.057496251246070676	-0.05424094585714968	-0.008026129077110387
-0.08592304976705512	0.0	0.002703489079409702	-0.004500687266386981	-0.0410093309810948	0.01814374417001589	0	0.0	0.0	-0.653055206728998	-0.0551405063221268	-0.05068334602678181	-0.031004130726326927
0.04140703547493536	0.010752396736617263	0	0.007137788979951577	0.04496218849709152	0	0.032356445157823675	0.0	0.0	-0.6943915835560674	-0.06800784621519647	-0.05335239299887471	-0.06676085301807948
0.03488196505250008	0.008055853002779816	0	-0.04614584972797706	0.05205565875091634	0	-0.013895084351148976	0.0	0.0	-0.6651074837853618	-0.05682623666561352	-0.05896083613482069	-0.008750647806613035
-0.07881153443450445	0.010425946917669572	0.007173713980004862	-0.047723938014422165	-0.04216277616365312	0	-0.004379727152611657	0.0	0.0	-0.6801965362611365	-0.065587886282851	-0.05458592540932578	0.0
0.04103923966523097	0.0	0	-0.00657232107594151	0.04924163447018951	0.006521212475956478	0.032564583952821316	0.0	0.0	-0.6576888634896717	-0.059835797540684056	-0.06113494304340049	-0.038459674593647894
0.03767819030346495	0.0	0	-0.04776634812692325	0.045656683875166054	0	-0.00505456118956837	0.0	-0.0018606870215325656	0.6813477261201469	-0.037797753358329425	0.04751601430983764	0.016360835508612614
0.009480896671987976	-0.010051757786797426	0	-0.0539051157468983	0.04380051361819496	0	-0.006019904349369949	0.0	0.0	-0.6582677421826507	-0.0449567694247912	0.05694023563423322	-0.030628545018087035
0.013374244941231888	0.0	0.0030870858143670164	0.07331221673917074	0.049589726544579514	0	-0.008252562222341036	0.0	0.0	-0.6959951668969335	0.06369846598810013	0.03813085667038818	-0.025463343142189444
-0.08398641435114669	0.004811512808418876	0	0.06728801324455404	-0.03816420711517671	0.016393084931209313	0	0.0	0.0	-0.6498709306979474	-0.039881517886863165	0.03081116409779645	0.061341632907034316
0.01138873302214577	0.0033771769867838083	0.0027961826148685844	0.0	0.04822171069558869	0	0.0332427537335787	0.0	0.0	-0.7003872813392092	-0.05579369122086595	-0.05405885885922848	0.011565798192557772
-0.07691473498930572	0.0	0	-0.04332927140278659	-0.039263809499702894	-0.009743215989455002	-0.0072109251693628145	0.0	0.0	-0.6633371988152678	-0.05357665836548998	-0.05635022276379085	-0.06519646502826945
0.0319543959190912	0.011730534047872884	0	-0.004837405116589447	0.045961065356135575	-0.006435093791480646	0	0.0	0.0	-0.6790334611340024	-0.049384805816662214	-0.05082863639889884	-0.017782749087915658
0.010662422629022556	0.012268328073212216	0	-0.051191983163697094	0.0454881990255857	0	0.023932519930966276	0.0	0.0	-0.6854587238190785	-0.07498518203732295	-0.0499575616337864	-0.05111228102802828
0.03947360938019399	0.0	0	-0.05228778504795279	0.04488902877113171	0.020830495960044326	-0.0037145654488416786	0.0	0.0	-0.6760074295787007	-0.05339548652384452	-0.0543647850666449	-0.02060173311098401
0.03614017023063113	-0.009013311662179982	0	-0.006180818566608592	-0.045164251805344426	-0.007071753117811934	0	0.0	0.0	-0.6785616728735945	-0.059239322065549625	-0.05225819490705929	-0.02576960353754662
0.05163333883144664	0.011179300759606657	0	0.07848541391373272	0.04476254995187192	-0.01082866767438524	-0.009746608117462544	0.0	0.0	0.6860758806131247	-0.07669828692759201	0.0571935733411797	0.0
0.044303641436970694	0.0	-0.0046793664042696585	-0.04870590321368381	-0.04352316722684447	-0.012536029946317844	0	0.0	0.0	-0.6747413855044628	-0.06682619255833269	-0.06156998635658657	0.013489566436980878
-0.08070962600093946	0.0	0	-0.05353660969819341	0.047123936938392674	0	0.032823435312294556	0.0	0.006250994339318333	0.6497751486070761	-0.050750409491959365	-0.053860840673880396	0.0793442931037123
0.0	0.0	-0.00938802998344282	0.06608640664336127	0.04602470427415615	-0.008217360598255717	-0.009067416282645879	0.0	0.0	-0.6858236850913834	-0.06399574560082749	-0.062114036279290005	-0.01573378950226543
0.04007095537789401	0.0	0	-0.005944902269536022	0.039888347352268004	-0.013124947250965665	0.003953128872626041	0.0	0.0	-0.6794377640727053	-0.04518236067497734	0.054224358691438906	0.004937781205749867
0.045006695392164724	0.0	0	-0.05091152725593601	0.0436957692952631	0.015723198165018572	0.02831592996610908	0.0	0.0	0.6874672378593236	-0.06548164247447597	0.055128295358196126	-0.015114357272476021
0.02762281371299801	0.012159329316582455	0	-0.006806252768174406	0.049430681134029646	0.010932478466885812	0.03283664272683094	0.0	0.0	-0.6495344001261483	-0.05379919734395065	-0.058806316566176665	0.0
-0.0858931430941735	0.0	-0.0063431835608807425	-0.04666134169642771	0.04125165031669014	-0.003661507132540193	0	0.0	0.0	-0.6370762944520567	-0.0396678955292939	-0.05787786359907515	0.013368282317551144
0.009092438481027653	0.0	0	-0.006753352850441659	0.046065774097818146	-0.01085376312592775	-0.008684404526972712	0.0	0.0	-0.6773542573626458	-0.03465918746460217	-0.05874982778863954	-0.040307080230215106
-0.07623324815515876	0.0	0	-0.04705692456047174	-0.04092462887734377	-0.01007838281766937	-0.005690021721114606	0.0	0.0	-0.668002364797171	-0.05403652085141371	-0.05956868385413802	0.049019119130801446
0.04508039630584314	0.0	0	0.07483619443492773	0.0473564541689287	-0.008146587118348548	-0.009616676423670078	0.0	0.0	-0.6504833050481117	-0.051239189179748144	0.046849396717768596	0.014621478659778418
-0.07351406945155518	0.006397482070217789	0	-0.04238577384684333	-0.03475120097543768	0	-0.008787765548166423	0.0	0.0	-0.6701234663405966	-0.07630028505178281	-0.05060307864662442	0.025752358369996366
0.01173639431056539	0.010312494546802818	0	-0.04979468053539565	0.04927075580984604	0	-0.0057107715186431995	0.0	0.0	-0.67710265840829	-0.056050663421083474	-0.057387715440520584	0.006810998402256753
0.03520291056191196	0.0	0	0.07113165846836916	-0.04114959330833061	0.015161952663968435	-0.006083208697564958	0.0	0.0	-0.669232751360144	0.049131067810453344	0.04526198923102825	0.011950176480082475
